{"learner":{"attributes":{"scikit_learn":"{\"_estimator_type\": \"classifier\"}"},"feature_names":[],"feature_types":[],"gradient_booster":{"model":{"cats":{"enc":[],"feature_segments":[],"sorted_idx":[]},"gbtree_model_param":{"num_parallel_tree":"1","num_trees":"300"},"iteration_indptr":[0,1,2,3,4,5,6,7,8,9,10,11,12,13,14,15,16,17,18,19,20,21,22,23,24,25,26,27,28,29,30,31,32,33,34,35,36,37,38,39,40,41,42,43,44,45,46,47,48,49,50,51,52,53,54,55,56,57,58,59,60,61,62,63,64,65,66,67,68,69,70,71,72,73,74,75,76,77,78,79,80,81,82,83,84,85,86,87,88,89,90,91,92,93,94,95,96,97,98,99,100,101,102,103,104,105,106,107,108,109,110,111,112,113,114,115,116,117,118,119,120,121,122,123,124,125,126,127,128,129,130,131,132,133,134,135,136,137,138,139,140,141,142,143,144,145,146,147,148,149,150,151,152,153,154,155,156,157,158,159,160,161,162,163,164,165,166,167,168,169,170,171,172,173,174,175,176,177,178,179,180,181,182,183,184,185,186,187,188,189,190,191,192,193,194,195,196,197,198,199,200,201,202,203,204,205,206,207,208,209,210,211,212,213,214,215,216,217,218,219,220,221,222,223,224,225,226,227,228,229,230,231,232,233,234,235,236,237,238,239,240,241,242,243,244,245,246,247,248,249,250,251,252,253,254,255,256,257,258,259,260,261,262,263,264,265,266,267,268,269,270,271,272,273,274,275,276,277,278,279,280,281,282,283,284,285,286,287,288,289,290,291,292,293,294,295,296,297,298,299,300],"tree_info":[0,0,0,0,0,0,0,0,0,0,0,0,0,0,0,0,0,0,0,0,0,0,0,0,0,0,0,0,0,0,0,0,0,0,0,0,0,0,0,0,0,0,0,0,0,0,0,0,0,0,0,0,0,0,0,0,0,0,0,0,0,0,0,0,0,0,0,0,0,0,0,0,0,0,0,0,0,0,0,0,0,0,0,0,0,0,0,0,0,0,0,0,0,0,0,0,0,0,0,0,0,0,0,0,0,0,0,0,0,0,0,0,0,0,0,0,0,0,0,0,0,0,0,0,0,0,0,0,0,0,0,0,0,0,0,0,0,0,0,0,0,0,0,0,0,0,0,0,0,0,0,0,0,0,0,0,0,0,0,0,0,0,0,0,0,0,0,0,0,0,0,0,0,0,0,0,0,0,0,0,0,0,0,0,0,0,0,0,0,0,0,0,0,0,0,0,0,0,0,0,0,0,0,0,0,0,0,0,0,0,0,0,0,0,0,0,0,0,0,0,0,0,0,0,0,0,0,0,0,0,0,0,0,0,0,0,0,0,0,0,0,0,0,0,0,0,0,0,0,0,0,0,0,0,0,0,0,0,0,0,0,0,0,0,0,0,0,0,0,0,0,0,0,0,0,0,0,0,0,0,0,0,0,0,0,0,0,0,0,0,0,0,0,0,0,0,0,0,0,0],"trees":[{"base_weights":[1.7651221E-1,-2.9111543E-1,7.973112E-1,-2.2954892E-1,-2.1112767E-1,9.0118223E-1,-2.339847E-1,-2.0364065E0,-1.224405E-1,9.2249435E-1,-1.8213676E-1,-9.0212923E-1,5.3839814E-2,-3.4382145E0,6.2844914E-1,-7.7478305E-2,-2.0718454E-1,9.393606E-1,-1.7413116E-1,-1.5937957E0,5.9372652E-2,-2.1506229E-1,5.452732E-2,-1.3973631E-1,8.9465654E-1,-3.436763E-2,-2.0646213E-1,9.532403E-1,-1.6653998E-1,-2.0740727E-1,-4.9054486E-1,1.4139055E-2,6.170556E-2,1.4687596E-4,-2.043784E-1,4.8281934E-2,-1.6169381E-1,-5.0120194E-2,5.8903772E-2],"categories":[],"categories_nodes":[],"categories_segments":[],"categories_sizes":[],"default_left":[0,0,0,0,0,0,0,0,0,0,0,0,0,0,0,0,0,0,0,0,0,0,0,0,0,0,0,0,0,0,0,0,0,0,0,0,0,0,0],"id":0,"left_children":[1,3,5,7,-1,9,11,13,15,17,-1,19,-1,21,23,25,-1,27,-1,29,-1,-1,-1,-1,31,33,-1,35,-1,-1,37,-1,-1,-1,-1,-1,-1,-1,-1],"loss_changes":[9.127965E2,4.3317853E2,1.4491382E2,3.417307E2,0E0,1.2222516E2,1.0991841E2,3.713286E2,3.0148532E2,9.410022E1,0E0,1.2176797E2,0E0,2.5840088E2,3.4313572E1,2.8838602E2,0E0,7.5400635E1,0E0,1.747779E2,0E0,0E0,0E0,0E0,6.536249E0,2.4729662E2,0E0,6.622107E1,0E0,0E0,3.9573616E1,0E0,0E0,0E0,0E0,0E0,0E0,0E0,0E0],"parents":[2147483647,0,0,1,1,2,2,3,3,5,5,6,6,7,7,8,8,9,9,11,11,13,13,14,14,15,15,17,17,19,19,24,24,25,25,27,27,30,30],"right_children":[2,4,6,8,-1,10,12,14,16,18,-1,20,-1,22,24,26,-1,28,-1,30,-1,-1,-1,-1,32,34,-1,36,-1,-1,38,-1,-1,-1,-1,-1,-1,-1,-1],"split_conditions":[1E0,1E0,1E0,1E0,-2.1112767E-1,1E0,1E0,1E0,1E0,1E0,-1.8213676E-1,1E0,5.3839814E-2,1E0,1E0,1E0,-2.0718454E-1,1E0,-1.7413116E-1,1E0,5.9372652E-2,-2.1506229E-1,5.452732E-2,-1.3973631E-1,1E0,1E0,-2.0646213E-1,1E0,-1.6653998E-1,-2.0740727E-1,1E0,1.4139055E-2,6.170556E-2,1.4687596E-4,-2.043784E-1,4.8281934E-2,-1.6169381E-1,-5.0120194E-2,5.8903772E-2],"split_indices":[147,310,1143,1057,0,1447,1317,890,1866,1522,0,701,0,424,807,253,0,1292,0,1249,0,0,0,0,974,118,0,1007,0,0,210,0,0,0,0,0,0,0,0],"split_type":[0,0,0,0,0,0,0,0,0,0,0,0,0,0,0,0,0,0,0,0,0,0,0,0,0,0,0,0,0,0,0,0,0,0,0,0,0,0,0],"sum_hessian":[3.1424922E3,1.7926663E3,1.349826E3,1.7660679E3,2.6598322E1,1.2264276E3,1.2339838E2,9.78238E1,1.6682441E3,1.2214955E3,4.9321394E0,8.194189E1,4.145649E1,6.3913063E1,3.3910732E1,1.6508054E3,1.7438635E1,1.2176202E3,3.8752522E0,6.174209E1,2.01998E1,5.372509E1,1.0187974E1,1.7614783E0,3.2149254E1,1.6344237E3,1.6381748E1,1.2144496E3,3.170661E0,1.7790932E1,4.3951157E1,1.2125601E1,2.0023653E1,1.620508E3,1.3915679E1,1.2116312E3,2.8183653E0,3.393933E1,1.00118265E1],"tree_param":{"num_deleted":"0","num_feature":"2048","num_nodes":"39","size_leaf_vector":"1"}},{"base_weights":[1.9435684E-1,-2.8199115E-1,8.052931E-1,-2.1081207E0,-1.7241646E-1,8.250822E-1,-1.8780243E-1,-2.5390065E0,6.2714815E-2,-1.233666E-1,-2.0526229E-1,8.465286E-1,-1.6593316E-1,-3.0902948E0,5.8757097E-2,-7.562255E-2,-1.7867307E-1,8.6555904E-1,-1.6381091E-1,-1.8516088E-1,5.791626E-2,-7.3832315E-1,1.571508E-1,8.7695795E-1,-1.6166E-1,-2.760092E-2,-2.0641008E-1,1.022722E-2,-1.8949871E-1,4.4445094E-2,-1.4976442E-1],"categories":[],"categories_nodes":[],"categories_segments":[],"categories_sizes":[],"default_left":[0,0,0,0,0,0,0,0,0,0,0,0,0,0,0,0,0,0,0,0,0,0,0,0,0,0,0,0,0,0,0],"id":1,"left_children":[1,3,5,7,9,11,-1,13,-1,15,-1,17,-1,19,-1,21,-1,23,-1,-1,-1,25,27,29,-1,-1,-1,-1,-1,-1,-1],"loss_changes":[9.260744E2,3.5748047E2,1.289339E2,1.4972412E2,3.2515582E2,1.262348E2,0E0,1.8788336E2,0E0,2.7455743E2,0E0,1.1130377E2,0E0,2.0905066E2,0E0,2.541323E2,0E0,6.716785E1,0E0,0E0,0E0,2.681651E2,2.2889848E2,6.6205444E1,0E0,0E0,0E0,0E0,0E0,0E0,0E0],"parents":[2147483647,0,0,1,1,2,2,3,3,4,4,5,5,7,7,9,9,11,11,13,13,15,15,17,17,21,21,22,22,23,23],"right_children":[2,4,6,8,10,12,-1,14,-1,16,-1,18,-1,20,-1,22,-1,24,-1,-1,-1,26,28,30,-1,-1,-1,-1,-1,-1,-1],"split_conditions":[1E0,1E0,1E0,1E0,1E0,1E0,-1.8780243E-1,1E0,6.2714815E-2,1E0,-2.0526229E-1,1E0,-1.6593316E-1,1E0,5.8757097E-2,1E0,-1.7867307E-1,1E0,-1.6381091E-1,-1.8516088E-1,5.791626E-2,1E0,1E0,1E0,-1.6166E-1,-2.760092E-2,-2.0641008E-1,1.022722E-2,-1.8949871E-1,4.4445094E-2,-1.4976442E-1],"split_indices":[147,1057,1693,184,92,1447,0,1289,0,310,0,1522,0,1250,0,80,0,1934,0,0,0,841,1452,1292,0,0,0,0,0,0,0],"split_type":[0,0,0,0,0,0,0,0,0,0,0,0,0,0,0,0,0,0,0,0,0,0,0,0,0,0,0,0,0,0,0],"sum_hessian":[3.1804065E3,1.7873473E3,1.3930593E3,1.0014416E2,1.6872031E3,1.3878573E3,5.202035E0,8.898573E1,1.1158424E1,1.6674384E3,1.976476E1,1.3815028E3,6.3543983E0,7.763099E1,1.1354746E1,1.6456865E3,2.1751875E1,1.3759417E3,5.561244E0,6.795579E1,9.6751995E0,4.2722226E2,1.2184642E3,1.3729095E3,3.0321019E0,4.0606796E2,2.1154293E1,1.2049445E3,1.3519731E1,1.3694558E3,3.453627E0],"tree_param":{"num_deleted":"0","num_feature":"2048","num_nodes":"31","size_leaf_vector":"1"}},{"base_weights":[1.8483602E-1,-2.636681E-1,7.834593E-1,-2.0113575E-1,-1.7281836E-1,8.2715416E-1,-1.5926366E0,-1.4758043E-1,-1.5910052E-1,8.3952415E-1,-1.6909774E-1,-1.676179E-1,5.7435393E-2,-1.1371868E-1,-1.7493683E-1,9.226148E-1,1.8163587E-1,-8.731313E-2,-1.8966922E-1,9.3425614E-1,-1.4552589E-1,3.1612903E-1,-1.6767111E-1,-3.1074535E-3,-1.8346165E-1,4.718201E-2,-1.3753687E-1,2.0925816E-2,-1.5777428E-1],"categories":[],"categories_nodes":[],"categories_segments":[],"categories_sizes":[],"default_left":[0,0,0,0,0,0,0,0,0,0,0,0,0,0,0,0,0,0,0,0,0,0,0,0,0,0,0,0,0],"id":2,"left_children":[1,3,5,7,-1,9,11,13,-1,15,-1,-1,-1,17,-1,19,21,23,-1,25,-1,27,-1,-1,-1,-1,-1,-1,-1],"loss_changes":[8.548596E2,3.6277185E2,1.4290033E2,2.847525E2,0E0,7.259436E1,1.2428902E2,1.9888348E2,0E0,7.289691E1,0E0,0E0,0E0,1.6869655E2,0E0,5.5663025E1,7.291205E1,1.5554886E2,0E0,4.3526123E1,0E0,5.339454E1,0E0,0E0,0E0,0E0,0E0,0E0,0E0],"parents":[2147483647,0,0,1,1,2,2,3,3,5,5,6,6,7,7,9,9,13,13,15,15,16,16,17,17,19,19,21,21],"right_children":[2,4,6,8,-1,10,12,14,-1,16,-1,-1,-1,18,-1,20,22,24,-1,26,-1,28,-1,-1,-1,-1,-1,-1,-1],"split_conditions":[1E0,1E0,1E0,1E0,-1.7281836E-1,1E0,1E0,1E0,-1.5910052E-1,1E0,-1.6909774E-1,-1.676179E-1,5.7435393E-2,1E0,-1.7493683E-1,1E0,1E0,1E0,-1.8966922E-1,1E0,-1.4552589E-1,1E0,-1.6767111E-1,-3.1074535E-3,-1.8346165E-1,4.718201E-2,-1.3753687E-1,2.0925816E-2,-1.5777428E-1],"split_indices":[147,1452,145,310,0,2004,52,92,0,1143,0,0,0,1923,0,1126,1847,745,0,1934,0,31,0,0,0,0,0,0,0],"split_type":[0,0,0,0,0,0,0,0,0,0,0,0,0,0,0,0,0,0,0,0,0,0,0,0,0,0,0,0,0],"sum_hessian":[3.1822432E3,1.8195492E3,1.362694E3,1.7856385E3,3.391059E1,1.3387275E3,2.3966434E1,1.7551544E3,3.048415E1,1.3356029E3,3.1246068E0,1.4460849E1,9.505585E0,1.7386205E3,1.653395E1,1.1854761E3,1.5012688E2,1.7272493E3,1.1371138E1,1.1826406E3,2.8354483E0,1.4550175E2,4.6251187E0,1.7162098E3,1.1039538E1,1.1803785E3,2.2619681E0,1.4218771E2,3.3140519E0],"tree_param":{"num_deleted":"0","num_feature":"2048","num_nodes":"29","size_leaf_vector":"1"}},{"base_weights":[1.8750232E-1,-2.3597625E-1,7.722869E-1,-1.8525484E-1,-1.4324953E-1,7.952674E-1,-1.424443E-1,-1.4249653E-1,-1.5566349E-1,8.0930465E-1,-1.535332E-1,-1.4562613E0,-5.435883E-2,8.217831E-1,-1.3504197E-1,-2.095499E0,8.656083E-1,-2.899893E-2,-1.9621517E-1,8.3247226E-1,-1.3612525E-1,-1.2899359E-1,6.1940677E-2,5.4125E-2,-8.580564E-2,1.5994383E-4,-1.4914243E-1,4.22049E-2,-1.20681286E-1],"categories":[],"categories_nodes":[],"categories_segments":[],"categories_sizes":[],"default_left":[0,0,0,0,0,0,0,0,0,0,0,0,0,0,0,0,0,0,0,0,0,0,0,0,0,0,0,0,0],"id":3,"left_children":[1,3,5,7,-1,9,-1,11,-1,13,-1,15,17,19,-1,21,23,25,-1,27,-1,-1,-1,-1,-1,-1,-1,-1,-1],"loss_changes":[7.924029E2,2.4698581E2,1.1409631E2,2.2767981E2,0E0,7.499463E1,0E0,2.0799226E2,0E0,6.0567993E1,0E0,1.6943477E2,1.6525476E2,5.2584595E1,0E0,1.4668832E2,1.590571E1,1.5931845E2,0E0,5.203833E1,0E0,0E0,0E0,0E0,0E0,0E0,0E0,0E0,0E0],"parents":[2147483647,0,0,1,1,2,2,3,3,5,5,7,7,9,9,11,11,12,12,13,13,15,15,16,16,17,17,19,19],"right_children":[2,4,6,8,-1,10,-1,12,-1,14,-1,16,18,20,-1,22,24,26,-1,28,-1,-1,-1,-1,-1,-1,-1,-1,-1],"split_conditions":[1E0,1E0,1E0,1E0,-1.4324953E-1,1E0,-1.424443E-1,1E0,-1.5566349E-1,1E0,-1.535332E-1,1E0,1E0,1E0,-1.3504197E-1,1E0,1E0,1E0,-1.9621517E-1,1E0,-1.3612525E-1,-1.2899359E-1,6.1940677E-2,5.4125E-2,-8.580564E-2,1.5994383E-4,-1.4914243E-1,4.22049E-2,-1.20681286E-1],"split_indices":[147,310,1592,92,0,2004,0,1057,0,1292,0,875,913,1934,0,11,1602,1866,0,1447,0,0,0,0,0,0,0,0,0],"split_type":[0,0,0,0,0,0,0,0,0,0,0,0,0,0,0,0,0,0,0,0,0,0,0,0,0,0,0,0,0],"sum_hessian":[3.198034E3,1.85518E3,1.3428539E3,1.8211158E3,3.4064205E1,1.3351611E3,7.692749E0,1.7959381E3,2.5177734E1,1.3311184E3,4.042653E0,1.1193483E2,1.6840033E3,1.3271663E3,3.9521616E0,8.7847015E1,2.4087812E1,1.6740406E3,9.962561E0,1.3239386E3,3.2277243E0,7.6901825E1,1.0945194E1,2.2756716E1,1.3310971E0,1.6569781E3,1.7062618E1,1.3199512E3,3.9873717E0],"tree_param":{"num_deleted":"0","num_feature":"2048","num_nodes":"29","size_leaf_vector":"1"}},{"base_weights":[9.493392E-2,-3.0236706E-1,6.84738E-1,-2.4665669E-1,-1.7023015E-1,7.8740174E-1,-4.5274E-1,-8.484182E-1,-2.4328193E-2,9.2231625E-1,-1.2686072E-2,-8.380768E-1,5.517156E-2,-1.1991378E0,8.862607E-1,2.617287E-2,-1.3973995E-1,9.354632E-1,-1.6512671E-1,-5.995492E-1,1.0506588E0,-1.398853E0,8.9309394E-1,-1.5863E0,-7.5043984E-2,1.0024527E0,-1.2239965E-1,6.448447E-2,-1.6848819E-1,9.456231E-1,-1.5137945E-1,-1.8604873E-1,1.0015319E-1,5.250609E-1,5.7765167E-2,-1.9696004E0,6.0596514E-2,2.990002E-2,5.640508E-2,-9.028059E-2,5.6302994E-2,8.605138E-3,-1.7228214E-1,5.572569E-2,1.8444777E-2,-9.036295E-2,6.747588E-3,4.7798652E-2,-1.0595117E-1,2.0330263E-2,-1.6855216E-1,-1.1817771E-1,5.610341E-2,-1.3397665E-1,5.63309E-2],"categories":[],"categories_nodes":[],"categories_segments":[],"categories_sizes":[],"default_left":[0,0,0,0,0,0,0,0,0,0,0,0,0,0,0,0,0,0,0,0,0,0,0,0,0,0,0,0,0,0,0,0,0,0,0,0,0,0,0,0,0,0,0,0,0,0,0,0,0,0,0,0,0,0,0],"id":4,"left_children":[1,3,5,7,-1,9,11,13,15,17,19,21,-1,23,25,27,-1,29,-1,31,33,35,37,39,41,43,-1,45,-1,47,-1,-1,49,51,-1,53,-1,-1,-1,-1,-1,-1,-1,-1,-1,-1,-1,-1,-1,-1,-1,-1,-1,-1,-1],"loss_changes":[6.939446E2,3.0499966E2,1.3954266E2,2.3270343E2,0E0,1.1805701E2,6.0472473E1,2.865548E2,1.7793282E2,5.5067444E1,9.971672E1,7.907178E1,0E0,1.6994525E2,3.325138E1,1.627769E2,0E0,4.0456726E1,0E0,2.2522668E2,2.519184E0,9.319241E1,7.279167E-1,1.7490234E2,8.486131E1,5.0930786E0,0E0,1.6333463E2,0E0,3.1589355E1,0E0,0E0,9.186835E1,2.2086279E1,0E0,1.1377702E2,0E0,0E0,0E0,0E0,0E0,0E0,0E0,0E0,0E0,0E0,0E0,0E0,0E0,0E0,0E0,0E0,0E0,0E0,0E0],"parents":[2147483647,0,0,1,1,2,2,3,3,5,5,6,6,7,7,8,8,9,9,10,10,11,11,13,13,14,14,15,15,17,17,19,19,20,20,21,21,22,22,23,23,24,24,25,25,27,27,29,29,32,32,33,33,35,35],"right_children":[2,4,6,8,-1,10,12,14,16,18,20,22,-1,24,26,28,-1,30,-1,32,34,36,38,40,42,44,-1,46,-1,48,-1,-1,50,52,-1,54,-1,-1,-1,-1,-1,-1,-1,-1,-1,-1,-1,-1,-1,-1,-1,-1,-1,-1,-1],"split_conditions":[1E0,1E0,1E0,1E0,-1.7023015E-1,1E0,1E0,1E0,1E0,1E0,1E0,1E0,5.517156E-2,1E0,1E0,1E0,-1.3973995E-1,1E0,-1.6512671E-1,1E0,1E0,1E0,1E0,1E0,1E0,1E0,-1.2239965E-1,1E0,-1.6848819E-1,1E0,-1.5137945E-1,-1.8604873E-1,1E0,1E0,5.7765167E-2,1E0,6.0596514E-2,2.990002E-2,5.640508E-2,-9.028059E-2,5.6302994E-2,8.605138E-3,-1.7228214E-1,5.572569E-2,1.8444777E-2,-9.036295E-2,6.747588E-3,4.7798652E-2,-1.0595117E-1,2.0330263E-2,-1.6855216E-1,-1.1817771E-1,5.610341E-2,-1.3397665E-1,5.63309E-2],"split_indices":[147,1602,1143,80,0,1873,749,229,1452,1022,579,1317,0,1028,1807,913,0,2025,0,294,1199,1127,2,1647,1017,1132,0,1057,0,1292,0,0,1911,166,0,353,0,0,0,0,0,0,0,0,0,0,0,0,0,0,0,0,0,0,0],"split_type":[0,0,0,0,0,0,0,0,0,0,0,0,0,0,0,0,0,0,0,0,0,0,0,0,0,0,0,0,0,0,0,0,0,0,0,0,0,0,0,0,0,0,0,0,0,0,0,0,0,0,0,0,0,0,0],"sum_hessian":[2.9595188E3,1.76863E3,1.1908888E3,1.7384894E3,3.0140528E1,1.0925846E3,9.830413E1,4.6826154E2,1.2702279E3,9.3480133E2,1.5778331E2,7.916329E1,1.9140842E1,3.8976672E2,7.849483E1,1.248461E3,2.1766811E1,9.3267755E2,2.1237373E0,1.0195192E2,5.5831394E1,5.993921E1,1.922408E1,2.8960822E2,1.00158485E2,7.652735E1,1.9674771E0,1.2355037E3,1.2957447E1,9.3105206E2,1.6255069E0,1.787816E1,8.407376E1,1.0269316E1,4.5562077E1,4.938801E1,1.0551202E1,1.00939455E1,9.130134E0,2.6825256E2,2.1355661E1,9.420026E1,5.9582267E0,6.43808E1,1.2146552E1,4.393231E1,1.1915713E3,9.2860406E2,2.448016E0,7.8064735E1,6.009026E0,1.252089E0,9.017226E0,4.028551E1,9.102495E0],"tree_param":{"num_deleted":"0","num_feature":"2048","num_nodes":"55","size_leaf_vector":"1"}},{"base_weights":[1.684786E-1,-2.2401759E-1,7.230046E-1,-1.724787E-1,-1.3286422E-1,7.4559695E-1,-1.7278074E-1,-6.9466203E-1,4.0525872E-2,8.3583534E-1,-5.9421796E-2,-5.4692477E-1,-1.6226569E-1,7.661821E-2,-1.8034963E-1,9.5078015E-1,1.8984143E-1,-3.9047647E-1,5.8326285E-2,-7.3203146E-1,7.928948E-1,1.270619E-1,-2.1474783E0,9.6274716E-1,-1.274624E-1,-5.488571E-1,7.546266E-1,1.6399784E-1,-1.7871432E-1,-3.0146066E-2,-1.6708128E-1,4.6934288E-2,-1.08363904E-1,7.980711E-3,-1.4783502E-1,-2.0056842E-1,4.585328E-2,4.8478547E-2,-1.363471E-1,-5.1170625E-2,4.3894153E-2,4.279234E-2,-1.09522514E-1,2.303461E-2,-1.5107255E-1],"categories":[],"categories_nodes":[],"categories_segments":[],"categories_sizes":[],"default_left":[0,0,0,0,0,0,0,0,0,0,0,0,0,0,0,0,0,0,0,0,0,0,0,0,0,0,0,0,0,0,0,0,0,0,0,0,0,0,0,0,0,0,0,0,0],"id":5,"left_children":[1,3,5,7,-1,9,-1,11,13,15,17,19,-1,21,-1,23,25,27,-1,29,31,33,35,37,-1,39,41,43,-1,-1,-1,-1,-1,-1,-1,-1,-1,-1,-1,-1,-1,-1,-1,-1,-1],"loss_changes":[6.820542E2,2.2969943E2,1.2518115E2,2.0004587E2,0E0,9.394519E1,0E0,1.9457652E2,1.6854955E2,8.6127014E1,5.3710903E1,1.2303281E2,0E0,1.4238216E2,0E0,4.3773865E1,7.418769E1,1.8429976E2,0E0,1.4432088E2,2.810699E1,1.2489925E2,1.6445575E2,2.741565E1,0E0,5.3165565E1,3.1872978E1,8.606155E1,0E0,0E0,0E0,0E0,0E0,0E0,0E0,0E0,0E0,0E0,0E0,0E0,0E0,0E0,0E0,0E0,0E0],"parents":[2147483647,0,0,1,1,2,2,3,3,5,5,7,7,8,8,9,9,10,10,11,11,13,13,15,15,16,16,17,17,19,19,20,20,21,21,22,22,23,23,25,25,26,26,27,27],"right_children":[2,4,6,8,-1,10,-1,12,14,16,18,20,-1,22,-1,24,26,28,-1,30,32,34,36,38,-1,40,42,44,-1,-1,-1,-1,-1,-1,-1,-1,-1,-1,-1,-1,-1,-1,-1,-1,-1],"split_conditions":[1E0,1E0,1E0,1E0,-1.3286422E-1,1E0,-1.7278074E-1,1E0,1E0,1E0,1E0,1E0,-1.6226569E-1,1E0,-1.8034963E-1,1E0,1E0,1E0,5.8326285E-2,1E0,1E0,1E0,1E0,1E0,-1.274624E-1,1E0,1E0,1E0,-1.7871432E-1,-3.0146066E-2,-1.6708128E-1,4.6934288E-2,-1.08363904E-1,7.980711E-3,-1.4783502E-1,-2.0056842E-1,4.585328E-2,4.8478547E-2,-1.363471E-1,-5.1170625E-2,4.3894153E-2,4.279234E-2,-1.09522514E-1,2.303461E-2,-1.5107255E-1],"split_indices":[147,1452,1693,80,0,1143,0,841,1130,1873,749,1063,0,1267,0,2004,1,1034,0,1004,1088,913,1771,406,0,450,739,401,0,0,0,0,0,0,0,0,0,0,0,0,0,0,0,0,0],"split_type":[0,0,0,0,0,0,0,0,0,0,0,0,0,0,0,0,0,0,0,0,0,0,0,0,0,0,0,0,0,0,0,0,0,0,0,0,0,0,0,0,0,0,0,0,0],"sum_hessian":[3.1319858E3,1.8342738E3,1.2977119E3,1.7972767E3,3.6997135E1,1.2915505E3,6.161398E0,5.2006635E2,1.2772103E3,1.1613329E3,1.302176E2,4.9274057E2,2.7325792E1,1.2656655E3,1.1544817E1,9.855053E2,1.7582758E2,1.03066925E2,2.7150686E1,4.333267E2,5.9413883E1,1.2385182E3,2.7147379E1,9.828697E2,2.635615E0,7.619637E1,9.96312E1,8.858752E1,1.447941E1,4.1407144E2,1.9255224E1,5.7275894E1,2.1379895E0,1.2265193E3,1.1998948E1,1.6688368E1,1.0459012E1,9.8179114E2,1.0785264E0,5.739021E1,1.8806162E1,9.700655E1,2.6246498E0,8.182195E1,6.7655635E0],"tree_param":{"num_deleted":"0","num_feature":"2048","num_nodes":"45","size_leaf_vector":"1"}},{"base_weights":[1.5027785E-1,-4.8190647E-1,5.069434E-1,-2.7630618E-1,-1.9229962E0,5.247853E-1,-1.5511727E-1,-4.311289E-1,7.902634E-1,-2.3938034E0,1.4095068E-1,5.4176116E-1,-1.6057079E-1,-6.540993E-1,6.764148E-1,-1.0715582E-1,8.8013744E-1,-2.7527158E0,5.4557722E-2,4.70687E-1,-1.16626956E-1,5.5827695E-1,-1.4321777E-1,-1.1187421E0,-1.7380244E-1,7.445408E-1,-1.2945448E-1,9.5993793E-1,2.4706875E-1,-3.1892543E0,5.064326E-2,4.1876543E-2,4.9057327E-2,5.7060206E-1,-1.6807215E-1,-6.541272E-2,5.6818742E-2,1.0379229E-3,-1.7856918E-1,4.0823717E-2,-1.1068963E-1,3.9292607E-2,5.6442436E-2,-1.581399E-1,6.264513E-2,-1.2657158E-1,-1.6736071E-1,-1.2903844E-1,4.5672406E-2,2.915805E-2,-1.5335421E-1],"categories":[],"categories_nodes":[],"categories_segments":[],"categories_sizes":[],"default_left":[0,0,0,0,0,0,0,0,0,0,0,0,0,0,0,0,0,0,0,0,0,0,0,0,0,0,0,0,0,0,0,0,0,0,0,0,0,0,0,0,0,0,0,0,0,0,0,0,0,0,0],"id":6,"left_children":[1,3,5,7,9,11,-1,13,15,17,19,21,-1,23,25,-1,27,29,-1,31,-1,33,-1,35,37,39,-1,41,43,45,-1,47,-1,49,-1,-1,-1,-1,-1,-1,-1,-1,-1,-1,-1,-1,-1,-1,-1,-1,-1],"loss_changes":[6.9062573E2,3.2683298E2,1.2771457E2,1.6020216E2,1.3422531E2,1.2536798E2,0E0,2.0936934E2,3.4331345E1,1.4340265E2,2.2741102E1,1.10802246E2,0E0,1.5708432E2,3.357821E1,0E0,5.8311386E0,1.709834E2,0E0,5.2663975E0,0E0,9.528894E1,0E0,1.545003E2,2.2993379E2,3.1629845E1,0E0,2.2393875E0,5.469914E1,1.0542603E0,0E0,3.486656E1,0E0,8.984741E1,0E0,0E0,0E0,0E0,0E0,0E0,0E0,0E0,0E0,0E0,0E0,0E0,0E0,0E0,0E0,0E0,0E0],"parents":[2147483647,0,0,1,1,2,2,3,3,4,4,5,5,7,7,8,8,9,9,10,10,11,11,13,13,14,14,16,16,17,17,19,19,21,21,23,23,24,24,25,25,27,27,28,28,29,29,31,31,33,33],"right_children":[2,4,6,8,10,12,-1,14,16,18,20,22,-1,24,26,-1,28,30,-1,32,-1,34,-1,36,38,40,-1,42,44,46,-1,48,-1,50,-1,-1,-1,-1,-1,-1,-1,-1,-1,-1,-1,-1,-1,-1,-1,-1,-1],"split_conditions":[1E0,1E0,1E0,1E0,1E0,1E0,-1.5511727E-1,1E0,1E0,1E0,1E0,1E0,-1.6057079E-1,1E0,1E0,-1.0715582E-1,1E0,1E0,5.4557722E-2,1E0,-1.16626956E-1,1E0,-1.4321777E-1,1E0,1E0,1E0,-1.2945448E-1,1E0,1E0,1E0,5.064326E-2,1E0,4.9057327E-2,1E0,-1.6807215E-1,-6.541272E-2,5.6818742E-2,1.0379229E-3,-1.7856918E-1,4.0823717E-2,-1.1068963E-1,3.9292607E-2,5.6442436E-2,-1.581399E-1,6.264513E-2,-1.2657158E-1,-1.6736071E-1,-1.2903844E-1,4.5672406E-2,2.915805E-2,-1.5335421E-1],"split_indices":[1917,1750,1004,229,591,1110,0,675,1057,1289,695,1226,0,694,887,0,283,567,0,1267,0,1432,0,1760,1143,1243,0,739,81,1057,0,474,0,1410,0,0,0,0,0,0,0,0,0,0,0,0,0,0,0,0,0],"split_type":[0,0,0,0,0,0,0,0,0,0,0,0,0,0,0,0,0,0,0,0,0,0,0,0,0,0,0,0,0,0,0,0,0,0,0,0,0,0,0,0,0,0,0,0,0,0,0,0,0,0,0],"sum_hessian":[3.0608523E3,1.1038838E3,1.9569686E3,9.6709937E2,1.3678435E2,1.9481926E3,8.775958E0,8.4503094E2,1.2206847E2,1.1124779E2,2.5536566E1,1.9402319E3,7.9606824E0,7.0375964E2,1.412713E2,2.9496496E0,1.1911882E2,1.0105077E2,1.0197008E1,2.3247229E1,2.2893374E0,1.9317015E3,8.5304365E0,3.5703348E2,3.4672614E2,1.391405E2,2.130799E0,1.05325806E2,1.3793011E1,9.069024E1,1.0360537E1,1.3222083E1,1.00251465E1,1.9264983E3,5.203238E0,3.297429E2,2.729059E1,3.288865E2,1.7839642E1,1.3654437E2,2.596142E0,5.465193E1,5.0673878E1,2.6533754E0,1.1139635E1,2.0857052E1,6.983319E1,2.8088684E0,1.0413215E1,1.9207068E3,5.791468E0],"tree_param":{"num_deleted":"0","num_feature":"2048","num_nodes":"51","size_leaf_vector":"1"}},{"base_weights":[1.5970613E-1,-1.5049605E-1,6.656145E-1,-1.1901136E-1,-1.6057692E-1,7.0411795E-1,-1.0617046E0,-7.568284E-2,-1.1966876E-1,7.1854246E-1,-1.5293968E-1,-1.2875722E-1,5.94727E-2,-1.7542441E-1,7.657855E-1,7.4598396E-1,-1.1903412E0,-2.4305291E-1,1.1415433E0,8.4195983E-1,-1.4001879E-1,7.561499E-1,-1.4180551E-1,-1.7799363E-1,4.9256716E-2,-1.8153096E-2,2.8146554E-2,3.9152E-2,5.958972E-2,4.3959927E-2,-1.1904625E-1,3.836754E-2,-1.2124538E-1],"categories":[],"categories_nodes":[],"categories_segments":[],"categories_sizes":[],"default_left":[0,0,0,0,0,0,0,0,0,0,0,0,0,0,0,0,0,0,0,0,0,0,0,0,0,0,0,0,0,0,0,0,0],"id":7,"left_children":[1,3,5,7,-1,9,11,13,-1,15,-1,-1,-1,17,19,21,23,25,27,29,-1,31,-1,-1,-1,-1,-1,-1,-1,-1,-1,-1,-1],"loss_changes":[4.8770383E2,1.8532368E2,7.930487E1,1.8787308E2,0E0,6.494446E1,9.216969E1,1.5739018E2,0E0,6.1254578E1,0E0,0E0,0E0,1.4954309E2,5.6346107E1,4.3537598E1,8.9681816E1,1.5447092E2,5.446396E-1,2.5539001E1,0E0,4.227588E1,0E0,0E0,0E0,0E0,0E0,0E0,0E0,0E0,0E0,0E0,0E0],"parents":[2147483647,0,0,1,1,2,2,3,3,5,5,6,6,7,7,9,9,13,13,14,14,15,15,16,16,17,17,18,18,19,19,21,21],"right_children":[2,4,6,8,-1,10,12,14,-1,16,-1,-1,-1,18,20,22,24,26,28,30,-1,32,-1,-1,-1,-1,-1,-1,-1,-1,-1,-1,-1],"split_conditions":[1E0,1E0,1E0,1E0,-1.6057692E-1,1E0,1E0,1E0,-1.1966876E-1,1E0,-1.5293968E-1,-1.2875722E-1,5.94727E-2,1E0,1E0,1E0,1E0,1E0,1E0,1E0,-1.4001879E-1,1E0,-1.4180551E-1,-1.7799363E-1,4.9256716E-2,-1.8153096E-2,2.8146554E-2,3.9152E-2,5.958972E-2,4.3959927E-2,-1.1904625E-1,3.836754E-2,-1.2124538E-1],"split_indices":[147,1126,145,310,0,406,59,229,0,1243,0,0,0,535,1564,516,582,1028,401,116,0,2004,0,0,0,0,0,0,0,0,0,0,0],"split_type":[0,0,0,0,0,0,0,0,0,0,0,0,0,0,0,0,0,0,0,0,0,0,0,0,0,0,0,0,0,0,0,0,0],"sum_hessian":[3.1060645E3,1.9258904E3,1.1801742E3,1.9073114E3,1.8578981E1,1.15502E3,2.5154055E1,1.8726687E3,3.4642616E1,1.1514154E3,3.6047173E0,1.4955588E1,1.0198467E1,1.6749266E3,1.9774216E2,1.1356981E3,1.5717217E1,1.593893E3,8.103363E1,1.9435458E2,3.3875735E0,1.1332709E3,2.4272938E0,7.218477E0,8.498741E0,1.3878022E3,2.0609074E2,1.200066E1,6.903297E1,1.9285347E2,1.501118E0,1.1300505E3,3.2202926E0],"tree_param":{"num_deleted":"0","num_feature":"2048","num_nodes":"33","size_leaf_vector":"1"}},{"base_weights":[1.8839015E-1,-1.3926698E-1,6.976663E-1,-6.1521226E-1,4.793552E-2,7.1940976E-1,-1.6028854E-1,-4.9079782E-1,-1.3503686E-1,9.336888E-2,-1.11862086E-1,7.423447E-1,-1.0995159E-1,-3.9465505E-1,-1.5990053E-1,1.2259325E-1,-1.4879535E-1,7.558058E-1,-1.4231037E-1,-2.836633E-1,-1.8168392E0,1.469207E-1,-1.8172903E-1,8.400833E-1,2.8300977E-1,-1.1500281E-2,-1.5062653E-1,-1.4967832E-1,5.8526147E-2,9.2621185E-3,-1.1051235E-1,4.6142347E-2,1.5138701E-2,1.8410394E-2,-1.6963531E-1],"categories":[],"categories_nodes":[],"categories_segments":[],"categories_sizes":[],"default_left":[0,0,0,0,0,0,0,0,0,0,0,0,0,0,0,0,0,0,0,0,0,0,0,0,0,0,0,0,0,0,0,0,0,0,0],"id":8,"left_children":[1,3,5,7,9,11,-1,13,-1,15,-1,17,-1,19,-1,21,-1,23,-1,25,27,29,-1,31,33,-1,-1,-1,-1,-1,-1,-1,-1,-1,-1],"loss_changes":[5.297473E2,1.7219048E2,1.0778845E2,1.4022484E2,1.4428699E2,8.441254E1,0E0,1.330542E2,0E0,1.2249997E2,0E0,6.1463257E1,0E0,7.8329506E1,0E0,1.2390438E2,0E0,4.8535645E1,0E0,6.732362E1,1.2996643E2,1.21635574E2,0E0,4.5895752E1,5.9713448E1,0E0,0E0,0E0,0E0,0E0,0E0,0E0,0E0,0E0,0E0],"parents":[2147483647,0,0,1,1,2,2,3,3,4,4,5,5,7,7,9,9,11,11,13,13,15,15,17,17,19,19,20,20,21,21,23,23,24,24],"right_children":[2,4,6,8,10,12,-1,14,-1,16,-1,18,-1,20,-1,22,-1,24,-1,26,28,30,-1,32,34,-1,-1,-1,-1,-1,-1,-1,-1,-1,-1],"split_conditions":[1E0,1E0,1E0,1E0,1E0,1E0,-1.6028854E-1,1E0,-1.3503686E-1,1E0,-1.11862086E-1,1E0,-1.0995159E-1,1E0,-1.5990053E-1,1E0,-1.4879535E-1,1E0,-1.4231037E-1,1E0,1E0,1E0,-1.8172903E-1,1E0,1E0,-1.1500281E-2,-1.5062653E-1,-1.4967832E-1,5.8526147E-2,9.2621185E-3,-1.1051235E-1,4.6142347E-2,1.5138701E-2,1.8410394E-2,-1.6963531E-1],"split_indices":[147,80,1693,841,1452,1592,0,598,0,1130,0,406,0,389,0,759,0,1873,0,918,336,310,0,1143,1308,0,0,0,0,0,0,0,0,0,0],"split_type":[0,0,0,0,0,0,0,0,0,0,0,0,0,0,0,0,0,0,0,0,0,0,0,0,0,0,0,0,0,0,0,0,0,0,0],"sum_hessian":[3.1730676E3,1.9312622E3,1.2418054E3,5.4453796E2,1.3867244E3,1.2357377E3,6.0677776E0,5.1504755E2,2.9490425E1,1.3606317E3,2.609262E1,1.226842E3,8.895653E0,4.9849014E2,1.6557383E1,1.3487495E3,1.1882174E1,1.2230436E3,3.798406E0,4.6351538E2,3.4974754E1,1.3410273E3,7.722164E0,1.0373547E3,1.8568881E2,4.5564044E2,7.8749657E0,2.5089773E1,9.884981E0,1.3204811E3,2.0546318E1,8.982731E2,1.3908168E2,1.8236174E2,3.3270714E0],"tree_param":{"num_deleted":"0","num_feature":"2048","num_nodes":"35","size_leaf_vector":"1"}},{"base_weights":[1.7617445E-1,-2.9190925E-1,4.9908343E-1,-4.31434E-1,4.855565E-1,6.775338E-1,-2.0791154E-1,-5.8204174E-1,6.0150915E-1,-1.1660054E0,9.400882E-1,6.9783145E-1,-1.5684056E-1,9.044675E-2,-1.5302106E0,-7.013129E-1,6.8192804E-1,6.9314307E-1,-1.2665091E-1,-2.833104E-1,-1.6971447E-1,9.954615E-1,-1.2982903E-1,7.1157295E-1,-1.5839735E-1,1.8413703E-1,-1.4099936E-1,-2.0684528E0,6.1570715E-2,-8.6769205E-1,4.040962E-1,8.350283E-1,-1.3833547E-1,7.331407E-1,-1.1251738E-1,-1.0586944E0,5.977262E-2,1.0520157E0,-1.2944655E-1,7.6270694E-1,-3.3078894E-1,2.5524476E-1,-1.466407E-1,-1.3050729E-1,5.40235E-2,-4.8094373E-2,5.4105658E-2,2.8681606E-2,-1.538345E-1,4.577483E-2,-1.0784594E-1,3.8657065E-2,-1.0734122E-1,-1.633494E-1,5.1351704E-2,5.450661E-2,2.6835715E-2,3.8648304E-2,-1.5135516E-1,-4.5541815E-2,5.008346E-2,1.5521491E-2,-1.5732522E-1],"categories":[],"categories_nodes":[],"categories_segments":[],"categories_sizes":[],"default_left":[0,0,0,0,0,0,0,0,0,0,0,0,0,0,0,0,0,0,0,0,0,0,0,0,0,0,0,0,0,0,0,0,0,0,0,0,0,0,0,0,0,0,0,0,0,0,0,0,0,0,0,0,0,0,0,0,0,0,0,0,0,0,0],"id":9,"left_children":[1,3,5,7,9,11,13,15,17,19,21,23,-1,25,27,29,31,33,-1,35,-1,37,-1,39,-1,41,-1,43,-1,45,47,49,-1,51,-1,53,-1,55,-1,57,59,61,-1,-1,-1,-1,-1,-1,-1,-1,-1,-1,-1,-1,-1,-1,-1,-1,-1,-1,-1,-1,-1],"loss_changes":[4.7194492E2,1.3850517E2,2.3323175E2,1.6859006E2,1.4706955E2,1.1641901E2,1.47338E2,1.4284247E2,4.1424007E1,8.245972E1,3.255577E1,8.025952E1,0E0,8.3786575E1,1.0473065E2,1.5914587E2,4.557019E1,1.7540115E1,0E0,3.7349167E1,0E0,3.3415024E1,0E0,7.828583E1,0E0,6.6527176E1,0E0,1.0159122E2,0E0,1.389295E2,6.8823425E1,2.1047157E1,0E0,1.7086723E1,0E0,1.0088579E2,0E0,2.3564758E0,0E0,5.6612305E1,5.4364456E1,5.562046E1,0E0,0E0,0E0,0E0,0E0,0E0,0E0,0E0,0E0,0E0,0E0,0E0,0E0,0E0,0E0,0E0,0E0,0E0,0E0,0E0,0E0],"parents":[2147483647,0,0,1,1,2,2,3,3,4,4,5,5,6,6,7,7,8,8,9,9,10,10,11,11,13,13,14,14,15,15,16,16,17,17,19,19,21,21,23,23,25,25,27,27,29,29,30,30,31,31,33,33,35,35,37,37,39,39,40,40,41,41],"right_children":[2,4,6,8,10,12,14,16,18,20,22,24,-1,26,28,30,32,34,-1,36,-1,38,-1,40,-1,42,-1,44,-1,46,48,50,-1,52,-1,54,-1,56,-1,58,60,62,-1,-1,-1,-1,-1,-1,-1,-1,-1,-1,-1,-1,-1,-1,-1,-1,-1,-1,-1,-1,-1],"split_conditions":[1E0,1E0,1E0,1E0,1E0,1E0,1E0,1E0,1E0,1E0,1E0,1E0,-1.5684056E-1,1E0,1E0,1E0,1E0,1E0,-1.2665091E-1,1E0,-1.6971447E-1,1E0,-1.2982903E-1,1E0,-1.5839735E-1,1E0,-1.4099936E-1,1E0,6.1570715E-2,1E0,1E0,1E0,-1.3833547E-1,1E0,-1.1251738E-1,1E0,5.977262E-2,1E0,-1.2944655E-1,1E0,1E0,1E0,-1.466407E-1,-1.3050729E-1,5.40235E-2,-4.8094373E-2,5.4105658E-2,2.8681606E-2,-1.538345E-1,4.577483E-2,-1.0784594E-1,3.8657065E-2,-1.0734122E-1,-1.633494E-1,5.1351704E-2,5.450661E-2,2.6835715E-2,3.8648304E-2,-1.5135516E-1,-4.5541815E-2,5.008346E-2,1.5521491E-2,-1.5732522E-1],"split_indices":[695,116,1873,229,807,222,841,872,1564,394,1342,1476,0,1444,545,31,599,950,0,31,0,787,0,1325,0,1060,0,450,0,611,976,1060,0,1921,0,728,0,11,0,585,1797,846,0,0,0,0,0,0,0,0,0,0,0,0,0,0,0,0,0,0,0,0,0],"split_type":[0,0,0,0,0,0,0,0,0,0,0,0,0,0,0,0,0,0,0,0,0,0,0,0,0,0,0,0,0,0,0,0,0,0,0,0,0,0,0,0,0,0,0,0,0,0,0,0,0,0,0,0,0,0,0,0,0,0,0,0,0,0,0],"sum_hessian":[3.12043E3,1.2739004E3,1.8465297E3,1.0804474E3,1.9345302E2,1.4744181E3,3.721116E2,9.433406E2,1.3710678E2,4.1412716E1,1.520403E2,1.4674264E3,6.9917E0,3.0436707E2,6.774456E1,8.62407E2,8.093361E1,1.3396922E2,3.137551E0,3.0469795E1,1.0942923E1,1.5040396E2,1.6363306E0,1.4630416E3,4.384685E0,2.957822E2,8.584846E0,5.690479E1,1.0839774E1,7.4977124E2,1.12635735E2,7.821899E1,2.7146204E0,1.3291405E2,1.0551755E0,2.0175114E1,1.0294681E1,1.4876329E2,1.6406677E0,1.3948828E3,6.815885E1,2.900826E2,5.699609E0,4.8698532E1,8.206258E0,7.157022E2,3.4069016E1,1.0820088E2,4.434855E0,7.684622E1,1.372762E0,1.3181479E2,1.0992631E0,9.524531E0,1.0650582E1,1.3747856E2,1.1284742E1,1.3919109E3,2.971929E0,4.7707283E1,2.0451572E1,2.8634607E2,3.7365198E0],"tree_param":{"num_deleted":"0","num_feature":"2048","num_nodes":"63","size_leaf_vector":"1"}},{"base_weights":[1.3156421E-1,-2.913924E-1,4.1946587E-1,-4.0923816E-1,6.697271E-1,5.6697E-1,-1.6202773E-1,-5.819523E-1,4.7277623E-1,7.393441E-1,-1.09860554E-1,5.931391E-1,-1.4153914E-1,-6.3240814E-1,6.467398E-1,-5.091152E-1,-1.5066867E-1,6.184005E-1,-1.0192323E-1,7.808942E-1,-1.0479494E-1,6.0983264E-1,-1.6899098E-1,-4.6054655E-1,-1.6111596E-1,7.5697285E-1,-1.3182941E-1,-6.47355E-1,5.5334073E-1,7.129842E-1,-1.4981385E-1,9.4895387E-1,5.812056E-2,6.264616E-1,-1.4231707E-1,-3.347689E-1,-1.3295305E-1,8.5106295E-1,-1.2352399E-1,-4.2297047E-2,2.2640482E-2,3.4567446E-2,-1.4364986E-1,3.9333392E-2,-1.24405466E-1,5.3421635E-2,3.193163E-2,-1.4159046E-1,4.6998635E-2,3.1874858E-2,-1.8119952E-1,-1.0831493E-2,-1.3254486E-1,4.6252202E-2,-1.0312243E-1],"categories":[],"categories_nodes":[],"categories_segments":[],"categories_sizes":[],"default_left":[0,0,0,0,0,0,0,0,0,0,0,0,0,0,0,0,0,0,0,0,0,0,0,0,0,0,0,0,0,0,0,0,0,0,0,0,0,0,0,0,0,0,0,0,0,0,0,0,0,0,0,0,0,0,0],"id":10,"left_children":[1,3,5,7,9,11,13,15,17,19,-1,21,-1,23,25,27,-1,29,-1,31,-1,33,-1,35,-1,37,-1,39,41,43,-1,45,47,49,-1,51,-1,53,-1,-1,-1,-1,-1,-1,-1,-1,-1,-1,-1,-1,-1,-1,-1,-1,-1],"loss_changes":[3.6073947E2,1.3619075E2,1.5126318E2,1.6320729E2,2.785923E1,1.2670169E2,1.3637094E2,1.5694366E2,6.551138E1,1.6842522E1,0E0,9.465784E1,0E0,9.932087E1,4.9741013E1,1.2814388E2,0E0,5.9174118E1,0E0,1.5485718E1,0E0,8.173657E1,0E0,5.8160816E1,0E0,4.1096886E1,0E0,1.6868225E2,4.9607895E1,4.0494614E1,0E0,3.1639862E0,6.6888565E1,6.72901E1,0E0,5.5008698E1,0E0,2.896215E1,0E0,0E0,0E0,0E0,0E0,0E0,0E0,0E0,0E0,0E0,0E0,0E0,0E0,0E0,0E0,0E0,0E0],"parents":[2147483647,0,0,1,1,2,2,3,3,4,4,5,5,6,6,7,7,8,8,9,9,11,11,13,13,14,14,15,15,17,17,19,19,21,21,23,23,25,25,27,27,28,28,29,29,31,31,32,32,33,33,35,35,37,37],"right_children":[2,4,6,8,10,12,14,16,18,20,-1,22,-1,24,26,28,-1,30,-1,32,-1,34,-1,36,-1,38,-1,40,42,44,-1,46,48,50,-1,52,-1,54,-1,-1,-1,-1,-1,-1,-1,-1,-1,-1,-1,-1,-1,-1,-1,-1,-1],"split_conditions":[1E0,1E0,1E0,1E0,1E0,1E0,1E0,1E0,1E0,1E0,-1.09860554E-1,1E0,-1.4153914E-1,1E0,1E0,1E0,-1.5066867E-1,1E0,-1.0192323E-1,1E0,-1.0479494E-1,1E0,-1.6899098E-1,1E0,-1.6111596E-1,1E0,-1.3182941E-1,1E0,1E0,1E0,-1.4981385E-1,1E0,1E0,1E0,-1.4231707E-1,1E0,-1.3295305E-1,1E0,-1.2352399E-1,-4.2297047E-2,2.2640482E-2,3.4567446E-2,-1.4364986E-1,3.9333392E-2,-1.24405466E-1,5.3421635E-2,3.193163E-2,-1.4159046E-1,4.6998635E-2,3.1874858E-2,-1.8119952E-1,-1.0831493E-2,-1.3254486E-1,4.6252202E-2,-1.0312243E-1],"split_indices":[1917,229,1873,1028,1807,715,283,227,310,808,0,1441,0,2033,1019,1564,0,1232,0,1459,0,1171,0,1152,0,841,0,675,283,695,0,294,591,1125,0,875,0,739,0,0,0,0,0,0,0,0,0,0,0,0,0,0,0,0,0],"split_type":[0,0,0,0,0,0,0,0,0,0,0,0,0,0,0,0,0,0,0,0,0,0,0,0,0,0,0,0,0,0,0,0,0,0,0,0,0,0,0,0,0,0,0,0,0,0,0,0,0,0,0,0,0,0,0],"sum_hessian":[2.9604646E3,1.1990001E3,1.7614644E3,1.0685555E3,1.3044464E2,1.4050728E3,3.5639166E2,8.938617E2,1.7469379E2,1.280767E2,2.3679361E0,1.3951528E3,9.919882E0,2.2547382E2,1.3091785E2,8.690377E2,2.4824005E1,1.6583116E2,8.862633E0,1.2694098E2,1.1357285E0,1.3901582E3,4.99465E0,2.1254741E2,1.2926419E1,1.27409706E2,3.5081494E0,7.693284E2,9.970929E1,1.6238486E2,3.4463005E0,1.02739105E2,2.4201874E1,1.3843165E3,5.8417287E0,2.0213544E2,1.0411959E1,1.2451599E2,2.8937173E0,6.518897E2,1.174387E2,9.661595E1,3.0933323E0,1.5946843E2,2.9164379E0,7.24151E1,3.0324007E1,5.141474E0,1.90604E1,1.3815795E3,2.7370138E0,1.9336594E2,8.769508E0,1.2209812E2,2.4178653E0],"tree_param":{"num_deleted":"0","num_feature":"2048","num_nodes":"55","size_leaf_vector":"1"}},{"base_weights":[1.0861711E-1,-2.597837E-1,3.9961225E-1,-2.1658225E-1,-1.1920054E-1,4.560267E-1,-1.6109197E0,-1.8745014E-1,-1.5903778E-1,4.8180524E-1,-1.16467535E-1,-1.11102276E-1,5.3456914E-2,-1.606565E-1,-1.5470445E-1,5.778798E-1,-2.951559E-1,-2.751984E-1,4.6207482E-1,6.209535E-1,-1.1436039E0,-1.6850415E-1,-1.438082E-1,-2.0418726E-2,2.8529985E-2,2.8671717E-2,-1.6978328E-1,-6.648055E-2,3.284676E-2,-9.443659E-2,5.4225057E-2,-5.474312E-5,-1.385096E-1],"categories":[],"categories_nodes":[],"categories_segments":[],"categories_sizes":[],"default_left":[0,0,0,0,0,0,0,0,0,0,0,0,0,0,0,0,0,0,0,0,0,0,0,0,0,0,0,0,0,0,0,0,0],"id":11,"left_children":[1,3,5,7,-1,9,11,13,-1,15,-1,-1,-1,17,-1,19,21,23,25,27,29,-1,31,-1,-1,-1,-1,-1,-1,-1,-1,-1,-1],"loss_changes":[3.1279196E2,1.1766478E2,1.8561282E2,1.0848725E2,0E0,1.1502182E2,7.560224E1,9.700807E1,0E0,1.17556274E2,0E0,0E0,0E0,8.8690475E1,0E0,1.0450964E2,8.036026E1,1.1843199E2,8.497522E1,9.6767944E1,5.9363907E1,0E0,6.2446545E1,0E0,0E0,0E0,0E0,0E0,0E0,0E0,0E0,0E0,0E0],"parents":[2147483647,0,0,1,1,2,2,3,3,5,5,6,6,7,7,9,9,13,13,15,15,16,16,17,17,18,18,19,19,20,20,22,22],"right_children":[2,4,6,8,-1,10,12,14,-1,16,-1,-1,-1,18,-1,20,22,24,26,28,30,-1,32,-1,-1,-1,-1,-1,-1,-1,-1,-1,-1],"split_conditions":[1E0,1E0,1E0,1E0,-1.1920054E-1,1E0,1E0,1E0,-1.5903778E-1,1E0,-1.16467535E-1,-1.11102276E-1,5.3456914E-2,1E0,-1.5470445E-1,1E0,1E0,1E0,1E0,1E0,1E0,-1.6850415E-1,1E0,-2.0418726E-2,2.8529985E-2,2.8671717E-2,-1.6978328E-1,-6.648055E-2,3.284676E-2,-9.443659E-2,5.4225057E-2,-5.474312E-5,-1.385096E-1],"split_indices":[695,92,1536,674,0,1447,450,89,0,1143,0,0,0,1028,0,1060,807,229,1366,1057,65,0,1847,0,0,0,0,0,0,0,0,0,0],"split_type":[0,0,0,0,0,0,0,0,0,0,0,0,0,0,0,0,0,0,0,0,0,0,0,0,0,0,0,0,0,0,0,0,0],"sum_hessian":[2.9157898E3,1.2868018E3,1.6289879E3,1.262233E3,2.4568682E1,1.585279E3,4.3708897E1,1.2510013E3,1.1231695E1,1.5715614E3,1.3717703E1,3.5731945E1,7.9769535E0,1.2406205E3,1.0380869E1,1.3988445E3,1.7271686E2,1.0483506E3,1.9226994E2,1.3653217E3,3.3522808E1,7.104654E0,1.656122E2,9.0618353E2,1.4216704E2,1.8770296E2,4.5669775E0,2.4078396E1,1.3412433E3,2.5235733E1,8.287076E0,1.5802576E2,7.586441E0],"tree_param":{"num_deleted":"0","num_feature":"2048","num_nodes":"33","size_leaf_vector":"1"}},{"base_weights":[1.6774936E-1,-9.0886585E-2,6.0236454E-1,-5.90161E-2,-1.4752237E-1,6.2779504E-1,-1.4814477E-1,-1.4736003E-1,7.3617107E-1,7.404566E-1,-2.374453E-2,-2.5168917E-1,5.897924E-1,8.107379E-1,-1.1859747E-1,7.5466466E-1,-1.7730866E-1,-5.304153E-1,9.9695635E-1,-2.0363863E-1,-1.1782526E-1,7.02729E-1,-1.3725641E-1,8.438966E-1,-1.0373739E-1,7.671538E-1,-1.8190195E-1,-2.9970741E0,8.571137E-2,2.6674574E-2,1.0665938E0,-1.564545E-2,2.975449E-2,-1.4047754E-2,5.0739884E-2,4.3375716E-2,-8.4862284E-2,3.906159E-2,-1.2463909E-1,-1.6762432E-1,-9.5258884E-2,2.6397202E-2,-1.3585098E-1,3.6425926E-2,5.6434672E-2],"categories":[],"categories_nodes":[],"categories_segments":[],"categories_sizes":[],"default_left":[0,0,0,0,0,0,0,0,0,0,0,0,0,0,0,0,0,0,0,0,0,0,0,0,0,0,0,0,0,0,0,0,0,0,0,0,0,0,0,0,0,0,0,0,0],"id":12,"left_children":[1,3,5,7,-1,9,-1,11,13,15,17,19,21,23,-1,25,-1,27,29,31,-1,33,-1,35,-1,37,-1,39,41,-1,43,-1,-1,-1,-1,-1,-1,-1,-1,-1,-1,-1,-1,-1,-1],"loss_changes":[3.4433838E2,1.7489978E2,1.05473755E2,1.3364471E2,0E0,8.336954E1,0E0,1.3178452E2,4.6012222E1,6.1641663E1,8.760475E1,1.512391E2,8.196869E1,1.959719E1,0E0,5.5775024E1,0E0,1.7225311E2,1.244854E0,1.282865E2,0E0,6.3629143E1,0E0,1.2582184E1,0E0,4.6182922E1,0E0,2.4013824E0,1.14876884E2,0E0,1.8249893E-1,0E0,0E0,0E0,0E0,0E0,0E0,0E0,0E0,0E0,0E0,0E0,0E0,0E0,0E0],"parents":[2147483647,0,0,1,1,2,2,3,3,5,5,7,7,8,8,9,9,10,10,11,11,12,12,13,13,15,15,17,17,18,18,19,19,21,21,23,23,25,25,27,27,28,28,30,30],"right_children":[2,4,6,8,-1,10,-1,12,14,16,18,20,22,24,-1,26,-1,28,30,32,-1,34,-1,36,-1,38,-1,40,42,-1,44,-1,-1,-1,-1,-1,-1,-1,-1,-1,-1,-1,-1,-1,-1],"split_conditions":[1E0,1E0,1E0,1E0,-1.4752237E-1,1E0,-1.4814477E-1,1E0,1E0,1E0,1E0,1E0,1E0,1E0,-1.1859747E-1,1E0,-1.7730866E-1,1E0,1E0,1E0,-1.1782526E-1,1E0,-1.3725641E-1,1E0,-1.0373739E-1,1E0,-1.8190195E-1,1E0,1E0,2.6674574E-2,1E0,-1.564545E-2,2.975449E-2,-1.4047754E-2,5.0739884E-2,4.3375716E-2,-8.4862284E-2,3.906159E-2,-1.2463909E-1,-1.6762432E-1,-9.5258884E-2,2.6397202E-2,-1.3585098E-1,3.6425926E-2,5.6434672E-2],"split_indices":[147,118,1693,229,0,1380,0,116,1564,304,579,1602,1233,656,0,1436,0,294,582,31,0,650,0,116,0,406,0,145,1911,0,389,0,0,0,0,0,0,0,0,0,0,0,0,0,0],"split_type":[0,0,0,0,0,0,0,0,0,0,0,0,0,0,0,0,0,0,0,0,0,0,0,0,0,0,0,0,0,0,0,0,0,0,0,0,0,0,0,0,0,0,0,0,0],"sum_hessian":[3.0618276E3,1.9200265E3,1.1418013E3,1.8998727E3,2.0153896E1,1.1345327E3,7.268556E0,1.7106383E3,1.892343E2,9.671591E2,1.6737357E2,1.4991257E3,2.115126E2,1.855226E2,3.7117105E0,9.647853E2,2.3738396E0,1.121722E2,5.5201374E1,1.4667385E3,3.2387203E1,2.0534781E2,6.164794E0,1.8411436E2,1.4082245E0,9.6287305E2,1.9122436E0,2.164644E1,9.052576E1,8.342134E0,4.6859238E1,1.2907634E3,1.7597514E2,4.9479916E1,1.5586789E2,1.8307149E2,1.0428753E0,9.594898E2,3.3832095E0,1.476885E1,6.87759E0,7.888968E1,1.1636082E1,9.2473545E0,3.7611885E1],"tree_param":{"num_deleted":"0","num_feature":"2048","num_nodes":"45","size_leaf_vector":"1"}},{"base_weights":[1.086929E-1,-2.865494E-1,3.8164717E-1,-8.3585286E-1,-5.8608767E-2,2.8404158E-1,9.956119E-1,-1.652518E0,5.7533093E-2,6.919511E-2,-1.35211E0,-4.58282E-1,4.421212E-1,1.0343524E0,-1.1235545E-1,-2.2949483E0,-3.4962574E-1,-4.620811E-1,5.936531E-1,1.0815711E-1,-1.6221671E-1,-2.2907825E0,3.581984E-1,-1.5304025E-1,-1.8155904E-1,4.7774315E-1,-1.08833544E-1,1.0583311E0,-9.923618E-2,-2.658344E0,6.211991E-2,1.8837236E-1,-1.2373277E-1,-1.0928116E0,6.0033876E-2,8.7902015E-1,-1.1691838E-1,1.5182343E-1,-1.08732246E-1,-1.5164708E-1,5.480497E-2,-8.79627E-2,6.4254916E-1,-3.7368074E-1,1.2243236E0,4.987786E-1,-1.3635728E-1,1.1016613E0,6.84384E-1,-1.379508E-1,-9.535139E-2,2.2897929E-2,-1.1301444E-1,-2.0010775E-2,-1.5042815E-1,5.0322484E-2,-1.07062414E-1,1.0138852E-2,-9.116283E-2,7.2442065E-3,5.7975728E-2,-4.5600582E-2,2.2903858E-2,3.778812E-2,6.903528E-2,2.5714744E-2,-1.6188692E-1,5.5702914E-2,3.4209978E-2,5.985406E-3,5.4833025E-2],"categories":[],"categories_nodes":[],"categories_segments":[],"categories_sizes":[],"default_left":[0,0,0,0,0,0,0,0,0,0,0,0,0,0,0,0,0,0,0,0,0,0,0,0,0,0,0,0,0,0,0,0,0,0,0,0,0,0,0,0,0,0,0,0,0,0,0,0,0,0,0,0,0,0,0,0,0,0,0,0,0,0,0,0,0,0,0,0,0,0,0],"id":13,"left_children":[1,3,5,7,9,11,13,15,17,19,21,23,25,27,-1,29,31,33,35,37,-1,39,41,43,-1,45,-1,47,-1,49,-1,51,-1,53,-1,55,-1,57,-1,-1,-1,-1,59,61,63,65,-1,67,69,-1,-1,-1,-1,-1,-1,-1,-1,-1,-1,-1,-1,-1,-1,-1,-1,-1,-1,-1,-1,-1,-1],"loss_changes":[3.1299445E2,1.4836014E2,1.025466E2,2.5365453E2,1.38753E2,1.7410449E2,3.1842743E1,1.5119696E2,4.677891E1,9.9022285E1,1.2198195E2,2.519045E2,1.15062454E2,1.895987E1,0E0,1.5941577E2,7.0377495E1,9.08083E1,7.116811E1,7.572698E1,0E0,1.261452E2,1.7753056E1,7.304108E1,0E0,8.27117E1,0E0,3.0003357E0,0E0,3.0924683E0,0E0,3.3860535E1,0E0,8.1579216E1,0E0,3.1405949E1,0E0,7.51549E1,0E0,0E0,0E0,0E0,6.282365E0,9.293757E1,1.3900299E0,7.1218475E1,0E0,3.0386353E-1,6.0845537E0,0E0,0E0,0E0,0E0,0E0,0E0,0E0,0E0,0E0,0E0,0E0,0E0,0E0,0E0,0E0,0E0,0E0,0E0,0E0,0E0,0E0,0E0],"parents":[2147483647,0,0,1,1,2,2,3,3,4,4,5,5,6,6,7,7,8,8,9,9,10,10,11,11,12,12,13,13,15,15,16,16,17,17,18,18,19,19,21,21,22,22,23,23,25,25,27,27,29,29,31,31,33,33,35,35,37,37,42,42,43,43,44,44,45,45,47,47,48,48],"right_children":[2,4,6,8,10,12,14,16,18,20,22,24,26,28,-1,30,32,34,36,38,-1,40,42,44,-1,46,-1,48,-1,50,-1,52,-1,54,-1,56,-1,58,-1,-1,-1,-1,60,62,64,66,-1,68,70,-1,-1,-1,-1,-1,-1,-1,-1,-1,-1,-1,-1,-1,-1,-1,-1,-1,-1,-1,-1,-1,-1],"split_conditions":[1E0,1E0,1E0,1E0,1E0,1E0,1E0,1E0,1E0,1E0,1E0,1E0,1E0,1E0,-1.1235545E-1,1E0,1E0,1E0,1E0,1E0,-1.6221671E-1,1E0,1E0,1E0,-1.8155904E-1,1E0,-1.08833544E-1,1E0,-9.923618E-2,1E0,6.211991E-2,1E0,-1.2373277E-1,1E0,6.0033876E-2,1E0,-1.1691838E-1,1E0,-1.08732246E-1,-1.5164708E-1,5.480497E-2,-8.79627E-2,1E0,1E0,1E0,1E0,-1.3635728E-1,1E0,1E0,-1.379508E-1,-9.535139E-2,2.2897929E-2,-1.1301444E-1,-2.0010775E-2,-1.5042815E-1,5.0322484E-2,-1.07062414E-1,1.0138852E-2,-9.116283E-2,7.2442065E-3,5.7975728E-2,-4.5600582E-2,2.2903858E-2,3.778812E-2,6.903528E-2,2.5714744E-2,-1.6188692E-1,5.5702914E-2,3.4209978E-2,5.985406E-3,5.4833025E-2],"split_indices":[1917,80,116,1060,1143,695,787,283,1309,1162,1380,794,1447,1171,0,173,253,550,679,92,0,1132,656,890,0,913,0,1564,0,1536,0,807,0,807,0,2026,0,310,0,0,0,0,14,31,974,14,0,31,450,0,0,0,0,0,0,0,0,0,0,0,0,0,0,0,0,0,0,0,0,0,0],"split_type":[0,0,0,0,0,0,0,0,0,0,0,0,0,0,0,0,0,0,0,0,0,0,0,0,0,0,0,0,0,0,0,0,0,0,0,0,0,0,0,0,0,0,0,0,0,0,0,0,0,0,0,0,0,0,0,0,0,0,0,0,0,0,0,0,0,0,0,0,0,0,0],"sum_hessian":[2.899224E3,1.1842953E3,1.714929E3,3.4653345E2,8.3776184E2,1.4809554E3,2.339735E2,1.8059634E2,1.659371E2,7.632916E2,7.447022E1,2.5967105E2,1.2212843E3,2.3188423E2,2.0892754E0,1.2044559E2,6.015076E1,8.4335846E1,8.160126E1,7.553769E2,7.9147115E0,4.7862392E1,2.6607826E1,2.3783855E2,2.18325E1,1.2057014E3,1.5582899E1,2.3070135E2,1.182874E0,1.0945014E2,1.0995444E1,4.8726044E1,1.1424717E1,6.1391224E1,2.2944622E1,7.500171E1,6.5995507E0,7.421149E2,1.3261966E1,3.9345264E1,8.517129E0,2.536033E0,2.4071793E1,2.0562767E2,3.2210884E1,1.1986782E3,7.0232296E0,2.0500133E2,2.570002E1,9.416092E1,1.5289226E1,4.4625916E1,4.10013E0,4.597788E1,1.5413344E1,7.2605156E1,2.3965497E0,7.243259E2,1.7789007E1,1.29171505E1,1.1154643E1,1.2477453E2,8.085314E1,9.519811E0,2.269107E1,1.19458E3,4.098242E0,1.9746867E2,7.532659E0,1.1390012E1,1.4310008E1],"tree_param":{"num_deleted":"0","num_feature":"2048","num_nodes":"71","size_leaf_vector":"1"}},{"base_weights":[1.840061E-1,-4.8540838E-2,5.9427094E-1,-2.7532112E-2,-1.5646435E-1,-1.1924068E-1,6.1907154E-1,3.0825622E-3,-1.0216063E-1,6.339148E-1,-1.2015344E-1,3.7424356E-2,-9.333333E-2,6.4641094E-1,-1.2158898E-1,6.391361E-2,-1.03058875E-1,6.617223E-1,-9.009739E-2,5.8379043E-3,-4.9242567E-2,3.3510342E-2,-1.7412893E-1],"categories":[],"categories_nodes":[],"categories_segments":[],"categories_sizes":[],"default_left":[0,0,0,0,0,0,0,0,0,0,0,0,0,0,0,0,0,0,0,0,0,0,0],"id":14,"left_children":[1,3,5,7,-1,-1,9,11,-1,13,-1,15,-1,17,-1,19,-1,21,-1,-1,-1,-1,-1],"loss_changes":[2.9372278E2,1.2713535E2,8.376141E1,1.20545715E2,0E0,0E0,5.1106354E1,1.2368246E2,0E0,4.373932E1,0E0,1.0527395E2,0E0,4.2317535E1,0E0,1.0368474E2,0E0,4.0694458E1,0E0,0E0,0E0,0E0,0E0],"parents":[2147483647,0,0,1,1,2,2,3,3,6,6,7,7,9,9,11,11,13,13,15,15,17,17],"right_children":[2,4,6,8,-1,-1,10,12,-1,14,-1,16,-1,18,-1,20,-1,22,-1,-1,-1,-1,-1],"split_conditions":[1E0,1E0,1E0,1E0,-1.5646435E-1,-1.1924068E-1,1E0,1E0,-1.0216063E-1,1E0,-1.2015344E-1,1E0,-9.333333E-2,1E0,-1.2158898E-1,1E0,-1.03058875E-1,1E0,-9.009739E-2,5.8379043E-3,-4.9242567E-2,3.3510342E-2,-1.7412893E-1],"split_indices":[147,1056,1057,92,0,0,2004,310,0,1934,0,1866,0,1592,0,222,0,484,0,0,0,0,0],"split_type":[0,0,0,0,0,0,0,0,0,0,0,0,0,0,0,0,0,0,0,0,0,0,0],"sum_hessian":[3.077365E3,1.9646442E3,1.1127208E3,1.9523394E3,1.2304773E1,8.401148E0,1.1043196E3,1.9241139E3,2.8225466E1,1.0997086E3,4.6109934E0,1.8903733E3,3.3740616E1,1.0960303E3,3.678403E0,1.8677672E3,2.2606041E1,1.0899437E3,6.086473E0,1.779016E3,8.8751205E1,1.0885535E3,1.3902986E0],"tree_param":{"num_deleted":"0","num_feature":"2048","num_nodes":"23","size_leaf_vector":"1"}},{"base_weights":[1.4984812E-1,-1.0266725E-1,5.900891E-1,-6.680519E-2,-1.5520637E-1,6.037965E-1,-1.6620624E-1,-1.6661982E-1,7.403598E-1,6.227523E-1,-1.02297E-1,-1.2489423E-1,-1.5063149E-1,8.0888087E-1,-1.0296362E-1,7.129853E-1,3.266071E-2,-9.321082E-2,-1.19227126E-1,8.469109E-1,-1.0113726E-1,7.3629236E-1,-8.674313E-2,1.6901034E-1,-1.2869151E-1,-3.2962025E-3,-1.2970786E-1,4.4087835E-2,-1.0108379E-1,3.7461232E-2,-1.7595086E-1,1.3693318E-2,-1.5613836E-1],"categories":[],"categories_nodes":[],"categories_segments":[],"categories_sizes":[],"default_left":[0,0,0,0,0,0,0,0,0,0,0,0,0,0,0,0,0,0,0,0,0,0,0,0,0,0,0,0,0,0,0,0,0],"id":15,"left_children":[1,3,5,7,-1,9,-1,11,13,15,-1,17,-1,19,-1,21,23,25,-1,27,-1,29,-1,31,-1,-1,-1,-1,-1,-1,-1,-1,-1],"loss_changes":[3.310574E2,2.0355249E2,6.024591E1,1.5091817E2,0E0,5.5646515E1,0E0,1.9752402E2,4.121501E1,5.7247345E1,0E0,1.1743939E2,0E0,2.3461197E1,0E0,5.450058E1,5.1507305E1,1.1050418E2,0E0,2.1772781E1,0E0,5.352829E1,0E0,4.8315342E1,0E0,0E0,0E0,0E0,0E0,0E0,0E0,0E0,0E0],"parents":[2147483647,0,0,1,1,2,2,3,3,5,5,7,7,8,8,9,9,11,11,13,13,15,15,16,16,17,17,19,19,21,21,23,23],"right_children":[2,4,6,8,-1,10,-1,12,14,16,-1,18,-1,20,-1,22,24,26,-1,28,-1,30,-1,32,-1,-1,-1,-1,-1,-1,-1,-1,-1],"split_conditions":[1E0,1E0,1E0,1E0,-1.5520637E-1,1E0,-1.6620624E-1,1E0,1E0,1E0,-1.02297E-1,1E0,-1.5063149E-1,1E0,-1.0296362E-1,1E0,1E0,1E0,-1.19227126E-1,1E0,-1.0113726E-1,1E0,-8.674313E-2,1E0,-1.2869151E-1,-3.2962025E-3,-1.2970786E-1,4.4087835E-2,-1.0108379E-1,3.7461232E-2,-1.7595086E-1,1.3693318E-2,-1.5613836E-1],"split_indices":[147,1391,304,229,0,1385,0,13,1564,1143,0,253,0,656,0,1447,1847,118,0,116,0,1249,0,2033,0,0,0,0,0,0,0,0,0],"split_type":[0,0,0,0,0,0,0,0,0,0,0,0,0,0,0,0,0,0,0,0,0,0,0,0,0,0,0,0,0,0,0,0,0],"sum_hessian":[2.9764573E3,1.8920015E3,1.0844558E3,1.8706725E3,2.132892E1,1.0815142E3,2.9416785E0,1.665508E3,2.0516441E2,1.0745917E3,6.922488E0,1.6424716E3,2.3036533E1,2.0095706E2,4.207357E0,9.3188556E2,1.4270612E2,1.6207871E3,2.1684443E1,1.989855E2,1.9715557E0,9.2378894E2,8.096621E0,1.3650072E2,6.2054086E0,1.6043096E3,1.6477583E1,1.9728168E2,1.7038335E0,9.218114E2,1.9775318E0,1.3317535E2,3.3253546E0],"tree_param":{"num_deleted":"0","num_feature":"2048","num_nodes":"33","size_leaf_vector":"1"}},{"base_weights":[1.7092764E-1,-1.8762121E-2,5.3253436E-1,-1.2452054E-3,-1.5024091E-1,6.38357E-1,-2.6865247E-1,-4.647952E-2,1.1135882E0,-1.1073637E-1,6.6550106E-1,-1.0646821E-1,-1.5325855E-1,-9.553544E-1,2.0604037E-2,7.558989E-1,5.8326133E-2,6.7763424E-1,-1.7091201E-1,-6.818459E-1,7.784428E-1,-1.09503046E-1,2.052447E-1,-5.499113E-2,7.3929054E-1,-1.02358274E-1,6.05296E-2,6.975384E-1,-8.395859E-2,-1.5186152E-1,-1.16520256E-1,9.369964E-1,-1.12055875E-1,2.7430017E-2,-9.631106E-2,-1.6871983E-3,-1.4249419E-1,3.9175306E-2,-1.3748072E-1,3.569069E-2,-9.718082E-2,-2.5800953E-2,4.8848256E-2,3.729694E-2,5.859055E-2],"categories":[],"categories_nodes":[],"categories_segments":[],"categories_sizes":[],"default_left":[0,0,0,0,0,0,0,0,0,0,0,0,0,0,0,0,0,0,0,0,0,0,0,0,0,0,0,0,0,0,0,0,0,0,0,0,0,0,0,0,0,0,0,0,0],"id":16,"left_children":[1,3,5,7,-1,9,11,13,15,-1,17,19,-1,21,23,25,-1,27,-1,29,31,-1,33,35,37,-1,-1,39,-1,-1,41,43,-1,-1,-1,-1,-1,-1,-1,-1,-1,-1,-1,-1,-1],"loss_changes":[2.054014E2,1.0277952E2,8.752643E1,9.861771E1,0E0,7.198016E1,5.451442E1,1.14602E2,5.620117E-1,0E0,4.7039093E1,5.9247948E1,0E0,1.8558902E2,9.5177025E1,1.8627785E1,0E0,4.342627E1,0E0,9.340967E1,2.4077843E1,0E0,5.046508E1,9.4049225E1,2.787468E1,0E0,0E0,3.9813507E1,0E0,0E0,2.5765476E1,1.1142654E0,0E0,0E0,0E0,0E0,0E0,0E0,0E0,0E0,0E0,0E0,0E0,0E0,0E0],"parents":[2147483647,0,0,1,1,2,2,3,3,5,5,6,6,7,7,8,8,10,10,11,11,13,13,14,14,15,15,17,17,19,19,20,20,22,22,23,23,24,24,27,27,30,30,31,31],"right_children":[2,4,6,8,-1,10,12,14,16,-1,18,20,-1,22,24,26,-1,28,-1,30,32,-1,34,36,38,-1,-1,40,-1,-1,42,44,-1,-1,-1,-1,-1,-1,-1,-1,-1,-1,-1,-1,-1],"split_conditions":[1E0,1E0,1E0,1E0,-1.5024091E-1,1E0,1E0,1E0,1E0,-1.1073637E-1,1E0,1E0,-1.5325855E-1,1E0,1E0,1E0,5.8326133E-2,1E0,-1.7091201E-1,1E0,1E0,-1.09503046E-1,1E0,1E0,1E0,-1.02358274E-1,6.05296E-2,1E0,-8.395859E-2,-1.5186152E-1,1E0,1E0,-1.12055875E-1,2.7430017E-2,-9.631106E-2,-1.6871983E-3,-1.4249419E-1,3.9175306E-2,-1.3748072E-1,3.569069E-2,-9.718082E-2,-2.5800953E-2,4.8848256E-2,3.729694E-2,5.859055E-2],"split_indices":[147,1351,1143,535,0,1057,1440,1057,591,0,890,694,0,926,229,19,0,1447,0,1734,1017,0,314,556,652,0,0,1385,0,0,353,636,0,0,0,0,0,0,0,0,0,0,0,0,0],"split_type":[0,0,0,0,0,0,0,0,0,0,0,0,0,0,0,0,0,0,0,0,0,0,0,0,0,0,0,0,0,0,0,0,0,0,0,0,0,0,0,0,0,0,0,0,0],"sum_hessian":[2.9933457E3,1.964019E3,1.0293268E3,1.9535594E3,1.0459628E1,9.0941266E2,1.1991414E2,1.8783055E3,7.525385E1,7.8110385E0,9.016016E2,1.1432209E2,5.592045E0,1.281972E2,1.7501084E3,1.1670905E1,6.358295E1,8.997624E2,1.8392115E0,6.9416374E1,4.4905724E1,6.1685703E1,6.6511505E1,1.5843787E3,1.6572966E2,1.1401122E0,1.0530793E1,8.929253E2,6.837079E0,1.258973E1,5.682664E1,4.3320694E1,1.5850282E0,5.792332E1,8.588189E0,1.5734293E3,1.0949357E1,1.6442136E2,1.3083129E0,8.881819E2,4.743443E0,4.2007523E1,1.4819118E1,2.6188807E1,1.7131887E1],"tree_param":{"num_deleted":"0","num_feature":"2048","num_nodes":"45","size_leaf_vector":"1"}},{"base_weights":[1.1464993E-1,-1.0920719E-1,5.294057E-1,-6.828691E-2,-9.566045E-2,6.403796E-1,-2.7355446E-2,-4.9620703E-2,-1.5351637E-1,7.4830145E-1,1.804644E-2,-4.6456522E-1,9.446956E-1,-1.6193833E-2,-8.844041E-2,7.58905E-1,-1.6293983E-1,-3.3096525E-1,6.1015885E-2,-2.0655209E-1,-1.5404418E-1,-1.1021236E-1,5.2694E-2,3.972732E-3,-1.3883078E-1,7.695744E-1,-1.6077016E-1,-7.756662E-1,5.4678228E-2,-1.4558415E-1,3.6723997E-2,-9.591715E-3,1.3633345E-2,3.9006893E-2,-1.4708835E-1,-6.9240406E-2,5.2155662E-2,1.6705839E-2,-1.15453124E-1],"categories":[],"categories_nodes":[],"categories_segments":[],"categories_sizes":[],"default_left":[0,0,0,0,0,0,0,0,0,0,0,0,0,0,0,0,0,0,0,0,0,0,0,0,0,0,0,0,0,0,0,0,0,0,0,0,0,0,0],"id":17,"left_children":[1,3,5,7,-1,9,11,13,-1,15,17,19,21,23,-1,25,-1,27,-1,29,-1,-1,-1,31,-1,33,-1,35,-1,-1,37,-1,-1,-1,-1,-1,-1,-1,-1],"loss_changes":[2.6379654E2,1.3611914E2,6.1550476E1,1.0103852E2,0E0,5.576114E1,7.118831E1,1.0316229E2,0E0,3.2542114E1,5.233081E1,7.732907E1,2.0193268E1,9.8121574E1,0E0,3.243802E1,0E0,6.2104248E1,0E0,6.999719E1,0E0,0E0,0E0,9.215691E1,0E0,2.995517E1,0E0,8.373515E1,0E0,0E0,6.943533E1,0E0,0E0,0E0,0E0,0E0,0E0,0E0,0E0],"parents":[2147483647,0,0,1,1,2,2,3,3,5,5,6,6,7,7,9,9,10,10,11,11,12,12,13,13,15,15,17,17,19,19,23,23,25,25,27,27,30,30],"right_children":[2,4,6,8,-1,10,12,14,-1,16,18,20,22,24,-1,26,-1,28,-1,30,-1,-1,-1,32,-1,34,-1,36,-1,-1,38,-1,-1,-1,-1,-1,-1,-1,-1],"split_conditions":[1E0,1E0,1E0,1E0,-9.566045E-2,1E0,1E0,1E0,-1.5351637E-1,1E0,1E0,1E0,1E0,1E0,-8.844041E-2,1E0,-1.6293983E-1,1E0,6.1015885E-2,1E0,-1.5404418E-1,-1.1021236E-1,5.2694E-2,1E0,-1.3883078E-1,1E0,-1.6077016E-1,1E0,5.4678228E-2,-1.4558415E-1,1E0,-9.591715E-3,1.3633345E-2,3.9006893E-2,-1.4708835E-1,-6.9240406E-2,5.2155662E-2,1.6705839E-2,-1.15453124E-1],"split_indices":[147,1452,1873,518,0,1143,579,310,0,139,636,2033,80,1365,0,1125,0,749,0,1088,0,0,0,694,0,1464,0,1760,0,0,1911,0,0,0,0,0,0,0,0],"split_type":[0,0,0,0,0,0,0,0,0,0,0,0,0,0,0,0,0,0,0,0,0,0,0,0,0,0,0,0,0,0,0,0,0,0,0,0,0,0,0],"sum_hessian":[2.8396025E3,1.8446967E3,9.9490576E2,1.8047963E3,3.990045E1,8.294327E2,1.6547308E2,1.7946539E3,1.0142342E1,7.066813E2,1.2275141E2,1.14496735E2,5.0976345E1,1.7614154E3,3.3238503E1,7.0562463E2,1.0566092E0,9.5696144E1,2.7055265E1,1.0520108E2,9.295654E0,1.0652611E0,4.9911083E1,1.7496318E3,1.1783567E1,7.045396E2,1.0850486E0,7.32766E1,2.2419542E1,7.7752156E0,9.7425865E1,1.012253E3,7.3737885E2,7.033276E2,1.2120473E0,5.5070957E1,1.8205647E1,8.722524E1,1.0200624E1],"tree_param":{"num_deleted":"0","num_feature":"2048","num_nodes":"39","size_leaf_vector":"1"}},{"base_weights":[1.2877926E-1,-7.004552E-2,5.0925285E-1,-3.3361737E-2,-9.6924424E-2,5.5102396E-1,-9.432197E-1,-1.0174002E-2,-1.2776332E-1,5.942371E-1,-5.4362106E-1,-9.487977E-2,5.5049896E-2,1.8028835E-2,-9.52614E-2,6.888476E-1,3.5944387E-2,-1.0473589E0,4.5822337E-2,4.6352167E-2,-8.620575E-2,7.024788E-1,-1.1838349E-1,1.7254987E-1,-1.3272801E-1,-1.8333976E0,5.1958244E-2,3.2536897E-3,-1.3128422E-1,3.6403097E-2,-4.268761E-2,-4.828433E-3,6.0192775E-2,-1.7665525E-1,4.687656E-2],"categories":[],"categories_nodes":[],"categories_segments":[],"categories_sizes":[],"default_left":[0,0,0,0,0,0,0,0,0,0,0,0,0,0,0,0,0,0,0,0,0,0,0,0,0,0,0,0,0,0,0,0,0,0,0],"id":18,"left_children":[1,3,5,7,-1,9,11,13,-1,15,17,-1,-1,19,-1,21,23,25,-1,27,-1,29,-1,31,-1,33,-1,-1,-1,-1,-1,-1,-1,-1,-1],"loss_changes":[2.1956609E2,1.3063551E2,6.095697E1,1.09395164E2,0E0,4.615619E1,5.7136436E1,9.9183495E1,0E0,4.923581E1,2.8408188E1,0E0,0E0,9.032481E1,0E0,3.4886566E1,5.0515373E1,4.817781E1,0E0,9.024731E1,0E0,3.2258698E1,0E0,3.6350784E1,0E0,1.0153455E2,0E0,0E0,0E0,0E0,0E0,0E0,0E0,0E0,0E0],"parents":[2147483647,0,0,1,1,2,2,3,3,5,5,6,6,7,7,9,9,10,10,13,13,15,15,16,16,17,17,19,19,21,21,23,23,25,25],"right_children":[2,4,6,8,-1,10,12,14,-1,16,18,-1,-1,20,-1,22,24,26,-1,28,-1,30,-1,32,-1,34,-1,-1,-1,-1,-1,-1,-1,-1,-1],"split_conditions":[1E0,1E0,1E0,1E0,-9.6924424E-2,1E0,1E0,1E0,-1.2776332E-1,1E0,1E0,-9.487977E-2,5.5049896E-2,1E0,-9.52614E-2,1E0,1E0,1E0,4.5822337E-2,1E0,-8.620575E-2,1E0,-1.1838349E-1,1E0,-1.3272801E-1,1E0,5.1958244E-2,3.2536897E-3,-1.3128422E-1,3.6403097E-2,-4.268761E-2,-4.828433E-3,6.0192775E-2,-1.7665525E-1,4.687656E-2],"split_indices":[147,1536,145,1991,0,1019,59,92,0,1143,1437,0,0,310,0,2004,1440,292,0,2044,0,1353,0,636,0,379,0,0,0,0,0,0,0,0,0],"split_type":[0,0,0,0,0,0,0,0,0,0,0,0,0,0,0,0,0,0,0,0,0,0,0,0,0,0,0,0,0,0,0,0,0,0,0],"sum_hessian":[2.9010156E3,1.9058749E3,9.951407E2,1.8701749E3,3.5699936E1,9.679251E2,2.7215563E1,1.8541311E3,1.6043837E1,9.3160535E2,3.6319733E1,1.8602442E1,8.613121E0,1.8279178E3,2.6213207E1,7.964089E2,1.3519647E2,2.7213476E1,9.106254E0,1.7996333E3,2.8284586E1,7.9363965E2,2.7692451E0,1.2955444E2,5.6420245E0,1.9854986E1,7.35849E0,1.7880807E3,1.1552544E1,7.8132745E2,1.23121805E1,1.0346237E2,2.6092073E1,1.2135763E1,7.7192245E0],"tree_param":{"num_deleted":"0","num_feature":"2048","num_nodes":"35","size_leaf_vector":"1"}},{"base_weights":[1.2575275E-1,-1.10530026E-1,5.546841E-1,-2.0721816E-1,7.353285E-1,5.88806E-1,-1.7789359E0,-4.9946186E-1,1.5227161E-1,8.0024564E-1,-9.770531E-2,5.990136E-1,-2.0049547E-1,-4.3448477E0,5.092528E-2,-7.402368E-1,6.3862896E-1,-1.3207728E-1,5.39892E-1,8.398669E-1,-9.2729196E-2,6.1249065E-1,-1.0917441E-1,-2.4378239E-1,-9.406584E-2,-1.004117E0,4.8673078E-1,8.052354E-1,-1.22341625E-1,4.0548015E-3,-1.2069773E-1,7.088283E-1,-6.804036E-1,8.72379E-1,-9.145995E-2,6.2969637E-1,-7.6382905E-2,-5.9534874E-2,3.1110842E-2,2.9683832E-2,-1.1388051E-1,4.2564247E-2,-1.0570329E-1,3.6297392E-3,-1.1665459E-1,3.8347118E-2,-1.5598115E-1,-1.4720999E-1,2.5832439E-2,4.477573E-2,-7.6353125E-2,3.2686535E-2,-4.722471E-2],"categories":[],"categories_nodes":[],"categories_segments":[],"categories_sizes":[],"default_left":[0,0,0,0,0,0,0,0,0,0,0,0,0,0,0,0,0,0,0,0,0,0,0,0,0,0,0,0,0,0,0,0,0,0,0,0,0,0,0,0,0,0,0,0,0,0,0,0,0,0,0,0,0],"id":19,"left_children":[1,3,5,7,9,11,13,15,17,19,-1,21,-1,23,-1,25,27,29,31,33,-1,35,-1,-1,-1,37,39,41,-1,43,-1,45,47,49,-1,51,-1,-1,-1,-1,-1,-1,-1,-1,-1,-1,-1,-1,-1,-1,-1,-1,-1],"loss_changes":[2.8960068E2,1.5087607E2,8.186243E1,1.7391296E2,3.460881E1,4.9393005E1,1.1119592E2,2.5063756E2,8.193512E1,2.1072006E1,0E0,3.8825684E1,0E0,1.220932E0,0E0,2.4460654E2,8.4194405E1,1.3334886E2,6.531517E1,1.751767E1,0E0,3.7624786E1,0E0,0E0,0E0,1.891336E2,4.100506E1,2.2301857E1,0E0,6.5217964E1,0E0,6.396286E1,1.06538666E2,1.1467972E1,0E0,3.8014008E1,0E0,0E0,0E0,0E0,0E0,0E0,0E0,0E0,0E0,0E0,0E0,0E0,0E0,0E0,0E0,0E0,0E0],"parents":[2147483647,0,0,1,1,2,2,3,3,4,4,5,5,6,6,7,7,8,8,9,9,11,11,13,13,15,15,16,16,17,17,18,18,19,19,21,21,25,25,26,26,27,27,29,29,31,31,32,32,33,33,35,35],"right_children":[2,4,6,8,10,12,14,16,18,20,-1,22,-1,24,-1,26,28,30,32,34,-1,36,-1,-1,-1,38,40,42,-1,44,-1,46,48,50,-1,52,-1,-1,-1,-1,-1,-1,-1,-1,-1,-1,-1,-1,-1,-1,-1,-1,-1],"split_conditions":[1E0,1E0,1E0,1E0,1E0,1E0,1E0,1E0,1E0,1E0,-9.770531E-2,1E0,-2.0049547E-1,1E0,5.092528E-2,1E0,1E0,1E0,1E0,1E0,-9.2729196E-2,1E0,-1.0917441E-1,-2.4378239E-1,-9.406584E-2,1E0,1E0,1E0,-1.22341625E-1,1E0,-1.2069773E-1,1E0,1E0,1E0,-9.145995E-2,1E0,-7.6382905E-2,-5.9534874E-2,3.1110842E-2,2.9683832E-2,-1.1388051E-1,4.2564247E-2,-1.0570329E-1,3.6297392E-3,-1.1665459E-1,3.8347118E-2,-1.5598115E-1,-1.4720999E-1,2.5832439E-2,4.477573E-2,-7.6353125E-2,3.2686535E-2,-4.722471E-2],"split_indices":[147,229,227,694,1564,70,1970,116,1917,656,0,406,0,1267,0,675,1750,1143,389,116,0,1592,0,0,0,835,1917,1706,0,940,0,1574,695,1807,0,878,0,0,0,0,0,0,0,0,0,0,0,0,0,0,0,0,0],"split_type":[0,0,0,0,0,0,0,0,0,0,0,0,0,0,0,0,0,0,0,0,0,0,0,0,0,0,0,0,0,0,0,0,0,0,0,0,0,0,0,0,0,0,0,0,0,0,0,0,0,0,0,0,0],"sum_hessian":[2.855852E3,1.8419375E3,1.0139144E3,1.6536658E3,1.882717E2,1.00003973E3,1.3874736E1,9.11931E2,7.417348E2,1.8452022E2,3.7514706E0,9.986927E2,1.3470348E0,6.9483314E0,6.9264045E0,7.5297986E2,1.5895117E2,4.282444E2,3.134904E2,1.824805E2,2.0397303E0,9.9465497E2,4.0377293E0,4.9110518E0,2.0372796E0,6.1985187E2,1.33128E2,1.5150911E2,7.442052E0,4.0507657E2,2.3167807E1,2.7573685E2,3.775354E1,1.8094948E2,1.5310115E0,9.8742236E2,7.232607E0,5.562986E2,6.3553272E1,1.2892542E2,4.202583E0,1.4985368E2,1.6554238E0,3.9447696E2,1.0599631E1,2.724016E2,3.335253E0,1.2553515E1,2.5200024E1,1.7984221E2,1.1072693E0,9.731493E2,1.4273061E1],"tree_param":{"num_deleted":"0","num_feature":"2048","num_nodes":"53","size_leaf_vector":"1"}},{"base_weights":[1.5297014E-1,-1.9491558E-1,3.9700824E-1,-3.1760824E-1,7.4422044E-1,4.3980205E-1,-8.0532163E-1,-4.6864212E-1,6.2090653E-1,8.0253E-1,-1.3361047E-1,4.527027E-1,-1.3307904E-1,-1.4817798E-1,5.0605092E-2,-6.373473E-1,4.0008965E-1,7.175792E-1,-1.0548537E-1,8.547318E-1,-8.745394E-2,4.6560407E-1,-1.2601005E-1,2.3926628E-1,-1.4455582E-1,-7.96924E-1,3.8902897E-1,5.434832E-1,-7.65358E-2,-9.20712E-2,7.9214215E-1,8.9825445E-1,-8.736547E-2,4.7875774E-1,-1.1771524E-1,4.0411925E-1,-1.1054585E-1,-4.5192562E-2,5.6257296E-2,2.584654E-2,-1.219085E-1,3.1225542E-2,-1.1939247E-1,4.2975035E-2,-1.0740769E-1,3.9988104E-2,6.5518074E-2,2.4614355E-2,-1.1475342E-1,2.6769752E-2,-1.1694528E-1],"categories":[],"categories_nodes":[],"categories_segments":[],"categories_sizes":[],"default_left":[0,0,0,0,0,0,0,0,0,0,0,0,0,0,0,0,0,0,0,0,0,0,0,0,0,0,0,0,0,0,0,0,0,0,0,0,0,0,0,0,0,0,0,0,0,0,0,0,0,0,0],"id":20,"left_children":[1,3,5,7,9,11,13,15,17,19,-1,21,-1,-1,23,25,27,29,-1,31,-1,33,-1,35,-1,37,39,41,-1,-1,43,45,-1,47,-1,49,-1,-1,-1,-1,-1,-1,-1,-1,-1,-1,-1,-1,-1,-1,-1],"loss_changes":[2.4768047E2,1.3886182E2,8.856476E1,1.5121948E2,2.989727E1,6.746683E1,1.096505E2,1.3475867E2,4.0589977E1,1.9842392E1,0E0,6.446341E1,0E0,0E0,2.4793161E1,1.26242645E2,4.2321503E1,2.888028E1,0E0,1.6932175E1,0E0,6.2101044E1,0E0,1.7750341E1,0E0,1.3784421E2,3.891419E1,3.4799236E1,0E0,0E0,2.964206E1,4.3944016E0,0E0,6.256485E1,0E0,1.5637136E1,0E0,0E0,0E0,0E0,0E0,0E0,0E0,0E0,0E0,0E0,0E0,0E0,0E0,0E0,0E0],"parents":[2147483647,0,0,1,1,2,2,3,3,4,4,5,5,6,6,7,7,8,8,9,9,11,11,14,14,15,15,16,16,17,17,19,19,21,21,23,23,25,25,26,26,27,27,30,30,31,31,33,33,35,35],"right_children":[2,4,6,8,10,12,14,16,18,20,-1,22,-1,-1,24,26,28,30,-1,32,-1,34,-1,36,-1,38,40,42,-1,-1,44,46,-1,48,-1,50,-1,-1,-1,-1,-1,-1,-1,-1,-1,-1,-1,-1,-1,-1,-1],"split_conditions":[1E0,1E0,1E0,1E0,1E0,1E0,1E0,1E0,1E0,1E0,-1.3361047E-1,1E0,-1.3307904E-1,-1.4817798E-1,1E0,1E0,1E0,1E0,-1.0548537E-1,1E0,-8.745394E-2,1E0,-1.2601005E-1,1E0,-1.4455582E-1,1E0,1E0,1E0,-7.65358E-2,-9.20712E-2,1E0,1E0,-8.736547E-2,1E0,-1.1771524E-1,1E0,-1.1054585E-1,-4.5192562E-2,5.6257296E-2,2.584654E-2,-1.219085E-1,3.1225542E-2,-1.1939247E-1,4.2975035E-2,-1.0740769E-1,3.9988104E-2,6.5518074E-2,2.4614355E-2,-1.1475342E-1,2.6769752E-2,-1.1694528E-1],"split_indices":[1917,229,1060,675,227,1823,1722,1028,650,1807,0,1432,0,0,677,1564,310,1057,0,116,0,1410,0,1,0,987,283,1,0,0,887,389,0,786,0,208,0,0,0,0,0,0,0,0,0,0,0,0,0,0,0],"split_type":[0,0,0,0,0,0,0,0,0,0,0,0,0,0,0,0,0,0,0,0,0,0,0,0,0,0,0,0,0,0,0,0,0,0,0,0,0,0,0,0,0,0,0,0,0,0,0,0,0,0,0],"sum_hessian":[2.915499E3,1.2020837E3,1.7134154E3,1.0637701E3,1.383136E2,1.6551393E3,5.8276196E1,9.1674097E2,1.4702917E2,1.3674481E2,1.568782E0,1.6491334E3,6.005778E0,1.58493395E1,4.2426857E1,7.678861E2,1.4885486E2,1.4271385E2,4.315326E0,1.3465501E2,2.0898001E0,1.6428474E3,6.285993E0,4.0733185E1,1.6936733E0,6.647561E2,1.0313E2,1.3923306E2,9.621789E0,3.3696942E0,1.3934415E2,1.3308379E2,1.5712199E0,1.6360463E3,6.8012447E0,3.894777E1,1.7854142E0,6.302256E2,3.4530502E1,9.944814E1,3.6818545E0,1.3625371E2,2.9793587E0,1.3691528E2,2.4288776E0,1.0978593E2,2.3297865E1,1.6289237E3,7.1225395E0,3.7936996E1,1.0107739E0],"tree_param":{"num_deleted":"0","num_feature":"2048","num_nodes":"51","size_leaf_vector":"1"}},{"base_weights":[1.5461197E-1,-1.4740355E-1,4.032452E-1,-3.0066383E-1,4.5846185E-1,5.5114925E-1,-7.146226E-2,-2.5611123E-1,-1.6231221E-1,5.267739E-1,-1.1939206E-1,5.694542E-1,-1.1311002E-1,-3.842947E-1,5.1077837E-1,-4.0973216E-1,4.5103827E-1,-8.2130514E-2,6.0566586E-1,5.851082E-1,-1.371242E-1,-7.4895614E-1,8.4781647E-1,6.082968E-1,-1.15539074E-1,-5.926508E-1,6.22518E-1,-8.657471E-1,8.767402E-1,6.54753E-1,-1.226839E-1,6.0146517E-1,-1.2227738E-1,-1.2605553E0,-9.928078E-2,-7.871296E-2,1.032355E0,6.851502E-1,-8.374007E-2,-3.4489956E-2,5.870629E-2,3.5353083E-2,-1.2647408E-1,-1.21490814E-1,3.9219595E-3,4.699513E-2,-1.1087977E-1,-1.405896E-1,3.4871828E-2,3.0882984E-2,-1.2372693E-1,-8.656388E-2,3.1368732E-2,7.4463706E-3,-1.1272591E-1,5.938214E-2,2.3673188E-2,-8.536377E-2,3.8006466E-2],"categories":[],"categories_nodes":[],"categories_segments":[],"categories_sizes":[],"default_left":[0,0,0,0,0,0,0,0,0,0,0,0,0,0,0,0,0,0,0,0,0,0,0,0,0,0,0,0,0,0,0,0,0,0,0,0,0,0,0,0,0,0,0,0,0,0,0,0,0,0,0,0,0,0,0,0,0,0,0],"id":21,"left_children":[1,3,5,7,9,11,13,15,-1,17,-1,19,-1,21,23,25,27,-1,29,31,-1,33,35,37,-1,39,41,43,45,47,-1,49,-1,51,53,-1,55,57,-1,-1,-1,-1,-1,-1,-1,-1,-1,-1,-1,-1,-1,-1,-1,-1,-1,-1,-1,-1,-1],"loss_changes":[2.1688815E2,1.2127085E2,1.1125415E2,1.3588318E2,5.254447E1,6.3489502E1,6.889586E1,1.1178686E2,0E0,4.5220444E1,0E0,6.386136E1,0E0,1.1112738E2,3.7795567E1,1.598271E2,1.0380247E2,0E0,3.9160675E1,6.0759277E1,0E0,6.3121758E1,2.6937172E1,2.3716743E1,0E0,1.240294E2,3.5794514E1,6.725437E1,2.9331467E1,3.8495033E1,0E0,6.082666E1,0E0,9.561757E1,4.5761967E1,0E0,4.0570717E0,2.3746887E1,0E0,0E0,0E0,0E0,0E0,0E0,0E0,0E0,0E0,0E0,0E0,0E0,0E0,0E0,0E0,0E0,0E0,0E0,0E0,0E0,0E0],"parents":[2147483647,0,0,1,1,2,2,3,3,4,4,5,5,6,6,7,7,9,9,11,11,13,13,14,14,15,15,16,16,18,18,19,19,21,21,22,22,23,23,25,25,26,26,27,27,28,28,29,29,31,31,33,33,34,34,36,36,37,37],"right_children":[2,4,6,8,10,12,14,16,-1,18,-1,20,-1,22,24,26,28,-1,30,32,-1,34,36,38,-1,40,42,44,46,48,-1,50,-1,52,54,-1,56,58,-1,-1,-1,-1,-1,-1,-1,-1,-1,-1,-1,-1,-1,-1,-1,-1,-1,-1,-1,-1,-1],"split_conditions":[1E0,1E0,1E0,1E0,1E0,1E0,1E0,1E0,-1.6231221E-1,1E0,-1.1939206E-1,1E0,-1.1311002E-1,1E0,1E0,1E0,1E0,-8.2130514E-2,1E0,1E0,-1.371242E-1,1E0,1E0,1E0,-1.15539074E-1,1E0,1E0,1E0,1E0,1E0,-1.226839E-1,1E0,-1.2227738E-1,1E0,1E0,-7.871296E-2,1E0,1E0,-8.374007E-2,-3.4489956E-2,5.870629E-2,3.5353083E-2,-1.2647408E-1,-1.21490814E-1,3.9219595E-3,4.699513E-2,-1.1087977E-1,-1.405896E-1,3.4871828E-2,3.0882984E-2,-1.2372693E-1,-8.656388E-2,3.1368732E-2,7.4463706E-3,-1.1272591E-1,5.938214E-2,2.3673188E-2,-8.536377E-2,3.8006466E-2],"split_indices":[695,1738,1380,1574,574,222,283,116,0,1057,0,1593,0,314,1017,229,807,0,751,119,0,1754,1917,145,0,619,222,294,794,926,0,406,0,231,1911,0,926,1750,0,0,0,0,0,0,0,0,0,0,0,0,0,0,0,0,0,0,0,0,0],"split_type":[0,0,0,0,0,0,0,0,0,0,0,0,0,0,0,0,0,0,0,0,0,0,0,0,0,0,0,0,0,0,0,0,0,0,0,0,0,0,0,0,0,0,0,0,0,0,0,0,0,0,0,0,0,0,0,0,0,0,0],"sum_hessian":[2.8865422E3,1.303538E3,1.5830043E3,1.0407681E3,2.6276993E2,1.206832E3,3.761722E2,1.0263315E3,1.4436557E1,2.57407E2,5.3629165E0,1.199823E3,7.00902E0,2.4491934E2,1.3125288E2,8.4350854E2,1.8282292E2,8.336885E0,2.4907013E2,1.1949982E3,4.8248677E0,1.892887E2,5.5630642E1,1.276263E2,3.6265953E0,7.168975E2,1.2661106E2,4.441239E1,1.3841052E2,2.4591048E2,3.1596475E0,1.1893804E3,5.6177425E0,1.05371574E2,8.3917114E1,3.405288E0,5.2225353E1,1.2414717E2,3.4791222E0,6.801104E2,3.6787117E1,1.2405919E2,2.5518672E0,1.6125927E1,2.8286465E1,1.363241E2,2.08643E0,2.2019749E0,2.4370851E2,1.1839463E3,5.4340405E0,8.4408714E1,2.0962862E1,7.608561E1,7.831508E0,3.9989323E1,1.2236031E1,3.1110203E0,1.2103615E2],"tree_param":{"num_deleted":"0","num_feature":"2048","num_nodes":"59","size_leaf_vector":"1"}},{"base_weights":[9.715115E-2,-2.1457258E-1,3.5946608E-1,-3.6392733E-1,5.675758E-1,-8.080656E-2,5.220218E-1,-8.147758E-1,6.692274E-2,-2.9904515E-1,8.8083917E-1,1.8071459E-1,-1.2424512E0,5.4275787E-1,-1.2141826E-1,-1.0854871E0,4.0672067E-1,1.2918897E-1,-1.284375E-1,-1.1243395E-1,5.042384E-1,9.4458854E-1,-1.0219468E-1,-1.0295371E0,2.8920108E-1,-1.7469922E0,4.812165E-2,5.5890465E-1,-1.3323908E-1,-1.291251E0,4.8990878E-1,6.19608E-2,1.055225E0,1.775074E-1,-1.3089655E-1,-3.4464055E-1,5.5548813E-2,9.8893714E-1,-1.09404385E-1,-9.813504E-2,5.369516E-2,3.371136E-1,-1.04569435E-1,-2.2138946E0,4.9435403E-2,5.7766205E-1,-1.109116E-1,-7.3848754E-2,3.0012537E-2,3.6308087E-2,-1.2031629E-1,1.7971706E-2,-1.872081E-1,6.1721396E-2,2.6917329E-2,1.1237033E-2,-1.1187136E-1,-1.3962589E-1,4.4260908E-2,5.0974894E-2,-8.311852E-2,2.2102576E-2,-3.231469E-2,-1.5274054E-1,-9.437349E-2,2.9582677E-2,-1.427814E-1],"categories":[],"categories_nodes":[],"categories_segments":[],"categories_sizes":[],"default_left":[0,0,0,0,0,0,0,0,0,0,0,0,0,0,0,0,0,0,0,0,0,0,0,0,0,0,0,0,0,0,0,0,0,0,0,0,0,0,0,0,0,0,0,0,0,0,0,0,0,0,0,0,0,0,0,0,0,0,0,0,0,0,0,0,0,0,0],"id":22,"left_children":[1,3,5,7,9,11,13,15,17,19,21,23,25,27,-1,29,31,33,-1,-1,35,37,-1,39,41,43,-1,45,-1,47,49,51,53,55,-1,57,-1,59,-1,-1,-1,61,-1,63,-1,65,-1,-1,-1,-1,-1,-1,-1,-1,-1,-1,-1,-1,-1,-1,-1,-1,-1,-1,-1,-1,-1],"loss_changes":[2.2517368E2,1.4722852E2,1.0705533E2,2.0544768E2,5.515267E1,1.2297798E2,6.813724E1,1.7132404E2,8.921621E1,8.6373E1,2.9666496E1,4.371585E1,8.4423965E1,5.7702423E1,0E0,1.3784714E2,2.1057953E1,7.082246E1,0E0,0E0,2.0656483E1,2.2484894E1,0E0,5.593615E1,3.5409523E1,7.995517E1,0E0,5.7580566E1,0E0,1.3250677E2,3.570286E1,7.238983E1,2.3671799E0,6.0025517E1,0E0,5.4164715E1,0E0,1.3436661E1,0E0,0E0,0E0,3.1154259E1,0E0,8.5946045E0,0E0,5.3295776E1,0E0,0E0,0E0,0E0,0E0,0E0,0E0,0E0,0E0,0E0,0E0,0E0,0E0,0E0,0E0,0E0,0E0,0E0,0E0,0E0,0E0],"parents":[2147483647,0,0,1,1,2,2,3,3,4,4,5,5,6,6,7,7,8,8,9,9,10,10,11,11,12,12,13,13,15,15,16,16,17,17,20,20,21,21,23,23,24,24,25,25,27,27,29,29,30,30,31,31,32,32,33,33,35,35,37,37,41,41,43,43,45,45],"right_children":[2,4,6,8,10,12,14,16,18,20,22,24,26,28,-1,30,32,34,-1,-1,36,38,-1,40,42,44,-1,46,-1,48,50,52,54,56,-1,58,-1,60,-1,-1,-1,62,-1,64,-1,66,-1,-1,-1,-1,-1,-1,-1,-1,-1,-1,-1,-1,-1,-1,-1,-1,-1,-1,-1,-1,-1],"split_conditions":[1E0,1E0,1E0,1E0,1E0,1E0,1E0,1E0,1E0,1E0,1E0,1E0,1E0,1E0,-1.2141826E-1,1E0,1E0,1E0,-1.284375E-1,-1.1243395E-1,1E0,1E0,-1.0219468E-1,1E0,1E0,1E0,4.812165E-2,1E0,-1.3323908E-1,1E0,1E0,1E0,1E0,1E0,-1.3089655E-1,1E0,5.5548813E-2,1E0,-1.09404385E-1,-9.813504E-2,5.369516E-2,1E0,-1.04569435E-1,1E0,4.9435403E-2,1E0,-1.109116E-1,-7.3848754E-2,3.0012537E-2,3.6308087E-2,-1.2031629E-1,1.7971706E-2,-1.872081E-1,6.1721396E-2,2.6917329E-2,1.1237033E-2,-1.1187136E-1,-1.3962589E-1,4.4260908E-2,5.0974894E-2,-8.311852E-2,2.2102576E-2,-3.231469E-2,-1.5274054E-1,-9.437349E-2,2.9582677E-2,-1.427814E-1],"split_indices":[695,116,294,926,807,841,1243,229,206,294,787,1057,229,1353,0,844,389,1096,0,0,1,1342,0,1437,598,11,0,1697,0,446,1911,283,650,89,0,728,0,1427,0,0,0,739,0,1873,0,890,0,0,0,0,0,0,0,0,0,0,0,0,0,0,0,0,0,0,0,0,0],"split_type":[0,0,0,0,0,0,0,0,0,0,0,0,0,0,0,0,0,0,0,0,0,0,0,0,0,0,0,0,0,0,0,0,0,0,0,0,0,0,0,0,0,0,0,0,0,0,0,0,0,0,0,0,0,0,0,0,0,0,0,0,0,0,0,0,0,0,0],"sum_hessian":[2.7518083E3,1.2575602E3,1.4942483E3,1.0563752E3,2.0118489E2,4.0306717E2,1.0911812E3,5.1577203E2,5.406033E2,5.342733E1,1.4775757E2,3.2968875E2,7.337842E1,1.0843759E3,6.805251E0,4.2229355E2,9.347847E1,5.2905566E2,1.1547646E1,1.5064709E1,3.8362617E1,1.4526823E2,2.4893284E0,2.6423538E1,3.032652E2,5.988311E1,1.3495309E1,1.0797661E3,4.6097894E0,3.7366873E2,4.862482E1,6.1747578E1,3.1730892E1,5.2083026E2,8.225375E0,1.6170567E1,2.2192053E1,1.4391518E2,1.3530592E0,1.83498E1,8.073738E0,2.9812347E2,5.1417356E0,5.131578E1,8.56733E0,1.0733087E3,6.4573812E0,3.4045868E2,3.3210052E1,4.5650288E1,2.9745314E0,5.811136E1,3.636217E0,2.253108E1,9.199813E0,5.117284E2,9.101863E0,4.982645E0,1.1187922E1,1.4288368E2,1.0314968E0,2.6987592E2,2.824756E1,1.2012224E1,3.9303555E1,1.0697767E3,3.5319152E0],"tree_param":{"num_deleted":"0","num_feature":"2048","num_nodes":"67","size_leaf_vector":"1"}},{"base_weights":[9.234245E-2,-1.0628349E-1,4.773574E-1,-7.018466E-2,-8.498359E-2,5.7943577E-1,-1.5633604E-1,-4.3967616E-2,-1.0947301E-1,7.043441E-1,4.3499555E-2,-3.938823E-1,5.3452443E-2,-2.5709987E-1,2.0284267E-1,7.2052646E-1,-1.1275605E-1,-4.0178794E-1,5.8739215E-1,-1.706042E-1,-1.37383E-1,-3.6935952E-1,6.238485E-1,2.3917699E-1,-2.6022418E0,7.303486E-1,-1.3451605E-1,-1.0743149E-1,-1.2833759E-1,6.8779683E-1,-7.601168E-2,2.429411E-1,-1.4648871E0,-2.438208E-2,3.1857386E-2,3.7875038E-2,-1.02066055E-1,1.3594097E-2,-1.3971291E-1,-1.5070076E-1,-7.235085E-2,3.7033793E-2,-1.0112976E-1,-1.1935444E-1,6.725931E-3,3.770836E-2,-7.016527E-2,1.8045282E-2,-1.2028736E-1,-1.50688E-1,-4.420096E-2],"categories":[],"categories_nodes":[],"categories_segments":[],"categories_sizes":[],"default_left":[0,0,0,0,0,0,0,0,0,0,0,0,0,0,0,0,0,0,0,0,0,0,0,0,0,0,0,0,0,0,0,0,0,0,0,0,0,0,0,0,0,0,0,0,0,0,0,0,0,0,0],"id":23,"left_children":[1,3,5,7,-1,9,11,13,-1,15,17,19,-1,21,23,25,-1,27,29,31,-1,33,35,37,39,41,-1,43,-1,45,-1,47,49,-1,-1,-1,-1,-1,-1,-1,-1,-1,-1,-1,-1,-1,-1,-1,-1,-1,-1],"loss_changes":[2.1138014E2,1.0478369E2,6.093683E1,9.904829E1,0E0,5.421631E1,3.863707E1,9.282522E1,0E0,3.3094757E1,3.7589222E1,5.7709526E1,0E0,9.386703E1,8.39742E1,2.3885132E1,0E0,5.414528E1,1.58237705E1,5.504476E1,0E0,1.0036648E2,3.9799026E1,8.0946594E1,6.533127E-1,2.006897E1,0E0,4.2360985E1,0E0,1.0405355E1,0E0,2.5330605E1,1.972343E1,0E0,0E0,0E0,0E0,0E0,0E0,0E0,0E0,0E0,0E0,0E0,0E0,0E0,0E0,0E0,0E0,0E0,0E0],"parents":[2147483647,0,0,1,1,2,2,3,3,5,5,6,6,7,7,9,9,10,10,11,11,13,13,14,14,15,15,17,17,18,18,19,19,21,21,22,22,23,23,24,24,25,25,27,27,29,29,31,31,32,32],"right_children":[2,4,6,8,-1,10,12,14,-1,16,18,20,-1,22,24,26,-1,28,30,32,-1,34,36,38,40,42,-1,44,-1,46,-1,48,50,-1,-1,-1,-1,-1,-1,-1,-1,-1,-1,-1,-1,-1,-1,-1,-1,-1,-1],"split_conditions":[1E0,1E0,1E0,1E0,-8.498359E-2,1E0,1E0,1E0,-1.0947301E-1,1E0,1E0,1E0,5.3452443E-2,1E0,1E0,1E0,-1.1275605E-1,1E0,1E0,1E0,-1.37383E-1,1E0,1E0,1E0,1E0,1E0,-1.3451605E-1,1E0,-1.2833759E-1,1E0,-7.601168E-2,1E0,1E0,-2.438208E-2,3.1857386E-2,3.7875038E-2,-1.02066055E-1,1.3594097E-2,-1.3971291E-1,-1.5070076E-1,-7.235085E-2,3.7033793E-2,-1.0112976E-1,-1.1935444E-1,6.725931E-3,3.770836E-2,-7.016527E-2,1.8045282E-2,-1.2028736E-1,-1.50688E-1,-4.420096E-2],"split_indices":[147,1452,1143,118,0,1873,749,294,0,2004,283,401,0,31,823,1464,0,2033,739,1034,0,229,389,599,83,406,0,1088,0,1019,0,2033,1267,0,0,0,0,0,0,0,0,0,0,0,0,0,0,0,0,0,0],"split_type":[0,0,0,0,0,0,0,0,0,0,0,0,0,0,0,0,0,0,0,0,0,0,0,0,0,0,0,0,0,0,0,0,0,0,0,0,0,0,0,0,0,0,0,0,0,0,0,0,0,0,0],"sum_hessian":[2.7624167E3,1.8227826E3,9.3963416E2,1.7834225E3,3.936009E1,8.093464E2,1.3028781E2,1.7626381E3,2.078442E1,6.561144E2,1.5323195E2,1.09700455E2,2.0587353E1,9.458288E2,8.1680927E2,6.532987E2,2.8156953E0,8.4396996E1,6.883495E1,1.0117548E2,8.524972E0,8.394394E2,1.0638942E2,8.0726746E2,9.541819E0,6.522064E2,1.0922743E0,7.52195E1,9.177497E0,6.6347885E1,2.487068E0,7.7291756E1,2.3883726E1,7.5162585E2,8.781355E1,1.019906E2,4.3988185E0,7.995574E2,7.710049E0,5.848222E0,3.6935968E0,6.5049713E2,1.7092896E0,6.366664E0,6.885283E1,6.49265E1,1.4213858E0,7.4823105E1,2.468652E0,5.371734E0,1.8511993E1],"tree_param":{"num_deleted":"0","num_feature":"2048","num_nodes":"51","size_leaf_vector":"1"}},{"base_weights":[1.1450147E-1,-3.455531E-2,4.376599E-1,-1.31939715E-2,-1.22157715E-1,4.6904662E-1,-1.5687966E-1,1.150675E-2,-1.0548659E-1,5.6775516E-1,-2.4709392E-1,3.9467707E-2,-7.69993E-2,6.830658E-1,7.819583E-2,2.11963E-1,-3.1543748E0,6.42647E-2,-8.3666794E-2,7.2930574E-1,-5.480863E-1,-1.042595E0,3.9299E-1,3.7556428E-1,-1.24660216E-1,-1.657375E-1,-6.324102E-2,4.03076E-3,-1.2942617E-1,3.7005674E-2,-1.3063154E-1,-1.658694E-1,1.8537572E-2,-1.1692017E-1,3.1117601E-2,2.5506144E-2,-1.05877414E-1,2.4475072E-2,-8.4050305E-2],"categories":[],"categories_nodes":[],"categories_segments":[],"categories_sizes":[],"default_left":[0,0,0,0,0,0,0,0,0,0,0,0,0,0,0,0,0,0,0,0,0,0,0,0,0,0,0,0,0,0,0,0,0,0,0,0,0,0,0],"id":24,"left_children":[1,3,5,7,-1,9,-1,11,-1,13,15,17,-1,19,21,23,25,27,-1,29,31,33,35,37,-1,-1,-1,-1,-1,-1,-1,-1,-1,-1,-1,-1,-1,-1,-1],"loss_changes":[1.3301228E2,9.723276E1,9.9280106E1,9.7114235E1,0E0,6.127919E1,0E0,8.048927E1,0E0,4.287384E1,1.4142699E2,7.749847E1,0E0,3.5429688E1,5.195482E1,4.1662735E1,1.84906E-1,7.815709E1,0E0,2.336969E1,5.9360493E1,7.116134E1,3.4834885E1,2.1359539E1,0E0,0E0,0E0,0E0,0E0,0E0,0E0,0E0,0E0,0E0,0E0,0E0,0E0,0E0,0E0],"parents":[2147483647,0,0,1,1,2,2,3,3,5,5,7,7,9,9,10,10,11,11,13,13,14,14,15,15,16,16,17,17,19,19,20,20,21,21,22,22,23,23],"right_children":[2,4,6,8,-1,10,-1,12,-1,14,16,18,-1,20,22,24,26,28,-1,30,32,34,36,38,-1,-1,-1,-1,-1,-1,-1,-1,-1,-1,-1,-1,-1,-1,-1],"split_conditions":[1E0,1E0,1E0,1E0,-1.22157715E-1,1E0,-1.5687966E-1,1E0,-1.0548659E-1,1E0,1E0,1E0,-7.69993E-2,1E0,1E0,1E0,1E0,1E0,-8.3666794E-2,1E0,1E0,1E0,1E0,1E0,-1.24660216E-1,-1.657375E-1,-6.324102E-2,4.03076E-3,-1.2942617E-1,3.7005674E-2,-1.3063154E-1,-1.658694E-1,1.8537572E-2,-1.1692017E-1,3.1117601E-2,2.5506144E-2,-1.05877414E-1,2.4475072E-2,-8.4050305E-2],"split_indices":[147,674,1693,715,0,1143,0,310,0,1380,1034,92,0,1019,389,1238,1243,1599,0,1464,1386,579,31,1380,0,0,0,0,0,0,0,0,0,0,0,0,0,0,0],"split_type":[0,0,0,0,0,0,0,0,0,0,0,0,0,0,0,0,0,0,0,0,0,0,0,0,0,0,0,0,0,0,0,0,0,0,0,0,0,0,0],"sum_hessian":[2.760056E3,1.8894435E3,8.706125E2,1.8738303E3,1.56131115E1,8.638972E2,6.715244E0,1.8529935E3,2.0836851E1,7.594292E2,1.04467995E2,1.8211473E3,3.1846107E1,6.14334E2,1.4509525E2,9.102269E1,1.3445306E1,1.7961068E3,2.5040527E1,5.924888E2,2.184523E1,3.130942E1,1.1378582E2,8.664387E1,4.378822E0,1.1698179E1,1.7471261E0,1.786068E3,1.0038843E1,5.9135486E2,1.1338847E0,4.7920294E0,1.7053202E1,1.7379034E1,1.3930387E1,1.09474915E2,4.3109074E0,8.281763E1,3.826241E0],"tree_param":{"num_deleted":"0","num_feature":"2048","num_nodes":"39","size_leaf_vector":"1"}},{"base_weights":[1.4860901E-1,-9.557405E-2,3.3592945E-1,-4.3277152E-2,-1.1124247E-1,3.5322747E-1,-1.16198495E-1,-1.2981139E-1,6.981747E-1,3.6444837E-1,-1.6941737E-1,-8.3374456E-2,-1.2191142E-1,8.254602E-1,-1.5109015E-1,2.9407075E-1,9.11592E-1,-2.1716273E-1,6.09843E-1,8.7134546E-1,-8.0986045E-2,3.0916545E-1,-1.813219E-1,9.522418E-1,-8.624057E-2,-1.4203347E-2,5.412817E-2,3.4035254E-2,-1.02593794E-1,4.523952E-2,-7.068261E-2,-3.9763458E-2,1.7367577E-2,4.8805855E-2,-7.780106E-2],"categories":[],"categories_nodes":[],"categories_segments":[],"categories_sizes":[],"default_left":[0,0,0,0,0,0,0,0,0,0,0,0,0,0,0,0,0,0,0,0,0,0,0,0,0,0,0,0,0,0,0,0,0,0,0],"id":25,"left_children":[1,3,5,7,-1,9,-1,11,13,15,-1,17,-1,19,-1,21,23,25,27,29,-1,31,-1,33,-1,-1,-1,-1,-1,-1,-1,-1,-1,-1,-1],"loss_changes":[1.3050592E2,1.3787993E2,7.510138E1,7.7750336E1,0E0,6.861246E1,0E0,1.1607545E2,6.2466114E1,6.1379166E1,0E0,9.884738E1,0E0,1.5239906E1,0E0,8.515342E1,2.1145172E1,7.7953766E1,3.39236E1,1.0574341E1,0E0,5.9971252E1,0E0,1.2289963E1,0E0,0E0,0E0,0E0,0E0,0E0,0E0,0E0,0E0,0E0,0E0],"parents":[2147483647,0,0,1,1,2,2,3,3,5,5,7,7,8,8,9,9,11,11,13,13,15,15,16,16,17,17,18,18,19,19,21,21,23,23],"right_children":[2,4,6,8,-1,10,-1,12,14,16,-1,18,-1,20,-1,22,24,26,28,30,-1,32,-1,34,-1,-1,-1,-1,-1,-1,-1,-1,-1,-1,-1],"split_conditions":[1E0,1E0,1E0,1E0,-1.1124247E-1,1E0,-1.16198495E-1,1E0,1E0,1E0,-1.6941737E-1,1E0,-1.2191142E-1,1E0,-1.5109015E-1,1E0,1E0,1E0,1E0,1E0,-8.0986045E-2,1E0,-1.813219E-1,1E0,-8.624057E-2,-1.4203347E-2,5.412817E-2,3.4035254E-2,-1.02593794E-1,4.523952E-2,-7.068261E-2,-3.9763458E-2,1.7367577E-2,4.8805855E-2,-7.780106E-2],"split_indices":[1917,1440,1110,229,0,139,0,231,283,116,0,1028,0,1807,0,1328,787,586,1232,116,0,1057,0,1171,0,0,0,0,0,0,0,0,0,0,0],"split_type":[0,0,0,0,0,0,0,0,0,0,0,0,0,0,0,0,0,0,0,0,0,0,0,0,0,0,0,0,0,0,0,0,0,0,0],"sum_hessian":[2.8514802E3,1.2380718E3,1.6134086E3,1.2093884E3,2.868333E1,1.6038456E3,9.563019E0,1.0837318E3,1.2565654E2,1.59995E3,3.8956192E0,1.0633767E3,2.0355148E1,1.22251595E2,3.4049478E0,1.4189692E3,1.809807E2,8.9192535E2,1.7145137E2,1.20631516E2,1.6200753E0,1.4144445E3,4.5247383E0,1.788617E2,2.118995E0,8.490038E2,4.2921555E1,1.6773021E2,3.721162E0,1.1948665E2,1.1448674E0,4.6607796E1,1.3678367E3,1.777803E2,1.0813893E0],"tree_param":{"num_deleted":"0","num_feature":"2048","num_nodes":"35","size_leaf_vector":"1"}},{"base_weights":[1.5124895E-1,1.7379864E-1,-1.9347143E0,-1.613762E-1,2.7006263E-1,-8.4209196E-2,-1.5557945E-1,-7.353415E-2,-9.516832E-2,2.8742084E-1,-1.0944747E-1,-1.5113516E-1,6.812564E-2,3.0308837E-1,-1.03712074E-1,-2.7770826E-1,7.8737634E-1,3.1975096E-1,-8.5433125E-2,-7.044581E-3,-7.840201E-2,4.4086333E-2,-7.93949E-2,1.6564276E-2,-1.2899895E-1],"categories":[],"categories_nodes":[],"categories_segments":[],"categories_sizes":[],"default_left":[0,0,0,0,0,0,0,0,0,0,0,0,0,0,0,0,0,0,0,0,0,0,0,0,0],"id":26,"left_children":[1,3,5,7,9,-1,-1,11,-1,13,-1,15,-1,17,-1,19,21,23,-1,-1,-1,-1,-1,-1,-1],"loss_changes":[1.3227985E2,8.961108E1,3.628769E0,9.473391E1,9.269705E1,0E0,0E0,6.609807E1,0E0,7.9912674E1,0E0,6.696365E1,0E0,7.192854E1,0E0,8.731402E1,1.6422676E1,7.152252E1,0E0,0E0,0E0,0E0,0E0,0E0,0E0],"parents":[2147483647,0,0,1,1,2,2,3,3,4,4,7,7,9,9,11,11,13,13,15,15,16,16,17,17],"right_children":[2,4,6,8,10,-1,-1,12,-1,14,-1,16,-1,18,-1,20,22,24,-1,-1,-1,-1,-1,-1,-1],"split_conditions":[1E0,1E0,1E0,1E0,1E0,-8.4209196E-2,-1.5557945E-1,1E0,-9.516832E-2,1E0,-1.0944747E-1,1E0,6.812564E-2,1E0,-1.03712074E-1,1E0,1E0,1E0,-8.5433125E-2,-7.044581E-3,-7.840201E-2,4.4086333E-2,-7.93949E-2,1.6564276E-2,-1.2899895E-1],"split_indices":[1866,80,1609,841,1130,0,0,333,0,1171,0,229,0,92,0,314,1807,1126,0,0,0,0,0,0,0],"split_type":[0,0,0,0,0,0,0,0,0,0,0,0,0,0,0,0,0,0,0,0,0,0,0,0,0],"sum_hessian":[2.8040537E3,2.7749724E3,2.9081327E1,6.190097E2,2.1559626E3,2.5981508E1,3.0998192E0,5.90286E2,2.8723696E1,2.1417273E3,1.4235376E1,5.608724E2,2.9413626E1,2.1284785E3,1.3248915E1,4.9483954E2,6.603282E1,2.1118281E3,1.6650427E1,4.4840356E2,4.6435986E1,6.411485E1,1.9179721E0,2.104343E3,7.484891E0],"tree_param":{"num_deleted":"0","num_feature":"2048","num_nodes":"25","size_leaf_vector":"1"}},{"base_weights":[1.6986272E-1,2.9725546E-1,-1.9220772E-1,9.902178E-3,5.267303E-1,-8.750026E-2,-1.4349233E0,-1.8065278E-1,4.653077E-1,3.0734843E-1,7.478592E-1,-3.2504316E-2,-1.1385993E-1,-9.260338E-2,5.3521365E-2,-9.446834E-2,-6.1411783E-2,5.3527474E-1,-1.0960026E-1,3.706565E-1,-1.4037341E-1,7.586616E-1,-1.3600169E-1,-1.1060267E-1,6.431665E-2,-2.7228133E-3,-1.3686012E-1,5.98734E-1,-1.05081476E-1,4.0429115E-1,-1.3767833E-1,7.716353E-1,-1.09899215E-1,-3.4462735E-1,3.831523E-1,1.1373097E-2,-2.9092861E-2,3.3180144E-2,-9.3377136E-2,2.106957E-2,-2.0163225E-1,3.914131E-2,-9.621511E-2,-2.3622831E-2,5.1802017E-2,2.623195E-2,-1.0812297E-1],"categories":[],"categories_nodes":[],"categories_segments":[],"categories_sizes":[],"default_left":[0,0,0,0,0,0,0,0,0,0,0,0,0,0,0,0,0,0,0,0,0,0,0,0,0,0,0,0,0,0,0,0,0,0,0,0,0,0,0,0,0,0,0,0,0,0,0],"id":27,"left_children":[1,3,5,7,9,11,13,15,17,19,21,23,-1,-1,-1,-1,25,27,-1,29,-1,31,-1,33,-1,35,-1,37,-1,39,-1,41,-1,43,45,-1,-1,-1,-1,-1,-1,-1,-1,-1,-1,-1,-1],"loss_changes":[1.3381998E2,1.4147697E2,9.816711E1,8.28444E1,5.76409E1,8.395278E1,6.3262627E1,1.3702142E2,5.3531643E1,1.1946016E2,2.4293396E1,7.035404E1,0E0,0E0,0E0,0E0,9.895864E1,4.7307556E1,0E0,6.3053627E1,0E0,2.4417297E1,0E0,7.460279E1,0E0,8.247325E1,0E0,4.435533E1,0E0,4.6011963E1,0E0,1.9321503E1,0E0,7.775155E1,7.594685E1,0E0,0E0,0E0,0E0,0E0,0E0,0E0,0E0,0E0,0E0,0E0,0E0],"parents":[2147483647,0,0,1,1,2,2,3,3,4,4,5,5,6,6,7,7,8,8,9,9,10,10,11,11,16,16,17,17,19,19,21,21,23,23,25,25,27,27,29,29,31,31,33,33,34,34],"right_children":[2,4,6,8,10,12,14,16,18,20,22,24,-1,-1,-1,-1,26,28,-1,30,-1,32,-1,34,-1,36,-1,38,-1,40,-1,42,-1,44,46,-1,-1,-1,-1,-1,-1,-1,-1,-1,-1,-1,-1],"split_conditions":[1E0,1E0,1E0,1E0,1E0,1E0,1E0,1E0,1E0,1E0,1E0,1E0,-1.1385993E-1,-9.260338E-2,5.3521365E-2,-9.446834E-2,1E0,1E0,-1.0960026E-1,1E0,-1.4037341E-1,1E0,-1.3600169E-1,1E0,6.431665E-2,1E0,-1.3686012E-1,1E0,-1.05081476E-1,1E0,-1.3767833E-1,1E0,-1.09899215E-1,1E0,1E0,1.1373097E-2,-2.9092861E-2,3.3180144E-2,-9.3377136E-2,2.106957E-2,-2.0163225E-1,3.914131E-2,-9.621511E-2,-2.3622831E-2,5.1802017E-2,2.623195E-2,-1.0812297E-1],"split_indices":[1873,695,841,1325,694,1823,450,1057,1070,316,1120,333,0,0,0,0,1574,1096,0,2,0,1060,0,283,0,794,0,253,0,70,0,1351,0,1184,1004,0,0,0,0,0,0,0,0,0,0,0,0],"split_type":[0,0,0,0,0,0,0,0,0,0,0,0,0,0,0,0,0,0,0,0,0,0,0,0,0,0,0,0,0,0,0,0,0,0,0,0,0,0,0,0,0,0,0,0,0,0,0],"sum_hessian":[2.898999E3,2.1446082E3,7.543909E2,9.526823E2,1.1919257E3,6.967549E2,5.7636055E1,6.7207135E2,2.8061096E2,5.99526E2,5.923997E2,6.806741E2,1.6080805E1,4.963287E1,8.003185E0,4.287214E1,6.291992E2,2.741901E2,6.4208574E0,5.8844696E2,1.1079075E1,5.913389E2,1.0607797E0,6.434846E2,3.718946E1,6.166745E2,1.2524703E1,2.6850134E2,5.688769E0,5.8304065E2,5.4062867E0,5.894913E2,1.8476498E0,4.3677075E2,2.0671387E2,4.4171585E2,1.7495866E2,2.623323E2,6.1690216E0,5.8170374E2,1.3368937E0,5.877611E2,1.7301848E0,4.0036108E2,3.640967E1,1.9658165E2,1.0132226E1],"tree_param":{"num_deleted":"0","num_feature":"2048","num_nodes":"47","size_leaf_vector":"1"}},{"base_weights":[1.5468742E-1,1.3042228E-2,4.4977093E-1,4.15977E-2,-1.0135442E-1,4.8321643E-1,-7.932749E-1,-2.7896926E-2,6.508507E-1,4.9285823E-1,-1.5174997E-1,-8.4370345E-2,5.2484613E-2,-2.355697E-3,-1.0026538E-1,7.1785176E-1,-1.3391422E-1,5.0549537E-1,-1.1135604E-1,1.6781623E-2,-1.2003622E-1,7.866909E-1,-9.927156E-2,5.181602E-1,-1.0872193E-1,2.203007E-3,-7.324266E-2,4.1975506E-2,-9.949838E-2,3.2549303E-2,1.27901705E-2],"categories":[],"categories_nodes":[],"categories_segments":[],"categories_sizes":[],"default_left":[0,0,0,0,0,0,0,0,0,0,0,0,0,0,0,0,0,0,0,0,0,0,0,0,0,0,0,0,0,0,0],"id":28,"left_children":[1,3,5,7,-1,9,11,13,15,17,-1,-1,-1,19,-1,21,-1,23,-1,25,-1,27,-1,29,-1,-1,-1,-1,-1,-1,-1],"loss_changes":[1.179982E2,1.1127418E2,3.8450546E1,7.975446E1,0E0,3.1763443E1,4.192855E1,8.54196E1,4.494117E1,3.17415E1,0E0,0E0,0E0,7.672814E1,0E0,3.6890274E1,0E0,3.1245575E1,0E0,6.709929E1,0E0,2.8926933E1,0E0,3.0639755E1,0E0,0E0,0E0,0E0,0E0,0E0,0E0],"parents":[2147483647,0,0,1,1,2,2,3,3,5,5,6,6,7,7,8,8,9,9,13,13,15,15,17,17,19,19,21,21,23,23],"right_children":[2,4,6,8,-1,10,12,14,16,18,-1,-1,-1,20,-1,22,-1,24,-1,26,-1,28,-1,30,-1,-1,-1,-1,-1,-1,-1],"split_conditions":[1E0,1E0,1E0,1E0,-1.0135442E-1,1E0,1E0,1E0,1E0,1E0,-1.5174997E-1,-8.4370345E-2,5.2484613E-2,1E0,-1.0026538E-1,1E0,-1.3391422E-1,1E0,-1.1135604E-1,1E0,-1.2003622E-1,1E0,-9.927156E-2,1E0,-1.0872193E-1,2.203007E-3,-7.324266E-2,4.1975506E-2,-9.949838E-2,3.2549303E-2,1.27901705E-2],"split_indices":[147,253,145,1386,0,139,65,1855,585,1934,0,0,0,1096,0,1754,0,1309,0,310,0,1126,0,1911,0,0,0,0,0,0,0],"split_type":[0,0,0,0,0,0,0,0,0,0,0,0,0,0,0,0,0,0,0,0,0,0,0,0,0,0,0,0,0,0,0],"sum_hessian":[2.8222556E3,1.9076127E3,9.1464294E2,1.8822467E3,2.5365978E1,8.912735E2,2.3369423E1,1.6903865E3,1.9186023E2,8.896952E2,1.578329E0,1.5792135E1,7.5772877E0,1.6698195E3,2.0567034E1,1.88844E2,3.0162387E0,8.863911E2,3.304065E0,1.657586E3,1.2233384E1,1.8484587E2,3.9981124E0,8.830248E2,3.3663464E0,1.6285725E3,2.9013542E1,1.820799E2,2.7659748E0,5.8524567E2,2.9777908E2],"tree_param":{"num_deleted":"0","num_feature":"2048","num_nodes":"31","size_leaf_vector":"1"}},{"base_weights":[1.4753982E-1,-2.8943473E-1,2.626803E-1,-4.391751E-1,8.11273E-1,2.8007293E-1,-1.06032096E-1,-5.5818534E-1,1.1539812E0,9.2129165E-1,-7.99491E-2,2.951805E-1,-1.0507982E-1,-7.0388997E-1,9.318817E-1,-7.347945E-2,6.523064E-2,9.886479E-1,-8.825897E-2,3.0519497E-1,-1.6142982E-1,-8.4095395E-1,1.2306086E0,-7.458601E-2,1.0469931E0,1.0371095E0,7.45404E-1,3.1980386E-1,-1.0108981E-1,-4.9181722E-2,5.1478565E-2,4.923927E-2,7.15663E-2,5.838394E-2,3.0754928E-2,4.407818E-2,6.0827017E-2,5.2258577E-2,1.43586425E-2,1.657295E-2,-1.12004004E-1],"categories":[],"categories_nodes":[],"categories_segments":[],"categories_sizes":[],"default_left":[0,0,0,0,0,0,0,0,0,0,0,0,0,0,0,0,0,0,0,0,0,0,0,0,0,0,0,0,0,0,0,0,0,0,0,0,0,0,0,0,0],"id":29,"left_children":[1,3,5,7,9,11,-1,13,15,17,-1,19,-1,21,23,-1,-1,25,-1,27,-1,29,31,-1,33,35,37,39,-1,-1,-1,-1,-1,-1,-1,-1,-1,-1,-1,-1,-1],"loss_changes":[1.4087823E2,9.6625755E1,9.242793E1,9.824964E1,2.0113548E1,7.978787E1,0E0,1.0479985E2,1.6187023E1,1.4024647E1,0E0,7.817087E1,0E0,1.1704492E2,1.3602123E1,0E0,0E0,1.486969E-2,0E0,7.482216E1,0E0,1.1021536E2,3.8841248E-2,0E0,1.4599113E0,4.1184616E-1,1.7135878E0,6.546286E1,0E0,0E0,0E0,0E0,0E0,0E0,0E0,0E0,0E0,0E0,0E0,0E0,0E0],"parents":[2147483647,0,0,1,1,2,2,3,3,4,4,5,5,7,7,8,8,9,9,11,11,13,13,14,14,17,17,19,19,21,21,22,22,24,24,25,25,26,26,27,27],"right_children":[2,4,6,8,10,12,-1,14,16,18,-1,20,-1,22,24,-1,-1,26,-1,28,-1,30,32,-1,34,36,38,40,-1,-1,-1,-1,-1,-1,-1,-1,-1,-1,-1,-1,-1],"split_conditions":[1E0,1E0,1E0,1E0,1E0,1E0,-1.06032096E-1,1E0,1E0,1E0,-7.99491E-2,1E0,-1.0507982E-1,1E0,1E0,-7.347945E-2,6.523064E-2,1E0,-8.825897E-2,1E0,-1.6142982E-1,1E0,1E0,-7.458601E-2,1E0,1E0,1E0,1E0,-1.0108981E-1,-4.9181722E-2,5.1478565E-2,4.923927E-2,7.15663E-2,5.838394E-2,3.0754928E-2,4.407818E-2,6.0827017E-2,5.2258577E-2,1.43586425E-2,1.657295E-2,-1.12004004E-1],"split_indices":[80,229,1130,611,1807,715,0,1576,1162,808,0,959,0,333,1060,0,0,807,0,1171,0,1037,378,0,1917,1873,1,725,0,0,0,0,0,0,0,0,0,0,0,0,0],"split_type":[0,0,0,0,0,0,0,0,0,0,0,0,0,0,0,0,0,0,0,0,0,0,0,0,0,0,0,0,0,0,0,0,0,0,0,0,0,0,0,0,0],"sum_hessian":[2.7975005E3,5.830872E2,2.2144133E3,5.1379193E2,6.929528E1,2.1992463E3,1.5166849E1,4.7868347E2,3.5108456E1,6.686109E1,2.434184E0,2.1862544E3,1.2991929E1,4.3652585E2,4.2157604E1,1.4308547E0,3.36776E1,6.584226E1,1.0188333E0,2.1809695E3,5.284863E0,4.081712E2,2.8354654E1,1.3692822E0,4.0788322E1,5.2182297E1,1.3659964E1,2.16822E3,1.2749569E1,3.7968372E2,2.8487484E1,1.54001045E1,1.2954549E1,3.0548454E1,1.0239868E1,3.1118902E1,2.1063396E1,7.4834976E0,6.1764665E0,2.1592595E3,8.960574E0],"tree_param":{"num_deleted":"0","num_feature":"2048","num_nodes":"41","size_leaf_vector":"1"}},{"base_weights":[1.0896655E-1,-8.713098E-1,1.582748E-1,-1.0998583E0,6.54808E-2,1.7778023E-1,-1.8585948E0,-1.4546565E0,6.1239994E-1,1.8879911E-1,-1.4834142E-1,-8.128251E-2,-1.3363813E-1,-9.057107E-2,5.9166074E-2,8.1712943E-1,-8.6618714E-2,2.0639786E-1,-7.9811744E-2,1.004855E0,-5.7437498E-2,2.183925E-1,-1.134005E-1,3.5091605E-2,5.828494E-2,1.1513936E-2,-1.1301633E-1],"categories":[],"categories_nodes":[],"categories_segments":[],"categories_sizes":[],"default_left":[0,0,0,0,0,0,0,0,0,0,0,0,0,0,0,0,0,0,0,0,0,0,0,0,0,0,0],"id":30,"left_children":[1,3,5,7,-1,9,11,13,15,17,-1,-1,-1,-1,-1,19,-1,21,-1,23,-1,25,-1,-1,-1,-1,-1],"loss_changes":[1.3176105E2,6.652113E1,1.0235989E2,7.301741E1,0E0,8.9597275E1,3.83049E-1,9.49805E1,1.1536018E1,8.07997E1,0E0,0E0,0E0,0E0,0E0,8.56066E0,0E0,7.5805984E1,0E0,1.0074997E-1,0E0,7.4946594E1,0E0,0E0,0E0,0E0,0E0],"parents":[2147483647,0,0,1,1,2,2,3,3,5,5,6,6,7,7,8,8,9,9,15,15,17,17,19,19,21,21],"right_children":[2,4,6,8,-1,10,12,14,16,18,-1,-1,-1,-1,-1,20,-1,22,-1,24,-1,26,-1,-1,-1,-1,-1],"split_conditions":[1E0,1E0,1E0,1E0,6.54808E-2,1E0,1E0,1E0,1E0,1E0,-1.4834142E-1,-8.128251E-2,-1.3363813E-1,-9.057107E-2,5.9166074E-2,1E0,-8.6618714E-2,1E0,-7.9811744E-2,1E0,-5.7437498E-2,1E0,-1.134005E-1,3.5091605E-2,5.828494E-2,1.1513936E-2,-1.1301633E-1],"split_indices":[1057,11,1866,1386,0,26,13,424,1911,92,0,0,0,0,0,389,0,715,0,161,0,2026,0,0,0,0,0],"split_type":[0,0,0,0,0,0,0,0,0,0,0,0,0,0,0,0,0,0,0,0,0,0,0,0,0,0,0],"sum_hessian":[2.7221038E3,1.2956697E2,2.5925369E3,1.17725685E2,1.1841281E1,2.5686074E3,2.3929504E1,9.764338E1,2.0082308E1,2.560575E3,8.032441E0,2.0936102E1,2.9934042E0,8.628709E1,1.1356291E1,1.9068857E1,1.0134503E0,2.5364521E3,2.4122648E1,1.78529E1,1.2159562E0,2.5251235E3,1.1328752E1,8.050163E0,9.802737E0,2.5139753E3,1.1148173E1],"tree_param":{"num_deleted":"0","num_feature":"2048","num_nodes":"27","size_leaf_vector":"1"}},{"base_weights":[8.694931E-2,1.0257451E-1,-2.7106185E0,-7.4875635E-1,1.4792687E-1,-8.291806E-2,-1.5688156E-1,-1.1461813E0,9.0747267E-1,1.627338E-1,-1.04461305E-1,-8.655242E-2,5.951034E-1,1.0945429E0,-4.9231734E-2,-3.8219593E-2,3.2175803E-1,9.205223E-1,-9.1353685E-2,7.1647054E-1,6.797687E-2,-3.512371E-3,-1.2993583E-1,4.1112962E-1,-4.0838796E-1,2.64113E-2,6.4112976E-2,-5.855611E-2,5.7375398E-2,-5.2996483E-3,3.464127E-2,2.1277716E-2,-1.4232002E-1,1.0735962E-2,-7.897871E-2],"categories":[],"categories_nodes":[],"categories_segments":[],"categories_sizes":[],"default_left":[0,0,0,0,0,0,0,0,0,0,0,0,0,0,0,0,0,0,0,0,0,0,0,0,0,0,0,0,0,0,0,0,0,0,0],"id":31,"left_children":[1,3,5,7,9,-1,-1,11,13,15,-1,-1,17,19,-1,21,23,25,-1,27,-1,29,-1,31,33,-1,-1,-1,-1,-1,-1,-1,-1,-1,-1],"loss_changes":[1.1672665E2,1.0243189E2,1.4614487E0,8.937612E1,8.371407E1,0E0,0E0,1.117057E2,1.0467918E1,7.994513E1,0E0,0E0,2.3805794E1,1.4921207E0,0E0,9.826738E1,9.129108E1,2.9283924E0,0E0,1.1317125E1,0E0,7.800589E1,0E0,5.9695724E1,1.1183992E2,0E0,0E0,0E0,0E0,0E0,0E0,0E0,0E0,0E0,0E0],"parents":[2147483647,0,0,1,1,2,2,3,3,4,4,7,7,8,8,9,9,12,12,13,13,15,15,16,16,17,17,19,19,21,21,23,23,24,24],"right_children":[2,4,6,8,10,-1,-1,12,14,16,-1,-1,18,20,-1,22,24,26,-1,28,-1,30,-1,32,34,-1,-1,-1,-1,-1,-1,-1,-1,-1,-1],"split_conditions":[1E0,1E0,1E0,1E0,1E0,-8.291806E-2,-1.5688156E-1,1E0,1E0,1E0,-1.04461305E-1,-8.655242E-2,1E0,1E0,-4.9231734E-2,1E0,1E0,1E0,-9.1353685E-2,1E0,6.797687E-2,1E0,-1.2993583E-1,1E0,1E0,2.64113E-2,6.4112976E-2,-5.855611E-2,5.7375398E-2,-5.2996483E-3,3.464127E-2,2.1277716E-2,-1.4232002E-1,1.0735962E-2,-7.897871E-2],"split_indices":[1056,1057,80,875,1385,0,0,890,1602,1917,0,0,695,1849,0,1860,1143,11,0,19,0,675,0,139,1267,0,0,0,0,0,0,0,0,0,0],"split_type":[0,0,0,0,0,0,0,0,0,0,0,0,0,0,0,0,0,0,0,0,0,0,0,0,0,0,0,0,0,0,0,0,0,0,0],"sum_hessian":[2.6629622E3,2.6491294E3,1.3832797E1,1.3320297E2,2.5159265E3,5.4027677E0,8.43003E0,1.07673775E2,2.55292E1,2.5003052E3,1.5621377E1,8.060563E1,2.7068142E1,2.3615852E1,1.913347E0,1.1048739E3,1.3954312E3,2.4408789E1,2.6593533E0,1.1257828E1,1.2358026E1,1.0910858E3,1.3788163E1,1.2436432E3,1.5178795E2,1.2890054E1,1.1518735E1,1.7736596E0,9.484168E0,9.518491E2,1.3923663E2,1.239026E3,4.6171823E0,9.960936E1,5.2178593E1],"tree_param":{"num_deleted":"0","num_feature":"2048","num_nodes":"35","size_leaf_vector":"1"}},{"base_weights":[8.142687E-2,9.444182E-2,-1.1614174E-1,1.0924259E-1,-1.9025531E0,1.2092888E-1,-1.1401911E-1,-3.2702813E0,3.0410413E-2,1.3790065E-1,-7.626472E-2,-1.70746E-1,-4.6340313E-2,1.4656603E-1,-1.4260669E-1,5.1639E-4,1.7781334E-2],"categories":[],"categories_nodes":[],"categories_segments":[],"categories_sizes":[],"default_left":[0,0,0,0,0,0,0,0,0,0,0,0,0,0,0,0,0],"id":32,"left_children":[1,3,-1,5,7,9,-1,11,-1,13,-1,-1,-1,15,-1,-1,-1],"loss_changes":[8.174903E1,7.6832504E1,0E0,7.2165474E1,6.767123E1,7.1811195E1,0E0,1.085083E0,0E0,6.616388E1,0E0,0E0,0E0,7.2087585E1,0E0,0E0,0E0],"parents":[2147483647,0,0,1,1,3,3,4,4,5,5,7,7,9,9,13,13],"right_children":[2,4,-1,6,8,10,-1,12,-1,14,-1,-1,-1,16,-1,-1,-1],"split_conditions":[1E0,1E0,-1.1614174E-1,1E0,1E0,1E0,-1.1401911E-1,1E0,3.0410413E-2,1E0,-7.626472E-2,-1.70746E-1,-4.6340313E-2,1E0,-1.4260669E-1,5.1639E-4,1.7781334E-2],"split_indices":[206,1609,0,1599,701,92,0,1004,0,959,0,0,0,694,0,0,0],"split_type":[0,0,0,0,0,0,0,0,0,0,0,0,0,0,0,0,0],"sum_hessian":[2.6045E3,2.5914326E3,1.30674515E1,2.573306E3,1.8126806E1,2.5617273E3,1.1578558E1,1.1538658E1,6.588148E0,2.5364934E3,2.5233799E1,1.043727E1,1.1013887E0,2.530112E3,6.381496E0,1.5324875E3,9.976244E2],"tree_param":{"num_deleted":"0","num_feature":"2048","num_nodes":"17","size_leaf_vector":"1"}},{"base_weights":[1.16307355E-1,-8.708351E-2,3.0520612E-1,-6.247927E-2,-2.4663148E0,-7.248046E-2,4.5198292E-1,-1.03742585E-1,1.1357522E0,-6.2599555E-2,-1.4187193E-1,1.6988347E-1,-1.1929247E0,4.6901783E-1,-1.4190586E-1,-7.57871E-2,-9.351326E-2,6.1890095E-2,-7.209241E-2,2.094574E-1,-1.0938927E-1,-1.4603939E0,4.6092328E-2,4.9102548E-1,-8.612609E-2,-1.3366906E-1,7.1831983E-1,7.066866E-2,7.885316E-1,-1.7596699E0,4.972076E-2,5.5693895E-1,-2.0549808E-1,-8.832473E-3,5.316297E-2,4.1565455E-2,-1.20574914E-1,-7.663969E-2,8.260346E-3,4.2966407E-2,-8.513203E-2,-1.010047E-1,4.5285415E-2,2.8503135E-2,-1.2231641E-1,-1.10847436E-1,2.198926E-3],"categories":[],"categories_nodes":[],"categories_segments":[],"categories_sizes":[],"default_left":[0,0,0,0,0,0,0,0,0,0,0,0,0,0,0,0,0,0,0,0,0,0,0,0,0,0,0,0,0,0,0,0,0,0,0,0,0,0,0,0,0,0,0,0,0,0,0],"id":33,"left_children":[1,3,5,7,9,11,13,15,17,-1,-1,19,21,23,-1,25,-1,-1,-1,27,-1,29,-1,31,-1,33,35,37,39,41,-1,43,45,-1,-1,-1,-1,-1,-1,-1,-1,-1,-1,-1,-1,-1,-1],"loss_changes":[1.03648964E2,7.591743E1,7.756377E1,6.376197E1,2.4300919E0,1.06725365E2,5.7787354E1,6.135549E1,1.3078728E1,0E0,0E0,3.063056E1,4.087651E1,4.9220078E1,0E0,5.6491158E1,0E0,0E0,0E0,2.5578505E1,0E0,4.7612625E1,0E0,4.573938E1,0E0,5.906178E1,3.15373E1,3.9422092E1,1.2321552E1,4.0703705E1,0E0,3.718814E1,4.357641E1,0E0,0E0,0E0,0E0,0E0,0E0,0E0,0E0,0E0,0E0,0E0,0E0,0E0,0E0],"parents":[2147483647,0,0,1,1,2,2,3,3,4,4,5,5,6,6,7,7,8,8,11,11,12,12,13,13,15,15,19,19,21,21,23,23,25,25,26,26,27,27,28,28,29,29,31,31,32,32],"right_children":[2,4,6,8,10,12,14,16,18,-1,-1,20,22,24,-1,26,-1,-1,-1,28,-1,30,-1,32,-1,34,36,38,40,42,-1,44,46,-1,-1,-1,-1,-1,-1,-1,-1,-1,-1,-1,-1,-1,-1],"split_conditions":[1E0,1E0,1E0,1E0,1E0,1E0,1E0,1E0,1E0,-6.2599555E-2,-1.4187193E-1,1E0,1E0,1E0,-1.4190586E-1,1E0,-9.351326E-2,6.1890095E-2,-7.209241E-2,1E0,-1.0938927E-1,1E0,4.6092328E-2,1E0,-8.612609E-2,1E0,1E0,1E0,1E0,1E0,4.972076E-2,1E0,1E0,-8.832473E-3,5.316297E-2,4.1565455E-2,-1.20574914E-1,-7.663969E-2,8.260346E-3,4.2966407E-2,-8.513203E-2,-1.010047E-1,4.5285415E-2,2.8503135E-2,-1.2231641E-1,-1.10847436E-1,2.198926E-3],"split_indices":[695,1308,294,746,1057,841,1232,1602,1380,0,0,913,11,1452,0,1349,0,0,0,1978,0,950,0,1249,0,619,294,1057,7,321,0,890,1734,0,0,0,0,0,0,0,0,0,0,0,0,0,0],"split_type":[0,0,0,0,0,0,0,0,0,0,0,0,0,0,0,0,0,0,0,0,0,0,0,0,0,0,0,0,0,0,0,0,0,0,0,0,0,0,0,0,0,0,0,0,0,0,0],"sum_hessian":[2.696075E3,1.2984973E3,1.3975775E3,1.2862224E3,1.22749E1,3.9126892E2,1.0063086E3,1.2442866E3,4.193589E1,3.897085E0,8.377815E0,3.2238257E2,6.8886375E1,1.0019782E3,4.330428E0,1.225929E3,1.8357613E1,4.0838825E1,1.0970631E0,3.1795676E2,4.4258065E0,6.1426758E1,7.4596176E0,9.927845E2,9.193689E0,1.1434176E3,8.251134E1,2.5738937E2,6.056738E1,5.5004147E1,6.422612E0,9.071403E2,8.564418E1,1.1046049E3,3.8812748E1,8.034519E1,2.1661432E0,1.3483438E1,2.4390593E2,5.953063E1,1.0367491E0,5.0328808E1,4.675339E0,9.040002E2,3.1401396E0,8.579996E0,7.7064186E1],"tree_param":{"num_deleted":"0","num_feature":"2048","num_nodes":"47","size_leaf_vector":"1"}},{"base_weights":[7.231385E-2,1.835896E-1,-2.4482709E-1,-6.572289E-2,3.9180893E-1,-3.9269662E-1,6.761126E-1,7.128706E-2,-8.3071744E-1,4.0565735E-1,-1.758254E-1,-4.8497584E-1,1.0816606E0,8.9145184E-1,-9.531571E-2,1.0398563E-1,-1.0044247E-1,-1.4816567E0,3.5790887E-1,4.2342418E-1,-1.0552764E-1,-3.7706116E-1,-1.2322878E-1,6.765399E-2,8.6783546E-1,9.960206E-1,-8.892803E-2,1.3498154E-1,-1.0353201E-1,-2.0174816E0,4.6303373E-2,6.6265357E-1,-1.0629427E-1,4.3243396E-1,-2.162292E-1,-4.5952064E-1,1.2130979E0,5.868618E-1,5.6636747E-2,1.0753053E0,-8.243813E-2,7.998408E-3,-1.2060978E-1,-1.2737887E-1,4.9836762E-2,4.0979844E-2,-9.555688E-2,2.6400233E-2,-1.5556811E-3,-2.7728016E-2,4.35088E-2,-6.711376E-2,7.065024E-2,-1.0339031E-1,5.4975063E-2,4.2569008E-2,7.424751E-2],"categories":[],"categories_nodes":[],"categories_segments":[],"categories_sizes":[],"default_left":[0,0,0,0,0,0,0,0,0,0,0,0,0,0,0,0,0,0,0,0,0,0,0,0,0,0,0,0,0,0,0,0,0,0,0,0,0,0,0,0,0,0,0,0,0,0,0,0,0,0,0,0,0,0,0,0,0],"id":34,"left_children":[1,3,5,7,9,11,13,15,17,19,-1,21,23,25,-1,27,-1,29,31,33,-1,35,-1,-1,37,39,-1,41,-1,43,-1,45,-1,47,-1,49,51,53,-1,55,-1,-1,-1,-1,-1,-1,-1,-1,-1,-1,-1,-1,-1,-1,-1,-1,-1],"loss_changes":[9.069885E1,9.877078E1,9.118491E1,9.088095E1,5.7534225E1,7.887866E1,5.3269775E1,5.0257664E1,1.0242915E2,4.711377E1,0E0,1.150019E2,8.1246185E-1,2.5860802E1,0E0,4.9173748E1,0E0,1.1190436E2,3.7292847E1,4.5823807E1,0E0,6.819169E1,0E0,0E0,9.679413E-1,1.9317558E1,0E0,4.596421E1,0E0,1.1451489E2,0E0,1.8931425E1,0E0,4.548912E1,0E0,6.2544968E1,1.5027042E1,1.9584282E1,0E0,6.2428284E0,0E0,0E0,0E0,0E0,0E0,0E0,0E0,0E0,0E0,0E0,0E0,0E0,0E0,0E0,0E0,0E0,0E0],"parents":[2147483647,0,0,1,1,2,2,3,3,4,4,5,5,6,6,7,7,8,8,9,9,11,11,12,12,13,13,15,15,17,17,18,18,19,19,21,21,24,24,25,25,27,27,29,29,31,31,33,33,35,35,36,36,37,37,39,39],"right_children":[2,4,6,8,10,12,14,16,18,20,-1,22,24,26,-1,28,-1,30,32,34,-1,36,-1,-1,38,40,-1,42,-1,44,-1,46,-1,48,-1,50,52,54,-1,56,-1,-1,-1,-1,-1,-1,-1,-1,-1,-1,-1,-1,-1,-1,-1,-1,-1],"split_conditions":[1E0,1E0,1E0,1E0,1E0,1E0,1E0,1E0,1E0,1E0,-1.758254E-1,1E0,1E0,1E0,-9.531571E-2,1E0,-1.0044247E-1,1E0,1E0,1E0,-1.0552764E-1,1E0,-1.2322878E-1,6.765399E-2,1E0,1E0,-8.892803E-2,1E0,-1.0353201E-1,1E0,4.6303373E-2,1E0,-1.0629427E-1,1E0,-2.162292E-1,1E0,1E0,1E0,5.6636747E-2,1E0,-8.243813E-2,7.998408E-3,-1.2060978E-1,-1.2737887E-1,4.9836762E-2,4.0979844E-2,-9.555688E-2,2.6400233E-2,-1.5556811E-3,-2.7728016E-2,4.35088E-2,-6.711376E-2,7.065024E-2,-1.0339031E-1,5.4975063E-2,4.2569008E-2,7.424751E-2],"split_indices":[1873,695,1979,591,99,19,918,1171,1283,119,0,1274,650,84,0,1070,0,1459,283,1877,0,1912,0,0,41,1147,0,446,0,191,0,189,0,1143,0,166,807,756,0,1063,0,0,0,0,0,0,0,0,0,0,0,0,0,0,0,0,0],"split_type":[0,0,0,0,0,0,0,0,0,0,0,0,0,0,0,0,0,0,0,0,0,0,0,0,0,0,0,0,0,0,0,0,0,0,0,0,0,0,0,0,0,0,0,0,0,0,0,0,0,0,0,0,0,0,0,0,0],"sum_hessian":[2.5678203E3,1.9011737E3,6.6664667E2,8.655215E2,1.0356522E3,5.7491046E2,9.173618E1,7.348222E2,1.306993E2,1.0328885E3,2.7636464E0,5.416782E2,3.3232285E1,8.527981E1,6.456375E0,7.243853E2,1.0436918E1,8.429141E1,4.640788E1,1.0264724E3,6.416154E0,5.1480493E2,2.6873283E1,1.2296168E1,2.0936115E1,8.2669106E1,2.6107051E0,7.151301E2,9.255141E0,6.908012E1,1.5211294E1,4.198929E1,4.418592E0,1.0254354E3,1.0369327E0,4.901012E2,2.4703724E1,1.1720171E1,9.215944E0,8.083916E1,1.8299518E0,7.091113E2,6.0188513E0,5.8879993E1,1.0200128E1,4.021843E1,1.7708584E0,8.500414E2,1.7539407E2,4.5795215E2,3.2149055E1,1.3777455E0,2.3325977E1,1.4059436E0,1.0314228E1,5.42582E1,2.6580954E1],"tree_param":{"num_deleted":"0","num_feature":"2048","num_nodes":"57","size_leaf_vector":"1"}},{"base_weights":[8.711295E-2,-1.2029992E-1,2.5308585E-1,-1.9294298E-1,8.159972E-1,1.6964403E-1,8.730435E-1,-2.8234407E-1,7.823406E-1,9.042101E-1,-9.504609E-2,2.0687933E-1,-1.2153652E0,9.2833024E-1,-9.056718E-2,-4.004375E-1,5.9973204E-1,8.709581E-1,-8.086218E-2,9.746943E-1,-8.454946E-2,2.2718114E-1,-1.2141352E-1,-1.18976705E-1,5.6982357E-2,9.5623976E-1,-7.804257E-2,-4.6581158E-1,9.9765015E-1,8.123933E-1,-8.716994E-2,9.508982E-1,-8.274538E-2,7.9142064E-1,6.549224E-2,2.3930652E-1,-1.5259807E-1,9.787896E-1,1.1862817E-2,-2.5987923E-2,6.3555464E-2,-6.968105E-2,5.5331536E-2,4.450563E-2,-7.374194E-2,5.0780393E-2,-7.215657E-2,4.4918966E-2,-8.8077E-2,1.2516446E-2,-1.6628912E-1,4.971817E-2,1.8247804E-2],"categories":[],"categories_nodes":[],"categories_segments":[],"categories_sizes":[],"default_left":[0,0,0,0,0,0,0,0,0,0,0,0,0,0,0,0,0,0,0,0,0,0,0,0,0,0,0,0,0,0,0,0,0,0,0,0,0,0,0,0,0,0,0,0,0,0,0,0,0,0,0,0,0],"id":35,"left_children":[1,3,5,7,9,11,13,15,17,19,-1,21,23,25,-1,27,29,31,-1,33,-1,35,-1,-1,-1,37,-1,39,41,43,-1,45,-1,47,-1,49,-1,51,-1,-1,-1,-1,-1,-1,-1,-1,-1,-1,-1,-1,-1,-1,-1],"loss_changes":[9.0571335E1,7.972038E1,7.54466E1,9.494237E1,2.1950226E1,6.673761E1,2.7372986E1,1.0397796E2,2.0862732E1,1.6727715E1,0E0,6.776222E1,9.564724E1,1.3322098E1,0E0,8.079401E1,6.0208366E1,1.9519753E1,0E0,3.9320984E0,0E0,5.0336914E1,0E0,0E0,0E0,2.5079193E0,0E0,7.939894E1,1.1856586E1,2.0662453E1,0E0,1.49103775E1,0E0,1.6552208E1,0E0,4.971466E1,0E0,1.2006073E0,0E0,0E0,0E0,0E0,0E0,0E0,0E0,0E0,0E0,0E0,0E0,0E0,0E0,0E0,0E0],