{"learner":{"attributes":{"scikit_learn":"{\"_estimator_type\": \"classifier\"}"},"feature_names":[],"feature_types":[],"gradient_booster":{"model":{"cats":{"enc":[],"feature_segments":[],"sorted_idx":[]},"gbtree_model_param":{"num_parallel_tree":"1","num_trees":"300"},"iteration_indptr":[0,1,2,3,4,5,6,7,8,9,10,11,12,13,14,15,16,17,18,19,20,21,22,23,24,25,26,27,28,29,30,31,32,33,34,35,36,37,38,39,40,41,42,43,44,45,46,47,48,49,50,51,52,53,54,55,56,57,58,59,60,61,62,63,64,65,66,67,68,69,70,71,72,73,74,75,76,77,78,79,80,81,82,83,84,85,86,87,88,89,90,91,92,93,94,95,96,97,98,99,100,101,102,103,104,105,106,107,108,109,110,111,112,113,114,115,116,117,118,119,120,121,122,123,124,125,126,127,128,129,130,131,132,133,134,135,136,137,138,139,140,141,142,143,144,145,146,147,148,149,150,151,152,153,154,155,156,157,158,159,160,161,162,163,164,165,166,167,168,169,170,171,172,173,174,175,176,177,178,179,180,181,182,183,184,185,186,187,188,189,190,191,192,193,194,195,196,197,198,199,200,201,202,203,204,205,206,207,208,209,210,211,212,213,214,215,216,217,218,219,220,221,222,223,224,225,226,227,228,229,230,231,232,233,234,235,236,237,238,239,240,241,242,243,244,245,246,247,248,249,250,251,252,253,254,255,256,257,258,259,260,261,262,263,264,265,266,267,268,269,270,271,272,273,274,275,276,277,278,279,280,281,282,283,284,285,286,287,288,289,290,291,292,293,294,295,296,297,298,299,300],"tree_info":[0,0,0,0,0,0,0,0,0,0,0,0,0,0,0,0,0,0,0,0,0,0,0,0,0,0,0,0,0,0,0,0,0,0,0,0,0,0,0,0,0,0,0,0,0,0,0,0,0,0,0,0,0,0,0,0,0,0,0,0,0,0,0,0,0,0,0,0,0,0,0,0,0,0,0,0,0,0,0,0,0,0,0,0,0,0,0,0,0,0,0,0,0,0,0,0,0,0,0,0,0,0,0,0,0,0,0,0,0,0,0,0,0,0,0,0,0,0,0,0,0,0,0,0,0,0,0,0,0,0,0,0,0,0,0,0,0,0,0,0,0,0,0,0,0,0,0,0,0,0,0,0,0,0,0,0,0,0,0,0,0,0,0,0,0,0,0,0,0,0,0,0,0,0,0,0,0,0,0,0,0,0,0,0,0,0,0,0,0,0,0,0,0,0,0,0,0,0,0,0,0,0,0,0,0,0,0,0,0,0,0,0,0,0,0,0,0,0,0,0,0,0,0,0,0,0,0,0,0,0,0,0,0,0,0,0,0,0,0,0,0,0,0,0,0,0,0,0,0,0,0,0,0,0,0,0,0,0,0,0,0,0,0,0,0,0,0,0,0,0,0,0,0,0,0,0,0,0,0,0,0,0,0,0,0,0,0,0,0,0,0,0,0,0,0,0,0,0,0,0],"trees":[{"base_weights":[-1.9567892E-2,-7.5062364E-1,1.3400723E0,-9.686621E-1,6.895719E-1,1.5446428E0,-6.711748E-1,-1.071001E0,1.0689556E-1,9.455926E-1,-8.263033E-2,1.6162584E0,-8.144429E-2,-8.667749E-2,1.06546246E-1,-1.1759822E0,1.4838549E0,1.1336766E0,-7.921247E-2,1.6771894E0,-7.9942696E-2,-1.434449E0,-2.5317743E-1,-7.6085016E-2,1.0689556E-1,1.3287023E0,-7.835361E-2,1.7243423E0,-7.732887E-2,-7.572053E-2,1.06546246E-1,-3.2295685E-2,6.9775276E-2,7.25633E-2,-7.1804754E-2,8.845821E-2,-7.652817E-2],"categories":[],"categories_nodes":[],"categories_segments":[],"categories_sizes":[],"default_left":[0,0,0,0,0,0,0,0,0,0,0,0,0,0,0,0,0,0,0,0,0,0,0,0,0,0,0,0,0,0,0,0,0,0,0,0,0],"id":0,"left_children":[1,3,5,7,9,11,13,15,-1,17,-1,19,-1,-1,-1,21,23,25,-1,27,-1,29,31,-1,-1,33,-1,35,-1,-1,-1,-1,-1,-1,-1,-1,-1],"loss_changes":[1.6072462E3,3.308766E2,2.3367432E2,2.927787E2,8.4824745E1,1.19342896E2,1.61166E2,2.391753E2,0E0,6.165737E1,0E0,1.01158936E2,0E0,0E0,0E0,2.025774E2,7.2806244E1,6.4067535E1,0E0,7.773401E1,0E0,1.9266235E2,1.222321E2,0E0,0E0,3.9460175E1,0E0,7.378357E1,0E0,0E0,0E0,0E0,0E0,0E0,0E0,0E0,0E0],"parents":[2147483647,0,0,1,1,2,2,3,3,4,4,5,5,6,6,7,7,9,9,11,11,15,15,16,16,17,17,19,19,21,21,22,22,25,25,27,27],"right_children":[2,4,6,8,10,12,14,16,-1,18,-1,20,-1,-1,-1,22,24,26,-1,28,-1,30,32,-1,-1,34,-1,36,-1,-1,-1,-1,-1,-1,-1,-1,-1],"split_conditions":[1E0,1E0,1E0,1E0,1E0,1E0,1E0,1E0,1.0689556E-1,1E0,-8.263033E-2,1E0,-8.144429E-2,-8.667749E-2,1.06546246E-1,1E0,1E0,1E0,-7.921247E-2,1E0,-7.9942696E-2,1E0,1E0,-7.6085016E-2,1.0689556E-1,1E0,-7.835361E-2,1E0,-7.732887E-2,-7.572053E-2,1.06546246E-1,-3.2295685E-2,6.9775276E-2,7.25633E-2,-7.1804754E-2,8.845821E-2,-7.652817E-2],"split_indices":[1325,1060,1873,100,1309,1444,172,295,0,695,0,1096,0,0,0,1722,1152,31,0,519,0,682,1366,0,0,171,0,970,0,0,0,0,0,0,0,0,0],"split_type":[0,0,0,0,0,0,0,0,0,0,0,0,0,0,0,0,0,0,0,0,0,0,0,0,0,0,0,0,0,0,0,0,0,0,0,0,0],"sum_hessian":[1.6149802E3,1.0505597E3,5.644205E2,9.1270776E2,1.3785199E2,5.1252216E2,5.1898296E1,8.8423395E2,2.8473806E1,1.24805885E2,1.3046104E1,5.0169144E2,1.0830728E1,3.7907547E1,1.399075E1,8.498525E2,3.4381477E1,1.1668284E2,8.123046E0,4.9282993E2,8.861505E0,6.634684E2,1.8638408E2,5.90767E0,2.8473806E1,1.0929825E2,7.3845873E0,4.861838E2,6.6461287E0,6.494776E2,1.399075E1,1.5101799E2,3.536609E1,1.05113655E2,4.1845994E0,4.8002997E2,6.153823E0],"tree_param":{"num_deleted":"0","num_feature":"2048","num_nodes":"37","size_leaf_vector":"1"}},{"base_weights":[-1.11556806E-1,-9.155384E-1,8.3746904E-1,-2.7950502E-3,-1.2605932E0,4.583159E-1,1.761006E0,-3.1082734E-1,9.7868875E-2,-1.4246697E0,9.6707237E-1,-2.604104E-1,1.0325149E0,1.877085E0,-7.557766E-2,5.643858E-1,-8.541538E-2,-1.5200676E0,9.90242E-2,-7.764029E-2,1.6998339E0,-6.0250336E-1,9.5589064E-2,1.2642834E0,-8.3538435E-2,-6.458824E-2,1.9273281E0,6.9974355E-2,1.05640985E-1,-1.6176654E0,9.098761E-2,1.0157297E-1,-6.427343E-2,-1.0344709E0,1.1690363E0,1.4008844E0,-7.982133E-2,1.9554625E0,-5.320545E-2,-1.6329126E-2,1.1117607E-1,-8.620316E-2,6.428497E-2,-8.707201E-2,2.5541276E-2,8.6393915E-2,-7.6577805E-2,7.380997E-2,-7.660393E-2,9.920002E-2,-5.3141862E-2],"categories":[],"categories_nodes":[],"categories_segments":[],"categories_sizes":[],"default_left":[0,0,0,0,0,0,0,0,0,0,0,0,0,0,0,0,0,0,0,0,0,0,0,0,0,0,0,0,0,0,0,0,0,0,0,0,0,0,0,0,0,0,0,0,0,0,0,0,0,0,0],"id":1,"left_children":[1,3,5,7,9,11,13,15,-1,17,19,21,23,25,-1,27,-1,29,-1,-1,31,33,-1,35,-1,-1,37,39,-1,41,-1,-1,-1,43,45,47,-1,49,-1,-1,-1,-1,-1,-1,-1,-1,-1,-1,-1,-1,-1],"loss_changes":[1.1760979E3,2.627907E2,2.4675739E2,1.3942589E2,2.2269324E2,2.0767818E2,8.087262E1,2.4503015E2,0E0,1.8634204E2,8.0438385E1,1.6760219E2,1.7727905E2,3.41463E1,0E0,9.436397E1,0E0,1.8207568E2,0E0,0E0,3.5399483E1,1.4988202E2,0E0,1.0308444E2,0E0,0E0,1.8587708E1,8.152327E1,0E0,1.6732324E2,0E0,0E0,0E0,1.7210802E2,6.083447E1,5.678827E1,0E0,1.8875427E1,0E0,0E0,0E0,0E0,0E0,0E0,0E0,0E0,0E0,0E0,0E0,0E0,0E0],"parents":[2147483647,0,0,1,1,2,2,3,3,4,4,5,5,6,6,7,7,9,9,10,10,11,11,12,12,13,13,15,15,17,17,20,20,21,21,23,23,26,26,27,27,29,29,33,33,34,34,35,35,37,37],"right_children":[2,4,6,8,10,12,14,16,-1,18,20,22,24,26,-1,28,-1,30,-1,-1,32,34,-1,36,-1,-1,38,40,-1,42,-1,-1,-1,44,46,48,-1,50,-1,-1,-1,-1,-1,-1,-1,-1,-1,-1,-1,-1,-1],"split_conditions":[1E0,1E0,1E0,1E0,1E0,1E0,1E0,1E0,9.7868875E-2,1E0,1E0,1E0,1E0,1E0,-7.557766E-2,1E0,-8.541538E-2,1E0,9.90242E-2,-7.764029E-2,1E0,1E0,9.5589064E-2,1E0,-8.3538435E-2,-6.458824E-2,1E0,1E0,1.05640985E-1,1E0,9.098761E-2,1.0157297E-1,-6.427343E-2,1E0,1E0,1E0,-7.982133E-2,1E0,-5.320545E-2,-1.6329126E-2,1.1117607E-1,-8.620316E-2,6.428497E-2,-8.707201E-2,2.5541276E-2,8.6393915E-2,-7.6577805E-2,7.380997E-2,-7.660393E-2,9.920002E-2,-5.3141862E-2],"split_indices":[926,80,253,1257,115,1274,1738,650,0,625,294,1928,1309,1325,0,1920,0,475,0,0,147,1022,0,1232,0,0,682,1031,0,1346,0,0,0,1911,1325,294,0,265,0,0,0,0,0,0,0,0,0,0,0,0,0],"split_type":[0,0,0,0,0,0,0,0,0,0,0,0,0,0,0,0,0,0,0,0,0,0,0,0,0,0,0,0,0,0,0,0,0,0,0,0,0,0,0,0,0,0,0,0,0,0,0,0,0,0,0],"sum_hessian":[1.5394093E3,8.334093E2,7.06E2,2.2890775E2,6.045016E2,5.0157666E2,2.0442334E2,1.9854822E2,3.035953E1,5.6336774E2,4.1133846E1,2.229971E2,2.7857956E2,1.9783255E2,6.590786E0,1.2245396E2,7.609425E1,5.485532E2,1.4814502E1,9.014604E0,3.2119244E1,1.9328047E2,2.9716623E1,2.570716E2,2.1507961E1,2.702065E0,1.951305E2,9.3609764E1,2.8844193E1,5.3347925E2,1.5073948E1,2.9195541E1,2.923703E0,1.5572496E2,3.7555504E1,2.4584274E2,1.1228859E1,1.9365547E2,1.4750124E0,7.9769295E1,1.38404665E1,5.1501215E2,1.8467134E1,1.0675698E2,4.8967983E1,3.1414906E1,6.140599E0,2.4017209E2,5.6706448E0,1.9218109E2,1.4743817E0],"tree_param":{"num_deleted":"0","num_feature":"2048","num_nodes":"51","size_leaf_vector":"1"}},{"base_weights":[1.4711015E-2,-7.7676105E-1,9.090345E-1,-8.774773E-1,1.0084271E-1,4.6036667E-1,1.881402E0,-9.872312E-1,1.9641037E0,7.76765E-2,1.6009071E0,1.9040388E0,-5.3082705E-2,-1.2309621E-1,-1.2969058E0,1.069484E-1,-4.9075894E-2,-1.5073094E-1,1.6722275E0,1.697185E0,-6.899369E-2,1.926541E0,-5.1846124E-2,-4.2040098E-1,1.2618905E0,-1.3833368E0,1.8103373E0,-3.5165116E-1,1.00844614E-1,1.8146237E0,-5.8474686E-2,1.7891905E0,-7.079246E-2,9.730136E-2,-4.9773335E-2,-3.2742675E-2,1.03426956E-1,8.004005E-2,-6.778683E-2,-7.350477E-2,9.537339E-2,-4.9127694E-2,1.07224576E-1,-3.3814814E-2,5.7184286E-2,-5.6221455E-2,9.822569E-2,9.1674216E-2,-5.5883545E-2],"categories":[],"categories_nodes":[],"categories_segments":[],"categories_sizes":[],"default_left":[0,0,0,0,0,0,0,0,0,0,0,0,0,0,0,0,0,0,0,0,0,0,0,0,0,0,0,0,0,0,0,0,0,0,0,0,0,0,0,0,0,0,0,0,0,0,0,0,0],"id":2,"left_children":[1,3,5,7,-1,9,11,13,15,17,19,21,-1,23,25,-1,-1,27,29,31,-1,33,-1,35,37,39,41,43,-1,45,-1,47,-1,-1,-1,-1,-1,-1,-1,-1,-1,-1,-1,-1,-1,-1,-1,-1,-1],"loss_changes":[1.1496106E3,2.4419702E2,3.3179517E2,2.6152277E2,0E0,2.281889E2,1.8039001E1,2.1446838E2,1.8214996E1,1.4328322E2,4.0042084E1,1.7810791E1,0E0,8.811286E1,1.6104889E2,0E0,0E0,1.5071544E2,2.2066772E1,3.9110046E1,0E0,1.545929E1,0E0,1.03976295E2,3.5739407E1,1.6695117E2,1.7421627E1,1.5420827E2,0E0,2.3058731E1,0E0,1.8076874E1,0E0,0E0,0E0,0E0,0E0,0E0,0E0,0E0,0E0,0E0,0E0,0E0,0E0,0E0,0E0,0E0,0E0],"parents":[2147483647,0,0,1,1,2,2,3,3,5,5,6,6,7,7,8,8,9,9,10,10,11,11,13,13,14,14,17,17,18,18,19,19,21,21,23,23,24,24,25,25,26,26,27,27,29,29,31,31],"right_children":[2,4,6,8,-1,10,12,14,16,18,20,22,-1,24,26,-1,-1,28,30,32,-1,34,-1,36,38,40,42,44,-1,46,-1,48,-1,-1,-1,-1,-1,-1,-1,-1,-1,-1,-1,-1,-1,-1,-1,-1,-1],"split_conditions":[1E0,1E0,1E0,1E0,1.0084271E-1,1E0,1E0,1E0,1E0,1E0,1E0,1E0,-5.3082705E-2,1E0,1E0,1.069484E-1,-4.9075894E-2,1E0,1E0,1E0,-6.899369E-2,1E0,-5.1846124E-2,1E0,1E0,1E0,1E0,1E0,1.00844614E-1,1E0,-5.8474686E-2,1E0,-7.079246E-2,9.730136E-2,-4.9773335E-2,-3.2742675E-2,1.03426956E-1,8.004005E-2,-6.778683E-2,-7.350477E-2,9.537339E-2,-4.9127694E-2,1.07224576E-1,-3.3814814E-2,5.7184286E-2,-5.6221455E-2,9.822569E-2,9.1674216E-2,-5.5883545E-2],"split_indices":[926,100,1818,197,0,528,2026,80,1564,370,519,682,0,392,1745,0,0,1913,473,1649,0,656,0,1784,1339,354,708,1070,0,1325,0,1145,0,0,0,0,0,0,0,0,0,0,0,0,0,0,0,0,0],"split_type":[0,0,0,0,0,0,0,0,0,0,0,0,0,0,0,0,0,0,0,0,0,0,0,0,0,0,0,0,0,0,0,0,0,0,0,0,0,0,0,0,0,0,0,0,0,0,0,0,0],"sum_hessian":[1.6221316E3,8.6061914E2,7.6151245E2,8.3133356E2,2.9285582E1,5.2208606E2,2.394264E2,8.010463E2,3.028723E1,3.9171906E2,1.3036699E2,2.3794923E2,1.4771708E0,2.1170079E2,5.893455E2,2.884851E1,1.4387189E0,3.4343066E2,4.828839E1,1.2670509E2,3.6618981E0,2.3648476E2,1.464481E0,1.7486111E2,3.6839672E1,5.739357E2,1.5409798E1,3.1506464E2,2.8366037E1,4.632835E1,1.9600401E0,1.2348088E2,3.224211E0,2.3524994E2,1.2348142E0,1.6048106E2,1.4380058E1,3.2960632E1,3.879039E0,5.597323E2,1.42034645E1,1.4393295E0,1.39704685E1,2.59314E2,5.575064E1,1.9325763E0,4.4395775E1,1.2199128E2,1.4896057E0],"tree_param":{"num_deleted":"0","num_feature":"2048","num_nodes":"49","size_leaf_vector":"1"}},{"base_weights":[-5.7830293E-2,-8.399319E-1,8.224843E-1,-9.441687E-1,9.6671276E-2,3.049333E-1,1.5241481E0,-1.0585977E0,1.6875745E0,7.187508E-1,-1.1029602E0,1.6170728E0,-7.705486E-2,-1.409882E0,-3.6020035E-1,1.8838706E0,-5.2805703E-2,1.0371399E0,-8.3911225E-2,-8.2953736E-2,1.0024359E-1,1.6700816E0,-7.365564E-2,-1.5153887E0,1.066978E-1,-6.5724254E-1,1.7252929E0,1.0259046E-1,-4.8949886E-2,1.2432356E0,-2.9966614E-1,1.7037044E0,-6.475363E-2,-8.1497386E-2,7.764403E-2,-5.1176686E-2,4.9525265E-2,9.701326E-2,-5.523348E-2,6.68054E-2,-7.75316E-2,-8.285985E-2,1.0024359E-1,8.6588986E-2,-6.0394198E-2],"categories":[],"categories_nodes":[],"categories_segments":[],"categories_sizes":[],"default_left":[0,0,0,0,0,0,0,0,0,0,0,0,0,0,0,0,0,0,0,0,0,0,0,0,0,0,0,0,0,0,0,0,0,0,0,0,0,0,0,0,0,0,0,0,0],"id":3,"left_children":[1,3,5,7,-1,9,11,13,15,17,19,21,-1,23,25,27,-1,29,-1,-1,-1,31,-1,33,-1,35,37,-1,-1,39,41,43,-1,-1,-1,-1,-1,-1,-1,-1,-1,-1,-1,-1,-1],"loss_changes":[1.0758214E3,2.4101636E2,2.6650632E2,2.4213422E2,0E0,2.4801688E2,9.131061E1,1.872879E2,2.0107994E1,2.5248157E2,1.706037E2,5.2115845E1,0E0,1.9353064E2,1.6065709E2,1.727581E1,0E0,8.04483E1,0E0,0E0,0E0,3.1964905E1,0E0,1.7645996E2,0E0,1.3749612E2,2.1842789E1,0E0,0E0,6.746326E1,1.27301834E2,2.625354E1,0E0,0E0,0E0,0E0,0E0,0E0,0E0,0E0,0E0,0E0,0E0,0E0,0E0],"parents":[2147483647,0,0,1,1,2,2,3,3,5,5,6,6,7,7,8,8,9,9,10,10,11,11,13,13,14,14,15,15,17,17,21,21,23,23,25,25,26,26,29,29,30,30,31,31],"right_children":[2,4,6,8,-1,10,12,14,16,18,20,22,-1,24,26,28,-1,30,-1,-1,-1,32,-1,34,-1,36,38,-1,-1,40,42,44,-1,-1,-1,-1,-1,-1,-1,-1,-1,-1,-1,-1,-1],"split_conditions":[1E0,1E0,1E0,1E0,9.6671276E-2,1E0,1E0,1E0,1E0,1E0,1E0,1E0,-7.705486E-2,1E0,1E0,1E0,-5.2805703E-2,1E0,-8.3911225E-2,-8.2953736E-2,1.0024359E-1,1E0,-7.365564E-2,1E0,1.066978E-1,1E0,1E0,1.0259046E-1,-4.8949886E-2,1E0,1E0,1E0,-6.475363E-2,-8.1497386E-2,7.764403E-2,-5.1176686E-2,4.9525265E-2,9.701326E-2,-5.523348E-2,6.68054E-2,-7.75316E-2,-8.285985E-2,1.0024359E-1,8.6588986E-2,-6.0394198E-2],"split_indices":[926,100,1292,1972,0,1873,585,283,755,294,1474,656,0,206,1609,718,0,1738,0,0,0,679,0,439,0,1722,739,0,0,114,1256,1762,0,0,0,0,0,0,0,0,0,0,0,0,0],"split_type":[0,0,0,0,0,0,0,0,0,0,0,0,0,0,0,0,0,0,0,0,0,0,0,0,0,0,0,0,0,0,0,0,0,0,0,0,0,0,0,0,0,0,0,0,0],"sum_hessian":[1.5605652E3,8.264047E2,7.341604E2,7.9710504E2,2.9299667E1,4.2333835E2,3.1082205E2,7.644637E2,3.264138E1,3.2755167E2,9.578669E1,3.021351E2,8.686957E0,5.0795212E2,2.5651157E2,3.0754446E1,1.8869334E0,2.896455E2,3.7906162E1,8.164357E1,1.4143113E1,2.9749152E2,4.6435943E0,4.9382245E2,1.4129652E1,2.2513051E2,3.138107E1,2.931793E1,1.4365152E0,2.5101625E2,3.8629246E1,2.9457666E2,2.9148555E0,4.765003E2,1.732215E1,1.8449619E2,4.063432E1,2.9457758E1,1.9233116E0,2.4344553E2,7.5707235E0,2.4486132E1,1.4143113E1,2.921646E2,2.4120271E0],"tree_param":{"num_deleted":"0","num_feature":"2048","num_nodes":"45","size_leaf_vector":"1"}},{"base_weights":[9.807234E-2,-6.0865885E-1,8.7316847E-1,-7.457555E-1,1.8921638E0,6.030246E-1,1.6901169E0,-8.4325033E-1,9.009712E-2,-4.8777066E-2,1.010436E-1,6.8969417E-1,-7.952397E-2,1.7120405E0,-4.918967E-2,-9.493484E-1,1.3194584E0,9.531965E-1,1.6602897E-3,1.7341096E0,-4.8773497E-2,-1.1096691E0,4.4828385E-1,1.763058E0,-6.691625E-2,1.0331846E0,-7.7464394E-2,-7.0250136E-1,8.723446E-2,8.779067E-2,-4.684198E-2,-5.90952E-2,1.0037606E-1,3.4801643E-3,1.00422464E-1,9.977428E-2,-5.4237645E-2,5.512559E-2,-7.4536644E-2,-8.161386E-2,3.5432823E-2],"categories":[],"categories_nodes":[],"categories_segments":[],"categories_sizes":[],"default_left":[0,0,0,0,0,0,0,0,0,0,0,0,0,0,0,0,0,0,0,0,0,0,0,0,0,0,0,0,0,0,0,0,0,0,0,0,0,0,0,0,0],"id":4,"left_children":[1,3,5,7,9,11,13,15,-1,-1,-1,17,-1,19,-1,21,23,25,27,29,-1,31,33,35,-1,37,-1,39,-1,-1,-1,-1,-1,-1,-1,-1,-1,-1,-1,-1,-1],"loss_changes":[9.085424E2,2.9888174E2,1.7354425E2,2.0600565E2,1.8719116E1,1.1439726E2,1.3174377E1,1.8334973E2,0E0,0E0,0E0,1.0406683E2,0E0,1.32438965E1,0E0,1.7013208E2,4.6606926E1,8.468219E1,1.9755681E2,1.2864807E1,0E0,1.553634E2,4.630783E1,2.3738487E1,0E0,7.212399E1,0E0,1.5157898E2,0E0,0E0,0E0,0E0,0E0,0E0,0E0,0E0,0E0,0E0,0E0,0E0,0E0],"parents":[2147483647,0,0,1,1,2,2,3,3,4,4,5,5,6,6,7,7,11,11,13,13,15,15,16,16,17,17,18,18,19,19,21,21,22,22,23,23,25,25,27,27],"right_children":[2,4,6,8,10,12,14,16,-1,-1,-1,18,-1,20,-1,22,24,26,28,30,-1,32,34,36,-1,38,-1,40,-1,-1,-1,-1,-1,-1,-1,-1,-1,-1,-1,-1,-1],"split_conditions":[1E0,1E0,1E0,1E0,1E0,1E0,1E0,1E0,9.009712E-2,-4.8777066E-2,1.010436E-1,1E0,-7.952397E-2,1E0,-4.918967E-2,1E0,1E0,1E0,1E0,1E0,-4.8773497E-2,1E0,1E0,1E0,-6.691625E-2,1E0,-7.7464394E-2,1E0,8.723446E-2,8.779067E-2,-4.684198E-2,-5.90952E-2,1.0037606E-1,3.4801643E-3,1.00422464E-1,9.977428E-2,-5.4237645E-2,5.512559E-2,-7.4536644E-2,-8.161386E-2,3.5432823E-2],"split_indices":[926,1344,1818,100,114,802,682,1920,0,0,0,1873,0,656,0,875,650,591,383,574,0,264,141,80,0,1096,0,1979,0,0,0,0,0,0,0,0,0,0,0,0,0],"split_type":[0,0,0,0,0,0,0,0,0,0,0,0,0,0,0,0,0,0,0,0,0,0,0,0,0,0,0,0,0,0,0,0,0,0,0,0,0,0,0,0,0],"sum_hessian":[1.6566058E3,8.6662946E2,7.899764E2,8.2225476E2,4.4374733E1,5.949725E2,1.9500394E2,7.9259296E2,2.9661795E1,1.6234605E0,4.2751274E1,5.73017E2,2.195542E1,1.9377489E2,1.2290527E0,7.560631E2,3.6529854E1,4.140567E2,1.5896034E2,1.9254848E2,1.226399E0,6.784455E2,7.7617615E1,3.1593378E1,4.936477E0,4.0180087E2,1.2255817E1,1.1364582E2,4.5314514E1,1.9133633E2,1.2121489E0,6.6368665E2,1.4758814E1,6.3298523E1,1.4319092E1,2.9486124E1,2.1072543E0,3.9160736E2,1.0193514E1,6.841333E1,4.5232494E1],"tree_param":{"num_deleted":"0","num_feature":"2048","num_nodes":"41","size_leaf_vector":"1"}},{"base_weights":[-9.513262E-4,6.895975E-1,-6.6380566E-1,3.768534E-1,1.4320028E0,-7.9488E-1,1.4109105E0,4.747122E-1,-7.747138E-2,1.5064125E0,-7.165382E-2,-8.9741683E-1,1.5511099E0,1.5980388E0,-6.4480096E-2,5.5328274E-1,-7.615188E-2,1.5652277E0,-6.688508E-2,-1.0148085E0,1.2429559E0,8.618737E-2,-5.882568E-2,1.246526E0,8.7420836E-2,6.710504E-1,-5.199181E-1,1.5950962E0,-5.7428934E-2,-1.1424197E0,6.7193097E-1,-7.234026E-2,1.6603739E0,-6.734154E-2,8.3827995E-2,4.5886237E-2,8.5153645E-3,-7.9829454E-2,1.0228236E-1,8.115542E-2,-5.9289914E-2,-6.0938668E-2,9.2733316E-2,-7.500699E-2,9.987848E-2,8.938419E-2,-4.6790548E-2],"categories":[],"categories_nodes":[],"categories_segments":[],"categories_sizes":[],"default_left":[0,0,0,0,0,0,0,0,0,0,0,0,0,0,0,0,0,0,0,0,0,0,0,0,0,0,0,0,0,0,0,0,0,0,0,0,0,0,0,0,0,0,0,0,0,0,0],"id":5,"left_children":[1,3,5,7,9,11,13,15,-1,17,-1,19,21,23,-1,25,-1,27,-1,29,31,-1,-1,33,-1,35,37,39,-1,41,43,-1,45,-1,-1,-1,-1,-1,-1,-1,-1,-1,-1,-1,-1,-1,-1],"loss_changes":[7.1551337E2,1.7721735E2,2.1801587E2,1.0253273E2,5.0459564E1,1.8200238E2,2.619326E1,8.162993E1,0E0,3.9114777E1,0E0,1.8217316E2,1.7006386E1,2.048645E-1,0E0,6.3030334E1,0E0,1.944519E1,0E0,1.4780841E2,4.4939247E1,0E0,0E0,2.1215414E1,0E0,5.5099167E1,1.4028638E2,1.8699707E1,0E0,1.476756E2,1.4315599E2,0E0,1.2666794E1,0E0,0E0,0E0,0E0,0E0,0E0,0E0,0E0,0E0,0E0,0E0,0E0,0E0,0E0],"parents":[2147483647,0,0,1,1,2,2,3,3,4,4,5,5,6,6,7,7,9,9,11,11,12,12,13,13,15,15,17,17,19,19,20,20,23,23,25,25,26,26,27,27,29,29,30,30,32,32],"right_children":[2,4,6,8,10,12,14,16,-1,18,-1,20,22,24,-1,26,-1,28,-1,30,32,-1,-1,34,-1,36,38,40,-1,42,44,-1,46,-1,-1,-1,-1,-1,-1,-1,-1,-1,-1,-1,-1,-1,-1],"split_conditions":[1E0,1E0,1E0,1E0,1E0,1E0,1E0,1E0,-7.747138E-2,1E0,-7.165382E-2,1E0,1E0,1E0,-6.4480096E-2,1E0,-7.615188E-2,1E0,-6.688508E-2,1E0,1E0,8.618737E-2,-5.882568E-2,1E0,8.7420836E-2,1E0,1E0,1E0,-5.7428934E-2,1E0,1E0,-7.234026E-2,1E0,-6.734154E-2,8.3827995E-2,4.5886237E-2,8.5153645E-3,-7.9829454E-2,1.0228236E-1,8.115542E-2,-5.9289914E-2,-6.0938668E-2,9.2733316E-2,-7.500699E-2,9.987848E-2,8.938419E-2,-4.6790548E-2],"split_indices":[80,1292,1372,835,656,1046,294,378,0,585,0,890,1243,115,0,1738,0,519,0,844,294,0,0,101,0,1873,780,231,0,625,1847,0,1147,0,0,0,0,0,0,0,0,0,0,0,0,0,0],"split_type":[0,0,0,0,0,0,0,0,0,0,0,0,0,0,0,0,0,0,0,0,0,0,0,0,0,0,0,0,0,0,0,0,0,0,0,0,0,0,0,0,0,0,0,0,0,0,0],"sum_hessian":[1.5611665E3,7.645905E2,7.965759E2,5.3902826E2,2.2556229E2,7.4982135E2,4.6754578E1,5.136856E2,2.5342655E1,2.2031465E2,5.2476344E0,7.1901276E2,3.0808622E1,4.410652E1,2.6480556E0,4.9494278E2,1.8742817E1,2.1629147E2,4.0231676E0,6.8212646E2,3.6886288E1,2.9320877E1,1.4877447E0,1.59986E1,2.8107922E1,4.4633853E2,4.8604248E1,2.143446E2,1.9468797E0,6.344495E2,4.767691E1,4.624006E0,3.2262283E1,1.9723364E0,1.4026263E1,2.9847308E2,1.4786543E2,3.4502525E1,1.4101724E1,2.1261922E2,1.7253869E0,6.192665E2,1.518306E1,1.801975E1,2.965716E1,3.1051043E1,1.2112409E0],"tree_param":{"num_deleted":"0","num_feature":"2048","num_nodes":"47","size_leaf_vector":"1"}},{"base_weights":[3.5532378E-2,-6.407071E-1,7.66755E-1,-3.489791E-1,-7.5236626E-2,3.9579472E-1,1.2951186E0,-4.6689177E-1,9.4332285E-2,5.285642E-1,-7.647248E-2,1.375497E0,-7.230296E-2,-5.959102E-1,1.7347579E0,-2.5806512E-4,9.5288926E-1,1.4216303E0,-6.887541E-2,-7.383569E-1,1.6505958E0,-4.273597E-2,1.8580803E0,-7.4462694E-1,1.1654496E0,1.1485568E0,-7.9555646E-2,1.4647663E0,-6.785443E-2,-4.8253987E-2,4.3218106E-2,9.316804E-2,-5.258413E-2,6.4373784E-2,1.22010626E-1,-7.918569E-2,5.603794E-2,-6.9705546E-2,6.6411816E-2,6.160722E-2,-7.303437E-2,7.455266E-2,-6.074199E-2],"categories":[],"categories_nodes":[],"categories_segments":[],"categories_sizes":[],"default_left":[0,0,0,0,0,0,0,0,0,0,0,0,0,0,0,0,0,0,0,0,0,0,0,0,0,0,0,0,0,0,0,0,0,0,0,0,0,0,0,0,0,0,0],"id":6,"left_children":[1,3,5,7,-1,9,11,13,-1,15,-1,17,-1,19,21,23,25,27,-1,29,31,-1,33,35,37,39,-1,41,-1,-1,-1,-1,-1,-1,-1,-1,-1,-1,-1,-1,-1,-1,-1],"loss_changes":[7.7865906E2,2.0569446E2,1.477763E2,1.624542E2,0E0,1.1479511E2,7.06521E1,1.6664328E2,0E0,9.377563E1,0E0,4.047516E1,0E0,1.7770053E2,1.197628E1,1.6317001E2,1.1724376E2,3.7798523E1,0E0,1.8953366E2,2.1044022E1,0E0,7.27713E0,1.8140384E2,3.238578E1,4.8884033E1,0E0,2.2568115E1,0E0,0E0,0E0,0E0,0E0,0E0,0E0,0E0,0E0,0E0,0E0,0E0,0E0,0E0,0E0],"parents":[2147483647,0,0,1,1,2,2,3,3,5,5,6,6,7,7,9,9,11,11,13,13,14,14,15,15,16,16,17,17,19,19,20,20,22,22,23,23,24,24,25,25,27,27],"right_children":[2,4,6,8,-1,10,12,14,-1,16,-1,18,-1,20,22,24,26,28,-1,30,32,-1,34,36,38,40,-1,42,-1,-1,-1,-1,-1,-1,-1,-1,-1,-1,-1,-1,-1,-1,-1],"split_conditions":[1E0,1E0,1E0,1E0,-7.5236626E-2,1E0,1E0,1E0,9.4332285E-2,1E0,-7.647248E-2,1E0,-7.230296E-2,1E0,1E0,1E0,1E0,1E0,-6.887541E-2,1E0,1E0,-4.273597E-2,1E0,1E0,1E0,1E0,-7.9555646E-2,1E0,-6.785443E-2,-4.8253987E-2,4.3218106E-2,9.316804E-2,-5.258413E-2,6.4373784E-2,1.22010626E-1,-7.918569E-2,5.603794E-2,-6.9705546E-2,6.6411816E-2,6.160722E-2,-7.303437E-2,7.455266E-2,-6.074199E-2],"split_indices":[926,1911,1292,197,0,1781,585,1831,0,1060,0,656,0,1972,650,890,1917,519,0,844,694,0,759,370,650,2026,0,679,0,0,0,0,0,0,0,0,0,0,0,0,0,0,0],"split_type":[0,0,0,0,0,0,0,0,0,0,0,0,0,0,0,0,0,0,0,0,0,0,0,0,0,0,0,0,0,0,0,0,0,0,0,0,0,0,0,0,0,0,0],"sum_hessian":[1.5727043E3,8.171357E2,7.555686E2,6.11929E2,2.052067E2,4.449333E2,3.1063535E2,5.8202277E2,2.9906244E1,4.1690778E2,2.8025515E1,3.0227023E2,8.3651285E0,5.504928E2,3.1529972E1,1.8604518E2,2.3086258E2,2.9776407E2,4.506148E0,5.182997E2,3.219308E1,1.1637259E0,3.0366245E1,1.1376266E2,7.2282524E1,2.148837E2,1.5978886E1,2.9367798E2,4.086108E0,4.5441534E2,6.388437E1,3.0131142E1,2.0619388E0,1.6956842E1,1.3409403E1,7.857092E1,3.519173E1,3.869936E0,6.841259E1,2.0872495E2,6.1587553E0,2.9126422E2,2.4137557E0],"tree_param":{"num_deleted":"0","num_feature":"2048","num_nodes":"43","size_leaf_vector":"1"}},{"base_weights":[4.5622356E-2,-5.726786E-1,7.2709304E-1,-7.102901E-1,1.7942363E0,4.6453658E-1,1.4914259E0,1.0327387E-1,-1.0306427E0,9.549289E-2,-4.580212E-2,2.9519612E-1,1.5702828E0,1.5122374E0,-4.823671E-2,-2.0351957E-1,1.0146107E-1,-1.1148093E0,9.715652E-2,1.5751235E-1,1.6173542E0,8.176513E-2,-6.341826E-2,1.5331621E0,-4.7692414E-2,-5.924501E-1,1.7353646E0,-1.1990529E0,9.337086E-2,-5.2319817E-2,1.3150469E0,1.7061377E0,-4.620393E-2,1.5539218E0,-4.6798937E-2,-5.593886E-2,5.822837E-2,9.431991E-2,-4.701057E-2,-6.440529E-2,9.127275E-2,-1.345976E-2,7.520511E-2,7.3236994E-2,-6.8160035E-2,8.9582436E-2,-4.146684E-2,5.47637E-2,7.9660036E-2],"categories":[],"categories_nodes":[],"categories_segments":[],"categories_sizes":[],"default_left":[0,0,0,0,0,0,0,0,0,0,0,0,0,0,0,0,0,0,0,0,0,0,0,0,0,0,0,0,0,0,0,0,0,0,0,0,0,0,0,0,0,0,0,0,0,0,0,0,0],"id":7,"left_children":[1,3,5,7,9,11,13,15,17,-1,-1,19,21,23,-1,25,-1,27,-1,29,31,-1,-1,33,-1,35,37,39,-1,41,43,45,-1,47,-1,-1,-1,-1,-1,-1,-1,-1,-1,-1,-1,-1,-1,-1,-1],"loss_changes":[6.663026E2,2.713364E2,1.5026147E2,2.0451547E2,1.6114426E1,1.04645584E2,1.1266785E1,1.3187358E2,1.430329E2,0E0,0E0,8.858423E1,1.5790894E1,1.1300415E1,0E0,1.4643567E2,0E0,1.3990344E2,0E0,1.0769257E2,1.1937706E1,0E0,0E0,1.1164429E1,0E0,1.5051685E2,1.4895447E1,1.4604736E2,0E0,1.2734557E2,2.9273033E1,1.1181793E1,0E0,1.645935E0,0E0,0E0,0E0,0E0,0E0,0E0,0E0,0E0,0E0,0E0,0E0,0E0,0E0,0E0,0E0],"parents":[2147483647,0,0,1,1,2,2,3,3,4,4,5,5,6,6,7,7,8,8,11,11,12,12,13,13,15,15,17,17,19,19,20,20,23,23,25,25,26,26,27,27,29,29,30,30,31,31,33,33],"right_children":[2,4,6,8,10,12,14,16,18,-1,-1,20,22,24,-1,26,-1,28,-1,30,32,-1,-1,34,-1,36,38,40,-1,42,44,46,-1,48,-1,-1,-1,-1,-1,-1,-1,-1,-1,-1,-1,-1,-1,-1,-1],"split_conditions":[1E0,1E0,1E0,1E0,1E0,1E0,1E0,1E0,1E0,9.549289E-2,-4.580212E-2,1E0,1E0,1E0,-4.823671E-2,1E0,1.0146107E-1,1E0,9.715652E-2,1E0,1E0,8.176513E-2,-6.341826E-2,1E0,-4.7692414E-2,1E0,1E0,1E0,9.337086E-2,1E0,1E0,1E0,-4.620393E-2,1E0,-4.6798937E-2,-5.593886E-2,5.822837E-2,9.431991E-2,-4.701057E-2,-6.440529E-2,9.127275E-2,-1.345976E-2,7.520511E-2,7.3236994E-2,-6.8160035E-2,8.9582436E-2,-4.146684E-2,5.47637E-2,7.9660036E-2],"split_indices":[926,1344,1818,80,378,383,682,1257,1829,0,0,1884,694,1032,0,1920,0,206,0,2044,1028,0,0,656,0,1607,695,625,0,1928,1917,1309,0,1,0,0,0,0,0,0,0,0,0,0,0,0,0,0,0],"split_type":[0,0,0,0,0,0,0,0,0,0,0,0,0,0,0,0,0,0,0,0,0,0,0,0,0,0,0,0,0,0,0,0,0,0,0,0,0,0,0,0,0,0,0,0,0,0,0,0,0],"sum_hessian":[1.5793488E3,8.281367E2,7.51212E2,7.832961E2,4.4840603E1,5.6033777E2,1.908742E2,2.2148726E2,5.6180884E2,4.32892E1,1.5514042E0,4.870197E2,7.3318085E1,1.8965157E2,1.2226478E0,1.9182487E2,2.966238E1,5.4695355E2,1.4855283E1,4.4210043E2,4.4919277E1,7.209075E1,1.227334E0,1.8843103E2,1.2205354E0,1.6035326E2,3.1471626E1,5.325089E2,1.4444686E1,3.7506525E2,6.703518E1,4.3720596E1,1.198682E0,1.8722754E2,1.203479E0,1.2367021E2,3.6683037E1,3.0069208E1,1.4024198E0,5.1783594E2,1.4672919E1,3.2992044E2,4.5144817E1,6.3915882E1,3.1192985E0,4.2577988E1,1.1426113E0,1.7047985E1,1.7017957E2],"tree_param":{"num_deleted":"0","num_feature":"2048","num_nodes":"49","size_leaf_vector":"1"}},{"base_weights":[3.984855E-2,-6.008196E-1,7.349379E-1,-8.472729E-1,3.1338876E-1,8.085583E-1,-7.451715E-2,-1.1000025E0,7.545992E-1,-2.9256148E-2,1.7709821E0,1.0102783E0,1.4016415E-1,-1.1920506E0,1.1779409E-1,-3.1590807E-1,1.7705095E0,-5.224567E-1,1.3714767E0,1.0193864E-1,-5.807034E-2,1.078309E0,-7.330738E-2,-4.9750456E-1,1.0202641E0,-1.2854239E0,9.991286E-2,-7.136013E-2,8.893462E-2,9.279648E-2,-4.076302E-2,-7.428598E-2,1.3050508E0,-6.600054E-2,1.04221664E-1,1.127676E0,-7.168569E-2,-7.5115435E-2,7.4725497E-1,-6.836068E-2,1.1986902E0,-6.891069E-2,7.960175E-2,8.344893E-2,-6.067259E-2,5.84467E-2,-7.460359E-2,7.971818E-2,-7.107353E-2,6.55349E-2,-6.1925024E-2],"categories":[],"categories_nodes":[],"categories_segments":[],"categories_sizes":[],"default_left":[0,0,0,0,0,0,0,0,0,0,0,0,0,0,0,0,0,0,0,0,0,0,0,0,0,0,0,0,0,0,0,0,0,0,0,0,0,0,0,0,0,0,0,0,0,0,0,0,0,0,0],"id":8,"left_children":[1,3,5,7,9,11,-1,13,15,17,19,21,23,25,-1,27,29,31,33,-1,-1,35,-1,37,39,41,-1,-1,-1,-1,-1,-1,43,-1,-1,45,-1,-1,47,-1,49,-1,-1,-1,-1,-1,-1,-1,-1,-1,-1],"loss_changes":[6.9013086E2,1.8197137E2,1.2297247E2,2.5810483E2,8.5942535E1,9.6950806E1,0E0,1.7754584E2,9.538542E1,9.7590775E1,2.8084366E1,9.4748535E1,9.485145E1,1.6215283E2,0E0,1.03338974E2,1.1427994E1,1.8578142E2,7.335269E1,0E0,0E0,6.84339E1,0E0,1.2388473E2,3.1865128E1,1.413252E2,0E0,0E0,0E0,0E0,0E0,0E0,3.5551655E1,0E0,0E0,5.8918762E1,0E0,0E0,8.403559E1,0E0,1.9791603E1,0E0,0E0,0E0,0E0,0E0,0E0,0E0,0E0,0E0,0E0],"parents":[2147483647,0,0,1,1,2,2,3,3,4,4,5,5,7,7,8,8,9,9,10,10,11,11,12,12,13,13,15,15,16,16,17,17,18,18,21,21,23,23,24,24,25,25,32,32,35,35,38,38,40,40],"right_children":[2,4,6,8,10,12,-1,14,16,18,20,22,24,26,-1,28,30,32,34,-1,-1,36,-1,38,40,42,-1,-1,-1,-1,-1,-1,44,-1,-1,46,-1,-1,48,-1,50,-1,-1,-1,-1,-1,-1,-1,-1,-1,-1],"split_conditions":[1E0,1E0,1E0,1E0,1E0,1E0,-7.451715E-2,1E0,1E0,1E0,1E0,1E0,1E0,1E0,1.1779409E-1,1E0,1E0,1E0,1E0,1.0193864E-1,-5.807034E-2,1E0,-7.330738E-2,1E0,1E0,1E0,9.991286E-2,-7.136013E-2,8.893462E-2,9.279648E-2,-4.076302E-2,-7.428598E-2,1E0,-6.600054E-2,1.04221664E-1,1E0,-7.168569E-2,-7.5115435E-2,1E0,-6.836068E-2,1E0,-6.891069E-2,7.960175E-2,8.344893E-2,-6.067259E-2,5.84467E-2,-7.460359E-2,7.971818E-2,-7.107353E-2,6.55349E-2,-6.1925024E-2],"split_indices":[926,1722,802,1152,1607,1873,0,447,114,1818,1823,970,1292,1614,0,25,695,1920,694,0,0,1096,0,1979,1380,1745,0,0,0,0,0,0,695,0,0,519,0,0,1019,0,918,0,0,0,0,0,0,0,0,0,0],"split_type":[0,0,0,0,0,0,0,0,0,0,0,0,0,0,0,0,0,0,0,0,0,0,0,0,0,0,0,0,0,0,0,0,0,0,0,0,0,0,0,0,0,0,0,0,0,0,0,0,0,0,0],"sum_hessian":[1.5477443E3,8.054717E2,7.422726E2,6.344966E2,1.709751E2,7.191182E2,2.315441E1,5.4830334E2,8.6193275E1,1.3922629E2,3.17488E1,5.520109E2,1.6710727E2,5.347161E2,1.3587193E1,4.2304398E1,4.388888E1,1.03434006E2,3.5792286E1,2.9371304E1,2.3774955E0,5.3780133E2,1.4209568E1,9.7151634E1,6.995564E1,5.200913E2,1.4624847E1,2.7848139E1,1.4456259E1,4.2758614E1,1.130265E0,6.785518E1,3.5578827E1,7.317286E0,2.8475E1,5.279765E2,9.824826E0,5.364279E1,4.3508842E1,4.401226E0,6.555442E1,5.043485E2,1.574278E1,3.1381468E1,4.1973596E0,5.2033563E2,7.640885E0,3.1478224E1,1.2030619E1,6.3115963E1,2.4384549E0],"tree_param":{"num_deleted":"0","num_feature":"2048","num_nodes":"51","size_leaf_vector":"1"}},{"base_weights":[3.4341186E-2,-4.481859E-1,9.2406976E-1,-5.87856E-1,8.5041857E-1,1.0951232E0,-7.348964E-2,-6.720803E-1,1.58873E0,3.519072E-1,7.076429E-2,1.1641262E0,-7.1627505E-2,-7.5450826E-1,1.5302964E0,8.8598065E-2,-4.739875E-2,-2.6716158E-1,9.442283E-2,1.2146521E0,-7.043397E-2,-8.4911436E-1,1.3794551E0,-5.2472986E-2,8.814632E-2,-7.368543E-2,7.680661E-2,1.2493027E0,-7.4117586E-2,-4.723932E-2,7.562981E-2,3.7066117E-2,1.1112094E-1,6.40065E-2,-6.4464934E-2],"categories":[],"categories_nodes":[],"categories_segments":[],"categories_sizes":[],"default_left":[0,0,0,0,0,0,0,0,0,0,0,0,0,0,0,0,0,0,0,0,0,0,0,0,0,0,0,0,0,0,0,0,0,0,0],"id":9,"left_children":[1,3,5,7,9,11,-1,13,15,17,-1,19,-1,21,23,-1,-1,25,-1,27,-1,29,31,-1,-1,-1,-1,33,-1,-1,-1,-1,-1,-1,-1],"loss_changes":[6.54288E2,1.7973112E2,2.2104016E2,1.647378E2,2.663897E1,8.900061E1,0E0,1.5732156E2,1.727758E1,5.0465572E1,0E0,6.514258E1,0E0,1.6871268E2,2.067315E1,0E0,0E0,8.56275E1,0E0,4.6625183E1,0E0,1.8112018E2,1.7508278E1,0E0,0E0,0E0,0E0,3.871051E1,0E0,0E0,0E0,0E0,0E0,0E0,0E0],"parents":[2147483647,0,0,1,1,2,2,3,3,4,4,5,5,7,7,8,8,9,9,11,11,13,13,14,14,17,17,19,19,21,21,22,22,27,27],"right_children":[2,4,6,8,10,12,-1,14,16,18,-1,20,-1,22,24,-1,-1,26,-1,28,-1,30,32,-1,-1,-1,-1,34,-1,-1,-1,-1,-1,-1,-1],"split_conditions":[1E0,1E0,1E0,1E0,1E0,1E0,-7.348964E-2,1E0,1E0,1E0,7.076429E-2,1E0,-7.1627505E-2,1E0,1E0,8.8598065E-2,-4.739875E-2,1E0,9.442283E-2,1E0,-7.043397E-2,1E0,1E0,-5.2472986E-2,8.814632E-2,-7.368543E-2,7.680661E-2,1E0,-7.4117586E-2,-4.723932E-2,7.562981E-2,3.7066117E-2,1.1112094E-1,6.40065E-2,-6.4464934E-2],"split_indices":[1325,598,1873,1972,528,591,0,1344,755,1784,0,1096,0,1831,231,0,0,399,0,585,0,1730,759,0,0,0,0,970,0,0,0,0,0,0,0],"split_type":[0,0,0,0,0,0,0,0,0,0,0,0,0,0,0,0,0,0,0,0,0,0,0,0,0,0,0,0,0,0,0,0,0,0,0],"sum_hessian":[1.522052E3,9.871737E2,5.348783E2,8.9180396E2,9.536975E1,4.997138E2,3.5164505E1,8.5924615E2,3.2557816E1,5.1522587E1,4.384716E1,4.8695972E2,1.2754069E1,8.2888116E2,3.0364988E1,3.0645685E1,1.9121293E0,3.7314766E1,1.4207821E1,4.780985E2,8.861228E0,7.9427045E2,3.4610706E1,2.2212372E0,2.8143751E1,2.2465996E1,1.484877E1,4.7256384E2,5.5346503E0,7.639241E2,3.0346327E1,2.07683E1,1.3842408E1,4.6738397E2,5.179878E0],"tree_param":{"num_deleted":"0","num_feature":"2048","num_nodes":"35","size_leaf_vector":"1"}},{"base_weights":[4.153054E-2,-4.737356E-1,6.0871524E-1,-1.942934E-1,-6.945615E-2,3.7227252E-1,1.3388017E0,-2.971986E-1,8.78082E-2,5.63405E-1,-5.1608723E-1,1.3936715E0,-6.7744784E-2,-4.0549833E-1,1.5958611E0,6.504794E-1,-8.062979E-2,-9.3856645E-1,8.493532E-2,1.42563E0,-5.5264425E-2,-4.7982892E-1,1.1304667E-1,-4.7928706E-2,8.91658E-2,7.4214983E-1,-7.116141E-2,-7.639455E-2,8.330169E-2,1.4528693E0,-5.099785E-2,-3.823078E-2,1.2754232E-2,4.056E-2,-7.105767E-2,7.402149E-2,5.451435E-2],"categories":[],"categories_nodes":[],"categories_segments":[],"categories_sizes":[],"default_left":[0,0,0,0,0,0,0,0,0,0,0,0,0,0,0,0,0,0,0,0,0,0,0,0,0,0,0,0,0,0,0,0,0,0,0,0,0],"id":10,"left_children":[1,3,5,7,-1,9,11,13,-1,15,17,19,-1,21,23,25,-1,27,-1,29,-1,31,-1,-1,-1,33,-1,-1,-1,35,-1,-1,-1,-1,-1,-1,-1],"loss_changes":[4.3396072E2,1.9876668E2,1.2151239E2,1.20404205E2,0E0,9.117866E1,2.7387299E1,1.1713957E2,0E0,8.4604004E1,9.076487E1,1.5118011E1,0E0,1.0776593E2,1.6529587E1,8.179631E1,0E0,1.2637892E2,0E0,1.2664337E1,0E0,1.09966095E2,0E0,0E0,0E0,6.2009705E1,0E0,0E0,0E0,4.901123E-2,0E0,0E0,0E0,0E0,0E0,0E0,0E0],"parents":[2147483647,0,0,1,1,2,2,3,3,5,5,6,6,7,7,9,9,10,10,11,11,13,13,14,14,15,15,17,17,19,19,21,21,25,25,29,29],"right_children":[2,4,6,8,-1,10,12,14,-1,16,18,20,-1,22,24,26,-1,28,-1,30,-1,32,-1,-1,-1,34,-1,-1,-1,36,-1,-1,-1,-1,-1,-1,-1],"split_conditions":[1E0,1E0,1E0,1E0,-6.945615E-2,1E0,1E0,1E0,8.78082E-2,1E0,1E0,1E0,-6.7744784E-2,1E0,1E0,1E0,-8.062979E-2,1E0,8.493532E-2,1E0,-5.5264425E-2,1E0,1.1304667E-1,-4.7928706E-2,8.91658E-2,1E0,-7.116141E-2,-7.639455E-2,8.330169E-2,1E0,-5.099785E-2,-3.823078E-2,1.2754232E-2,4.056E-2,-7.105767E-2,7.402149E-2,5.451435E-2],"split_indices":[926,1911,1818,100,0,1738,114,1344,0,1126,74,682,0,447,295,802,0,261,0,656,0,1722,0,0,0,1232,0,0,0,80,0,0,0,0,0,0,0],"split_type":[0,0,0,0,0,0,0,0,0,0,0,0,0,0,0,0,0,0,0,0,0,0,0,0,0,0,0,0,0,0,0,0,0,0,0,0,0],"sum_hessian":[1.4829036E3,7.77101E2,7.058025E2,5.962843E2,1.8081668E2,5.342821E2,1.7152043E2,5.672064E2,2.9077917E1,4.399843E2,9.429776E1,1.6856934E2,2.9510908E0,5.372564E2,2.9950008E1,4.2372952E2,1.6254808E1,7.96756E1,1.4622157E1,1.6686487E2,1.7044768E0,5.234836E2,1.3772807E1,1.7663563E0,2.8183651E1,4.0640604E2,1.7323494E1,6.531143E1,1.436417E1,1.6542822E2,1.4366399E0,3.772535E2,1.4623007E2,3.9444095E2,1.1965084E1,1.5087682E2,1.4551409E1],"tree_param":{"num_deleted":"0","num_feature":"2048","num_nodes":"37","size_leaf_vector":"1"}},{"base_weights":[8.692889E-2,-3.1988806E-1,8.6990976E-1,-6.1188616E-2,-6.883852E-2,5.9067583E-1,1.3338336E0,-2.916636E-1,7.50113E-1,2.8370756E-1,1.202266E0,1.3547692E0,-5.7604965E-2,-4.3722352E-1,8.3959766E-2,9.171526E-1,-7.255431E-2,-2.5853947E-2,1.4534794E0,1.31257E0,-7.1130276E-2,1.3739818E0,-4.6859857E-2,-5.5698985E-1,1.5700015E0,1.0434291E0,-6.6655375E-2,-3.229941E-1,7.385226E-2,7.88929E-2,-5.571392E-2,1.3680059E0,-6.3152395E-2,1.3926826E0,-4.5189507E-2,-3.7024897E-2,4.918086E-2,8.719959E-2,-4.5524374E-2,6.9844715E-2,2.5374934E-2,1.1101815E-2,-7.390285E-2,7.157789E-2,4.876919E-2,7.105427E-2,5.061246E-2],"categories":[],"categories_nodes":[],"categories_segments":[],"categories_sizes":[],"default_left":[0,0,0,0,0,0,0,0,0,0,0,0,0,0,0,0,0,0,0,0,0,0,0,0,0,0,0,0,0,0,0,0,0,0,0,0,0,0,0,0,0,0,0,0,0,0,0],"id":11,"left_children":[1,3,5,7,-1,9,11,13,15,17,19,21,-1,23,-1,25,-1,27,29,31,-1,33,-1,35,37,39,-1,41,-1,-1,-1,43,-1,45,-1,-1,-1,-1,-1,-1,-1,-1,-1,-1,-1,-1,-1],"loss_changes":[4.8596716E2,2.7446765E2,6.6785034E1,1.512547E2,0E0,6.1129112E1,1.171994E1,1.8140007E2,6.7139366E1,7.945433E1,3.3458664E1,9.831696E0,0E0,1.4204712E2,0E0,4.8835876E1,0E0,7.836028E1,1.6420738E1,1.6752945E1,0E0,9.472137E0,0E0,1.5761119E2,1.5971779E1,2.9345947E1,0E0,9.251469E1,0E0,0E0,0E0,1.1860504E0,0E0,6.322937E-1,0E0,0E0,0E0,0E0,0E0,0E0,0E0,0E0,0E0,0E0,0E0,0E0,0E0],"parents":[2147483647,0,0,1,1,2,2,3,3,5,5,6,6,7,7,8,8,9,9,10,10,11,11,13,13,15,15,17,17,18,18,19,19,21,21,23,23,24,24,25,25,27,27,31,31,33,33],"right_children":[2,4,6,8,-1,10,12,14,16,18,20,22,-1,24,-1,26,-1,28,30,32,-1,34,-1,36,38,40,-1,42,-1,-1,-1,44,-1,46,-1,-1,-1,-1,-1,-1,-1,-1,-1,-1,-1,-1,-1],"split_conditions":[1E0,1E0,1E0,1E0,-6.883852E-2,1E0,1E0,1E0,1E0,1E0,1E0,1E0,-5.7604965E-2,1E0,8.3959766E-2,1E0,-7.255431E-2,1E0,1E0,1E0,-7.1130276E-2,1E0,-4.6859857E-2,1E0,1E0,1E0,-6.6655375E-2,1E0,7.385226E-2,7.88929E-2,-5.571392E-2,1E0,-6.3152395E-2,1E0,-4.5189507E-2,-3.7024897E-2,4.918086E-2,8.719959E-2,-4.5524374E-2,6.9844715E-2,2.5374934E-2,1.1101815E-2,-7.390285E-2,7.157789E-2,4.876919E-2,7.105427E-2,5.061246E-2],"split_indices":[1325,794,1818,1060,0,528,2041,1344,1309,370,80,682,0,1972,0,1232,0,1928,1004,1017,0,656,0,1607,755,807,0,1380,0,0,0,555,0,114,0,0,0,0,0,0,0,0,0,0,0,0,0],"split_type":[0,0,0,0,0,0,0,0,0,0,0,0,0,0,0,0,0,0,0,0,0,0,0,0,0,0,0,0,0,0,0,0,0,0,0,0,0,0,0,0,0,0,0,0,0,0,0],"sum_hessian":[1.5237828E3,1.00315857E3,5.2062427E2,8.0674475E2,1.9641386E2,3.264241E2,1.9420016E2,6.2876526E2,1.7797946E2,2.183128E2,1.0811129E2,1.9302956E2,1.170603E0,5.862456E2,4.251966E1,1.6596819E2,1.2011275E1,1.734025E2,4.4910313E1,1.0423118E2,3.880119E0,1.9182211E2,1.2074399E0,5.5391724E2,3.2328407E1,1.5765732E2,8.310858E0,1.4543369E2,2.79688E1,4.3203125E1,1.7071873E0,1.02494026E2,1.7371479E0,1.9064548E2,1.1766403E0,4.954245E2,5.849272E1,3.0486868E1,1.8415399E0,9.403285E1,6.362447E1,9.935812E1,4.6075565E1,8.593756E1,1.6556467E1,1.7485548E2,1.5789991E1],"tree_param":{"num_deleted":"0","num_feature":"2048","num_nodes":"47","size_leaf_vector":"1"}},{"base_weights":[-5.4477416E-3,2.1602935E-1,-6.8122976E-2,-1.7571126E-3,1.3407109E0,-2.640401E-1,6.707554E-1,1.3652319E0,-5.0712954E-2,-3.7805307E-1,1.5597041E0,1.13373E0,-7.695894E-2,1.3882715E0,-4.9246386E-2,-5.4435575E-1,1.0426673E0,8.265711E-2,-4.2017516E-2,1.1939517E0,-6.285913E-2,-5.677147E-1,6.811633E-2,1.2829058E0,9.647317E-2,-3.4959566E-2,4.748135E-2,6.7123696E-2,-6.4699054E-2,6.212895E-2,-6.1005134E-2,-5.2511908E-2,8.042491E-2,-6.0746968E-2,6.815808E-2],"categories":[],"categories_nodes":[],"categories_segments":[],"categories_sizes":[],"default_left":[0,0,0,0,0,0,0,0,0,0,0,0,0,0,0,0,0,0,0,0,0,0,0,0,0,0,0,0,0,0,0,0,0,0,0],"id":12,"left_children":[1,3,-1,5,7,9,11,13,-1,15,17,19,21,23,-1,25,27,-1,-1,29,-1,31,-1,33,-1,-1,-1,-1,-1,-1,-1,-1,-1,-1,-1],"loss_changes":[4.293533E2,3.0082626E2,0E0,1.8184132E2,1.2890198E1,1.5480272E2,1.0021852E2,1.2067566E1,0E0,1.6567856E2,1.1218925E1,2.7231659E1,7.956411E1,8.707642E0,0E0,1.4552971E2,5.3277565E1,0E0,0E0,2.2038773E1,0E0,8.9780464E1,0E0,3.516147E1,0E0,0E0,0E0,0E0,0E0,0E0,0E0,0E0,0E0,0E0,0E0],"parents":[2147483647,0,0,1,1,3,3,4,4,5,5,6,6,7,7,9,9,10,10,11,11,12,12,13,13,15,15,16,16,19,19,21,21,23,23],"right_children":[2,4,-1,6,8,10,12,14,-1,16,18,20,22,24,-1,26,28,-1,-1,30,-1,32,-1,34,-1,-1,-1,-1,-1,-1,-1,-1,-1,-1,-1],"split_conditions":[1E0,1E0,-6.8122976E-2,1E0,1E0,1E0,1E0,1E0,-5.0712954E-2,1E0,1E0,1E0,1E0,1E0,-4.9246386E-2,1E0,1E0,8.265711E-2,-4.2017516E-2,1E0,-6.285913E-2,1E0,6.811633E-2,1E0,9.647317E-2,-3.4959566E-2,4.748135E-2,6.7123696E-2,-6.4699054E-2,6.212895E-2,-6.1005134E-2,-5.2511908E-2,8.042491E-2,-6.0746968E-2,6.815808E-2],"split_indices":[1911,1818,0,1274,656,1344,807,1544,0,1022,695,519,838,694,0,1607,80,0,0,294,0,150,0,1148,0,0,0,0,0,0,0,0,0,0,0],"split_type":[0,0,0,0,0,0,0,0,0,0,0,0,0,0,0,0,0,0,0,0,0,0,0,0,0,0,0,0,0,0,0,0,0,0,0],"sum_hessian":[1.4265934E3,1.2271515E3,1.9944186E2,1.0289092E3,1.982424E2,7.406569E2,2.8825226E2,1.9661543E2,1.6269697E0,6.978245E2,4.2832405E1,1.7770403E2,1.1054822E2,1.9511195E2,1.5034809E0,6.252523E2,7.2572174E1,4.15269E1,1.305505E0,1.7382637E2,3.8776598E0,8.2890465E1,2.7657753E1,1.6613696E2,2.8974981E1,5.670188E2,5.8233547E1,6.4696655E1,7.8755145E0,1.7086974E2,2.9566245E0,6.827051E1,1.4619959E1,4.7316837E0,1.6140529E2],"tree_param":{"num_deleted":"0","num_feature":"2048","num_nodes":"35","size_leaf_vector":"1"}},{"base_weights":[4.4235967E-2,-1.4646895E-1,1.2412472E0,3.4843308E-1,-5.626529E-1,3.3501682E-1,1.3445804E0,4.2475805E-1,-6.837313E-2,-6.609545E-1,1.4528134E0,-7.8135304E-2,7.244562E-2,1.3686173E0,-4.7988277E-2,5.225213E-1,-6.198413E-1,-7.721948E-1,1.0506068E0,1.5762863E0,-4.1871827E-2,1.3879658E0,-4.244685E-2,5.717462E-1,-7.4119665E-2,-7.3130205E-2,6.952064E-2,-1.0347335E0,3.142746E-2,-6.459012E-2,1.7103453E0,1.2174366E0,9.21533E-2,1.2782704E0,9.3762785E-2,2.4571344E-2,8.376859E-2,-5.676027E-2,8.4311835E-2,1.5980108E-2,-7.7375874E-2,9.675616E-2,-4.6409186E-2,-4.407881E-2,7.491686E-2,6.795604E-2,-6.6333555E-2],"categories":[],"categories_nodes":[],"categories_segments":[],"categories_sizes":[],"default_left":[0,0,0,0,0,0,0,0,0,0,0,0,0,0,0,0,0,0,0,0,0,0,0,0,0,0,0,0,0,0,0,0,0,0,0,0,0,0,0,0,0,0,0,0,0,0,0],"id":13,"left_children":[1,3,5,7,9,11,13,15,-1,17,19,-1,-1,21,-1,23,25,27,29,31,-1,33,-1,35,-1,-1,-1,37,39,-1,41,43,-1,45,-1,-1,-1,-1,-1,-1,-1,-1,-1,-1,-1,-1,-1],"loss_changes":[3.2758237E2,2.5519316E2,1.8016296E1,7.472691E1,1.342736E2,4.7746967E1,1.1100128E1,5.575666E1,0E0,1.23096924E2,1.02575E1,0E0,0E0,8.698669E0,0E0,4.9886536E1,8.150754E1,1.2739282E2,6.3436985E1,6.603012E-1,0E0,6.911194E0,0E0,4.2230804E1,0E0,0E0,0E0,1.2631244E2,6.857284E1,0E0,2.0385399E1,1.0684856E1,0E0,3.240091E1,0E0,0E0,0E0,0E0,0E0,0E0,0E0,0E0,0E0,0E0,0E0,0E0,0E0],"parents":[2147483647,0,0,1,1,2,2,3,3,4,4,5,5,6,6,7,7,9,9,10,10,13,13,15,15,16,16,17,17,18,18,19,19,21,21,23,23,27,27,28,28,30,30,31,31,33,33],"right_children":[2,4,6,8,10,12,14,16,-1,18,20,-1,-1,22,-1,24,26,28,30,32,-1,34,-1,36,-1,-1,-1,38,40,-1,42,44,-1,46,-1,-1,-1,-1,-1,-1,-1,-1,-1,-1,-1,-1,-1],"split_conditions":[1E0,1E0,1E0,1E0,1E0,1E0,1E0,1E0,-6.837313E-2,1E0,1E0,-7.8135304E-2,7.244562E-2,1E0,-4.7988277E-2,1E0,1E0,1E0,1E0,1E0,-4.1871827E-2,1E0,-4.244685E-2,1E0,-7.4119665E-2,-7.3130205E-2,6.952064E-2,1E0,1E0,-6.459012E-2,1E0,1E0,9.21533E-2,1E0,9.3762785E-2,2.4571344E-2,8.376859E-2,-5.676027E-2,8.4311835E-2,1.5980108E-2,-7.7375874E-2,9.675616E-2,-4.6409186E-2,-4.407881E-2,7.491686E-2,6.795604E-2,-6.6333555E-2],"split_indices":[1818,80,283,835,197,521,682,1738,0,115,1564,0,0,656,0,1035,113,926,294,1027,0,694,0,1920,0,0,0,1745,694,0,147,114,0,294,0,0,0,0,0,0,0,0,0,0,0,0,0],"split_type":[0,0,0,0,0,0,0,0,0,0,0,0,0,0,0,0,0,0,0,0,0,0,0,0,0,0,0,0,0,0,0,0,0,0,0,0,0,0,0,0,0,0,0,0,0,0,0],"sum_hessian":[1.4332316E3,1.2370288E3,1.9620277E2,5.651489E2,6.718799E2,2.051639E1,1.7568639E2,5.4180145E2,2.3347483E1,6.4127466E2,3.0605227E1,7.43929E0,1.3077099E1,1.7427458E2,1.4118071E0,4.9589114E2,4.5910313E1,6.0265485E2,3.861981E1,2.9335423E1,1.2698033E0,1.7313803E2,1.1365535E0,4.8470544E2,1.1185707E1,3.2540653E1,1.3369656E1,4.5403625E2,1.4861859E2,8.276378E0,3.0343431E1,1.4881509E1,1.4453915E1,1.4428157E2,2.8856455E1,4.5317004E2,3.1535389E1,4.3843002E2,1.5606238E1,1.26355E2,2.2263582E1,2.8207047E1,2.1363857E0,1.5040671E0,1.3377441E1,1.4040213E2,3.8794475E0],"tree_param":{"num_deleted":"0","num_feature":"2048","num_nodes":"47","size_leaf_vector":"1"}},{"base_weights":[1.7488746E-2,-5.2697295E-1,5.8385307E-1,-6.5151054E-1,1.4358231E0,3.8419837E-1,1.2579657E0,-7.996812E-1,8.8014674E-1,-4.337202E-2,7.7688925E-2,1.3671978E-1,1.0986059E0,1.2893836E0,-7.31952E-2,-9.3485904E-1,7.825433E-1,1.238072E0,-6.772681E-2,-2.3416225E-2,1.388188E0,1.1705469E0,-6.0693026E-2,6.603056E-2,-5.0915387E-2,-1.0175916E0,1.0283374E-1,1.6014056E-1,1.098604E-1,1.3383548E0,-5.5255868E-2,-3.6428216E-1,6.478392E-1,1.4776561E0,-4.391205E-2,1.2201567E0,-6.1656363E-2,-5.4964226E-2,9.536668E-2,-6.438693E-2,1.0861313E-1,3.0785123E-2,9.028369E-2,-8.4299425E-4,-8.29863E-2,5.3683408E-2,-6.9335245E-2,7.791211E-2,-3.8373813E-2,6.2944815E-2,-6.606847E-2],"categories":[],"categories_nodes":[],"categories_segments":[],"categories_sizes":[],"default_left":[0,0,0,0,0,0,0,0,0,0,0,0,0,0,0,0,0,0,0,0,0,0,0,0,0,0,0,0,0,0,0,0,0,0,0,0,0,0,0,0,0,0,0,0,0,0,0,0,0,0,0],"id":14,"left_children":[1,3,5,7,9,11,13,15,17,-1,-1,19,21,23,-1,25,27,29,-1,31,33,35,-1,-1,-1,37,-1,39,-1,41,-1,43,45,47,-1,49,-1,-1,-1,-1,-1,-1,-1,-1,-1,-1,-1,-1,-1,-1,-1],"loss_changes":[4.332287E2,1.760369E2,9.219498E1,1.5372955E2,1.3044006E1,9.403047E1,1.5305298E1,1.3233914E2,4.9629246E1,0E0,0E0,7.954971E1,2.4197739E1,1.2561188E1,0E0,1.4251096E2,4.27722E1,1.3744453E1,0E0,8.094891E1,1.0428345E1,1.739888E1,0E0,0E0,0E0,1.3417456E2,0E0,1.0502956E2,0E0,1.5945038E1,0E0,1.05553986E2,1.0472667E2,9.100822E0,0E0,1.4570984E1,0E0,0E0,0E0,0E0,0E0,0E0,0E0,0E0,0E0,0E0,0E0,0E0,0E0,0E0,0E0],"parents":[2147483647,0,0,1,1,2,2,3,3,4,4,5,5,6,6,7,7,8,8,11,11,12,12,13,13,15,15,16,16,17,17,19,19,20,20,21,21,25,25,27,27,29,29,31,31,32,32,33,33,35,35],"right_children":[2,4,6,8,10,12,14,16,18,-1,-1,20,22,24,-1,26,28,30,-1,32,34,36,-1,-1,-1,38,-1,40,-1,42,-1,44,46,48,-1,50,-1,-1,-1,-1,-1,-1,-1,-1,-1,-1,-1,-1,-1,-1,-1],"split_conditions":[1E0,1E0,1E0,1E0,1E0,1E0,1E0,1E0,1E0,-4.337202E-2,7.7688925E-2,1E0,1E0,1E0,-7.31952E-2,1E0,1E0,1E0,-6.772681E-2,1E0,1E0,1E0,-6.0693026E-2,6.603056E-2,-5.0915387E-2,1E0,1.0283374E-1,1E0,1.098604E-1,1E0,-5.5255868E-2,1E0,1E0,1E0,-4.391205E-2,1E0,-6.1656363E-2,-5.4964226E-2,9.536668E-2,-6.438693E-2,1.0861313E-1,3.0785123E-2,9.028369E-2,-8.4299425E-4,-8.29863E-2,5.3683408E-2,-6.9335245E-2,7.791211E-2,-3.8373813E-2,6.2944815E-2,-6.606847E-2],"split_indices":[926,1344,1883,1607,114,528,694,69,1475,0,0,1884,519,682,0,1626,658,142,0,1,1028,1126,0,0,0,447,0,36,0,1722,0,1274,1873,1309,0,1992,0,0,0,0,0,0,0,0,0,0,0,0,0,0,0],"split_type":[0,0,0,0,0,0,0,0,0,0,0,0,0,0,0,0,0,0,0,0,0,0,0,0,0,0,0,0,0,0,0,0,0,0,0,0,0,0,0,0,0,0,0,0,0,0,0,0,0,0,0],"sum_hessian":[1.4029302E3,7.153316E2,6.875985E2,6.7328064E2,4.2050957E1,5.316944E2,1.5590416E2,6.143291E2,5.8951557E1,1.7390637E0,4.0311893E1,3.9578238E2,1.3591199E2,1.546454E2,1.2587531E0,5.663518E2,4.7977287E1,5.1197342E1,7.7542157E0,3.5175378E2,4.4028603E1,1.3229024E2,3.6217544E0,1.5300272E2,1.6426939E0,5.517526E2,1.45991955E1,3.4091446E1,1.3885839E1,4.9507378E1,1.6899613E0,2.3359216E2,1.1816163E2,4.269137E1,1.3372326E0,1.3009752E2,2.192721E0,5.373681E2,1.4384487E1,2.0034832E1,1.4056616E1,2.035239E1,2.915499E1,1.8499245E2,4.859971E1,9.810135E1,2.006028E1,4.1507458E1,1.1839087E0,1.2864136E2,1.4561625E0],"tree_param":{"num_deleted":"0","num_feature":"2048","num_nodes":"51","size_leaf_vector":"1"}},{"base_weights":[4.2797336E-3,5.1164055E-1,-5.20633E-1,-6.9754815E-1,6.1097753E-1,-7.300871E-1,6.649725E-1,-7.171017E-2,6.931802E-2,6.741437E-1,-6.691639E-2,-9.0526605E-1,1.1187426E0,8.3986425E-1,-7.298674E-2,7.285728E-1,-6.735251E-2,-9.9047846E-1,8.913288E-2,1.3672546E0,-5.5627283E-2,9.6178496E-1,-6.387149E-2,7.7195036E-1,-7.227956E-2,-1.0770423E0,9.134546E-2,5.8685714E-1,1.7835882E0,1.0498074E0,-5.5330772E-2,4.0441714E-2,-7.373395E-2,-5.822382E-2,7.076935E-2,-5.7231583E-2,6.474551E-2,6.740314E-2,1.0482849E-1,5.656861E-2,-5.1240094E-2],"categories":[],"categories_nodes":[],"categories_segments":[],"categories_sizes":[],"default_left":[0,0,0,0,0,0,0,0,0,0,0,0,0,0,0,0,0,0,0,0,0,0,0,0,0,0,0,0,0,0,0,0,0,0,0,0,0,0,0,0,0],"id":15,"left_children":[1,3,5,7,9,11,13,-1,-1,15,-1,17,19,21,-1,23,-1,25,-1,27,-1,29,-1,31,-1,33,-1,35,37,39,-1,-1,-1,-1,-1,-1,-1,-1,-1,-1,-1],"loss_changes":[3.622389E2,8.350412E1,1.6649962E2,8.330831E1,7.966461E1,1.8517743E2,3.8718025E1,0E0,0E0,6.921683E1,0E0,1.2086072E2,2.905893E1,2.5456932E1,0E0,5.8139435E1,0E0,1.2503903E2,0E0,1.3617577E1,0E0,1.7423256E1,0E0,5.0369812E1,0E0,1.084776E2,0E0,2.2559532E1,1.1187897E0,1.5743088E1,0E0,0E0,0E0,0E0,0E0,0E0,0E0,0E0,0E0,0E0,0E0],"parents":[2147483647,0,0,1,1,2,2,3,3,4,4,5,5,6,6,9,9,11,11,12,12,13,13,15,15,17,17,19,19,21,21,23,23,25,25,27,27,28,28,29,29],"right_children":[2,4,6,8,10,12,14,-1,-1,16,-1,18,20,22,-1,24,-1,26,-1,28,-1,30,-1,32,-1,34,-1,36,38,40,-1,-1,-1,-1,-1,-1,-1,-1,-1,-1,-1],"split_conditions":[1E0,1E0,1E0,1E0,1E0,1E0,1E0,-7.171017E-2,6.931802E-2,1E0,-6.691639E-2,1E0,1E0,1E0,-7.298674E-2,1E0,-6.735251E-2,1E0,8.913288E-2,1E0,-5.5627283E-2,1E0,-6.387149E-2,1E0,-7.227956E-2,1E0,9.134546E-2,1E0,1E0,1E0,-5.5330772E-2,4.0441714E-2,-7.373395E-2,-5.822382E-2,7.076935E-2,-5.7231583E-2,6.474551E-2,6.740314E-2,1.0482849E-1,5.656861E-2,-5.1240094E-2],"split_indices":[80,1057,1060,287,835,115,679,0,0,378,0,475,147,1366,0,844,0,1507,0,294,0,1309,0,2026,0,712,0,81,1824,31,0,0,0,0,0,0,0,0,0,0,0],"split_type":[0,0,0,0,0,0,0,0,0,0,0,0,0,0,0,0,0,0,0,0,0,0,0,0,0,0,0,0,0,0,0,0,0,0,0,0,0,0,0,0,0],"sum_hessian":[1.3581632E3,6.90641E2,6.675223E2,5.1972984E1,6.38668E2,5.67627E2,9.989522E1,3.8629387E1,1.3343597E1,6.1925555E2,1.9412464E1,5.1896484E2,4.8662216E1,9.28566E1,7.0386243E0,6.036396E2,1.5615987E1,5.0363028E2,1.5334549E1,4.4133984E1,4.528232E0,8.831678E1,4.539819E0,5.9246405E2,1.11755295E1,4.8921686E2,1.4413415E1,1.6192152E1,2.7941832E1,8.518415E1,3.132627E0,5.8352405E2,8.939985E0,4.7315158E2,1.6065275E1,4.520654E0,1.1671498E1,1.390277E1,1.4039062E1,8.239922E1,2.7849278E0],"tree_param":{"num_deleted":"0","num_feature":"2048","num_nodes":"41","size_leaf_vector":"1"}},{"base_weights":[3.8062118E-2,-1.4833048E-1,1.1879565E0,4.5923307E-3,-6.4194374E-2,1.2252517E0,-5.0713725E-2,9.611607E-2,-6.626608E-2,1.2585173E0,-6.1369997E-2,1.9647828E-1,-8.2854825E-1,1.2848843E0,-5.2643176E-2,2.5632435E-1,-6.683611E-2,-6.730986E-2,9.779585E-2,1.3067012E0,-5.693064E-2,9.887389E-3,8.6089544E-2,6.646849E-2,-4.0819075E-2],"categories":[],"categories_nodes":[],"categories_segments":[],"categories_sizes":[],"default_left":[0,0,0,0,0,0,0,0,0,0,0,0,0,0,0,0,0,0,0,0,0,0,0,0,0],"id":16,"left_children":[1,3,5,7,-1,9,-1,11,-1,13,-1,15,17,19,-1,21,-1,-1,-1,23,-1,-1,-1,-1,-1],"loss_changes":[2.8953525E2,2.0189926E2,1.6718506E1,1.24966774E2,0E0,1.6698914E1,0E0,8.9301445E1,0E0,1.2551147E1,0E0,7.992199E1,1.3846695E2,1.111731E1,0E0,7.138484E1,0E0,0E0,0E0,9.794678E0,0E0,0E0,0E0,0E0,0E0],"parents":[2147483647,0,0,1,1,2,2,3,3,5,5,7,7,9,9,11,11,12,12,13,13,15,15,19,19],"right_children":[2,4,6,8,-1,10,-1,12,-1,14,-1,16,18,20,-1,22,-1,-1,-1,24,-1,-1,-1,-1,-1],"split_conditions":[1E0,1E0,1E0,1E0,-6.4194374E-2,1E0,-5.0713725E-2,1E0,-6.626608E-2,1E0,-6.1369997E-2,1E0,1E0,1E0,-5.2643176E-2,1E0,-6.683611E-2,-6.730986E-2,9.779585E-2,1E0,-5.693064E-2,9.887389E-3,8.6089544E-2,6.646849E-2,-4.0819075E-2],"split_indices":[1818,591,794,401,0,1873,0,389,0,1544,0,378,1964,2041,0,1972,0,0,0,227,0,0,0,0,0],"split_type":[0,0,0,0,0,0,0,0,0,0,0,0,0,0,0,0,0,0,0,0,0,0,0,0,0],"sum_hessian":[1.3490518E3,1.1616282E3,1.874236E2,1.0246384E3,1.3698972E2,1.8473865E2,2.684957E0,9.5953186E2,6.5106575E1,1.827469E2,1.9917392E0,8.662928E2,9.323909E1,1.8112483E2,1.6220798E0,8.3455023E2,3.174255E1,7.905823E1,1.4180867E1,1.7996556E2,1.1592664E0,8.035656E2,3.0984612E1,1.7843422E2,1.5313371E0],"tree_param":{"num_deleted":"0","num_feature":"2048","num_nodes":"25","size_leaf_vector":"1"}},{"base_weights":[8.93088E-2,-4.0023598E-1,5.788848E-1,2.789566E-1,-7.172651E-1,3.8504454E-1,1.2270765E0,1.7585855E-2,9.266512E-2,-8.738482E-1,7.696167E-1,4.5391184E-1,-6.816944E-2,1.2548782E0,-6.1905544E-2,-3.0029926E-1,1.5575052E0,-9.731065E-1,8.7595716E-2,-6.0566604E-2,1.4699193E0,5.165777E-1,-6.805117E-2,1.2740892E0,-3.9083924E-2,-5.212257E-1,9.0653054E-2,8.9235075E-2,-5.3014327E-2,-1.0752171E0,8.5849315E-2,-4.8152115E-2,1.669524E0,5.71121E-1,-6.5548494E-2,6.5263405E-2,8.514297E-1,-3.9614495E-2,8.953072E-2,-5.955357E-2,6.487746E-2,8.961128E-2,-3.8507506E-2,3.0950636E-2,-7.083242E-2,-6.490722E-2,6.2149357E-2],"categories":[],"categories_nodes":[],"categories_segments":[],"categories_sizes":[],"default_left":[0,0,0,0,0,0,0,0,0,0,0,0,0,0,0,0,0,0,0,0,0,0,0,0,0,0,0,0,0,0,0,0,0,0,0,0,0,0,0,0,0,0,0,0,0,0,0],"id":17,"left_children":[1,3,5,7,9,11,13,15,-1,17,19,21,-1,23,-1,25,27,29,-1,-1,31,33,-1,35,-1,37,-1,-1,-1,39,-1,-1,41,43,-1,-1,45,-1,-1,-1,-1,-1,-1,-1,-1,-1,-1],"loss_changes":[3.3051526E2,1.4869885E2,8.615102E1,9.057267E1,1.1020622E2,6.4697914E1,1.2399689E1,9.3401726E1,0E0,1.1276077E2,6.47009E1,5.9021324E1,0E0,7.1378784E0,0E0,7.480909E1,2.1308678E1,1.14805786E2,0E0,0E0,1.8100441E1,5.022693E1,0E0,9.4306946E-1,0E0,9.166097E1,0E0,0E0,0E0,1.1062555E2,0E0,0E0,1.088533E1,4.6827026E1,0E0,0E0,1.3048894E1,0E0,0E0,0E0,0E0,0E0,0E0,0E0,0E0,0E0,0E0],"parents":[2147483647,0,0,1,1,2,2,3,3,4,4,5,5,6,6,7,7,9,9,10,10,11,11,13,13,15,15,16,16,17,17,20,20,21,21,23,23,25,25,29,29,32,32,33,33,36,36],"right_children":[2,4,6,8,10,12,14,16,-1,18,20,22,-1,24,-1,26,28,30,-1,-1,32,34,-1,36,-1,38,-1,-1,-1,40,-1,-1,42,44,-1,-1,46,-1,-1,-1,-1,-1,-1,-1,-1,-1,-1],"split_conditions":[1E0,1E0,1E0,1E0,1E0,1E0,1E0,1E0,9.266512E-2,1E0,1E0,1E0,-6.816944E-2,1E0,-6.1905544E-2,1E0,1E0,1E0,8.7595716E-2,-6.0566604E-2,1E0,1E0,-6.805117E-2,1E0,-3.9083924E-2,1E0,9.0653054E-2,8.9235075E-2,-5.3014327E-2,1E0,8.5849315E-2,-4.8152115E-2,1E0,1E0,-6.5548494E-2,6.5263405E-2,1E0,-3.9614495E-2,8.953072E-2,-5.955357E-2,6.487746E-2,8.961128E-2,-3.8507506E-2,3.0950636E-2,-7.083242E-2,-6.490722E-2,6.2149357E-2],"split_indices":[926,80,1883,1257,844,802,694,1920,0,625,283,1147,0,656,0,447,650,206,0,0,147,970,0,633,0,1031,0,0,0,1211,0,0,739,392,0,0,36,0,0,0,0,0,0,0,0,0,0],"split_type":[0,0,0,0,0,0,0,0,0,0,0,0,0,0,0,0,0,0,0,0,0,0,0,0,0,0,0,0,0,0,0,0,0,0,0,0,0,0,0,0,0,0,0,0,0,0,0],"sum_hessian":[1.37708E3,6.886532E2,6.884268E2,2.1918936E2,4.6946384E2,5.311744E2,1.5725244E2,1.888482E2,3.0341152E1,4.251081E2,4.4355717E1,5.1175763E2,1.9416721E1,1.5598425E2,1.2681808E0,1.5720203E2,3.1646177E1,4.102301E2,1.4877995E1,1.1394454E1,3.2961266E1,4.9536896E2,1.6388676E1,1.5489748E2,1.0867784E0,1.4300584E2,1.41961775E1,2.941179E1,2.2343857E0,3.9580637E2,1.4423733E1,2.2091691E0,3.0752096E1,4.816807E2,1.3688282E1,1.423112E2,1.2586275E1,1.2858633E2,1.441951E1,3.77855E2,1.7951368E1,2.953218E1,1.2199147E0,4.7102087E2,1.0659812E1,1.5826267E0,1.1003649E1],"tree_param":{"num_deleted":"0","num_feature":"2048","num_nodes":"47","size_leaf_vector":"1"}},{"base_weights":[8.051253E-2,-3.9422703E-1,5.436152E-1,-1.6278201E-1,-6.1968096E-2,7.377196E-1,-1.5023197E-1,-2.6560596E-1,8.097617E-2,7.976952E-1,-6.566073E-2,-8.07789E-1,7.142447E-1,-3.8748467E-1,1.5248591E0,8.351953E-1,-7.078261E-2,-6.9229655E-2,1.0211064E-1,1.0355971E0,-7.98099E-2,-5.1133096E-1,7.247128E-2,8.171385E-2,-3.538165E-2,8.704565E-1,-6.378048E-2,1.1339891E0,-7.490363E-2,-3.350121E-2,5.6186426E-2,4.49664E-2,-7.476022E-2,6.0404737E-2,-4.6720054E-2],"categories":[],"categories_nodes":[],"categories_segments":[],"categories_sizes":[],"default_left":[0,0,0,0,0,0,0,0,0,0,0,0,0,0,0,0,0,0,0,0,0,0,0,0,0,0,0,0,0,0,0,0,0,0,0],"id":18,"left_children":[1,3,5,7,-1,9,11,13,-1,15,-1,17,19,21,23,25,-1,-1,-1,27,-1,29,-1,-1,-1,31,-1,33,-1,-1,-1,-1,-1,-1,-1],"loss_changes":[3.0226993E2,1.3261304E2,9.383281E1,9.832631E1,0E0,6.795557E1,8.752112E1,1.10989105E2,0E0,4.5098755E1,0E0,1.4640822E2,5.1108425E1,1.08678E2,9.082008E0,3.9882324E1,0E0,0E0,0E0,1.6427727E1,0E0,1.16278114E2,0E0,0E0,0E0,3.637982E1,0E0,9.933731E0,0E0,0E0,0E0,0E0,0E0,0E0,0E0],"parents":[2147483647,0,0,1,1,2,2,3,3,5,5,6,6,7,7,9,9,11,11,12,12,13,13,14,14,15,15,19,19,21,21,25,25,27,27],"right_children":[2,4,6,8,-1,10,12,14,-1,16,-1,18,20,22,24,26,-1,-1,-1,28,-1,30,-1,-1,-1,32,-1,34,-1,-1,-1,-1,-1,-1,-1],"split_conditions":[1E0,1E0,1E0,1E0,-6.1968096E-2,1E0,1E0,1E0,8.097617E-2,1E0,-6.566073E-2,1E0,1E0,1E0,1E0,1E0,-7.078261E-2,-6.9229655E-2,1.0211064E-1,1E0,-7.98099E-2,1E0,7.247128E-2,8.171385E-2,-3.538165E-2,1E0,-6.378048E-2,1E0,-7.490363E-2,-3.350121E-2,5.6186426E-2,4.49664E-2,-7.476022E-2,6.0404737E-2,-4.6720054E-2],"split_indices":[926,1911,1873,100,0,591,1292,1972,0,519,0,88,695,197,755,1096,0,0,0,694,0,759,0,0,0,751,0,918,0,0,0,0,0,0,0],"split_type":[0,0,0,0,0,0,0,0,0,0,0,0,0,0,0,0,0,0,0,0,0,0,0,0,0,0,0,0,0,0,0,0,0,0,0],"sum_hessian":[1.372897E3,6.780044E2,6.948926E2,5.3318207E2,1.4482236E2,5.429411E2,1.5195148E2,5.0490433E2,2.8277729E1,5.2810864E2,1.4832462E1,8.634184E1,6.5609634E1,4.7345908E2,3.1445244E1,5.199224E2,8.186236E0,7.223631E1,1.410553E1,5.8082844E1,7.5267887E0,4.4423026E2,2.9228807E1,3.023151E1,1.2137352E0,5.1195773E2,7.964681E0,5.6443367E1,1.6394778E0,4.0546722E2,3.876304E1,5.0639728E2,5.5604415E0,5.4892616E1,1.550752E0],"tree_param":{"num_deleted":"0","num_feature":"2048","num_nodes":"35","size_leaf_vector":"1"}},{"base_weights":[1.0008215E-1,-3.8265136E-1,5.5308604E-1,-5.04554E-1,1.3952216E0,6.0635227E-1,-6.665073E-2,1.6769359E-1,-8.373393E-1,-4.3305576E-2,7.616814E-2,7.27922E-1,-1.5285587E-1,-1.2096227E-1,8.9943446E-2,-1.0237252E0,7.3523545E-1,5.4733413E-1,1.1259941E0,-4.7117785E-1,7.89564E-2,2.188091E-1,-6.783282E-2,-1.1323789E0,7.953159E-2,-5.994268E-2,1.442973E0,6.136254E-1,-7.3986225E-2,1.1744218E0,-5.8233958E-2,-9.077465E-1,7.608696E-2,1.2583627E-3,8.8549E-2,-6.303062E-2,6.6665545E-2,-4.4246506E-2,8.016499E-2,3.2882888E-2,-7.5010985E-2,5.984366E-2,-4.9173675E-2,-7.058307E-2,6.2778786E-2],"categories":[],"categories_nodes":[],"categories_segments":[],"categories_sizes":[],"default_left":[0,0,0,0,0,0,0,0,0,0,0,0,0,0,0,0,0,0,0,0,0,0,0,0,0,0,0,0,0,0,0,0,0,0,0,0,0,0,0,0,0,0,0,0,0],"id":19,"left_children":[1,3,5,7,9,11,-1,13,15,-1,-1,17,19,21,-1,23,25,27,29,31,-1,33,-1,35,-1,-1,37,39,-1,41,-1,43,-1,-1,-1,-1,-1,-1,-1,-1,-1,-1,-1,-1,-1],"loss_changes":[2.986361E2,1.4401349E2,7.157803E1,1.3874203E2,1.3691284E1,6.3404465E1,0E0,9.7201584E1,1.2226572E2,0E0,0E0,4.188907E1,5.338409E1,7.4167755E1,0E0,1.0720422E2,6.2658382E1,5.5827515E1,2.1732742E1,7.2224884E1,0E0,4.1692123E1,0E0,1.1450699E2,0E0,0E0,1.37504425E1,3.7888504E1,0E0,9.911163E0,0E0,7.526874E1,0E0,0E0,0E0,0E0,0E0,0E0,0E0,0E0,0E0,0E0,0E0,0E0,0E0],"parents":[2147483647,0,0,1,1,2,2,3,3,4,4,5,5,7,7,8,8,11,11,12,12,13,13,15,15,16,16,17,17,18,18,19,19,21,21,23,23,26,26,27,27,29,29,31,31],"right_children":[2,4,6,8,10,12,-1,14,16,-1,-1,18,20,22,-1,24,26,28,30,32,-1,34,-1,36,-1,-1,38,40,-1,42,-1,44,-1,-1,-1,-1,-1,-1,-1,-1,-1,-1,-1,-1,-1],"split_conditions":[1E0,1E0,1E0,1E0,1E0,1E0,-6.665073E-2,1E0,1E0,-4.3305576E-2,7.616814E-2,1E0,1E0,1E0,8.9943446E-2,1E0,1E0,1E0,1E0,1E0,7.89564E-2,1E0,-6.783282E-2,1E0,7.953159E-2,-5.994268E-2,1E0,1E0,-7.3986225E-2,1E0,-5.8233958E-2,1E0,7.608696E-2,1.2583627E-3,8.8549E-2,-6.303062E-2,6.6665545E-2,-4.4246506E-2,8.016499E-2,3.2882888E-2,-7.5010985E-2,5.984366E-2,-4.9173675E-2,-7.058307E-2,6.2778786E-2],"split_indices":[926,1344,802,80,114,1738,0,1257,844,0,0,253,1753,1917,0,206,283,1126,1722,261,0,896,0,1211,0,0,147,392,0,265,0,383,0,0,0,0,0,0,0,0,0,0,0,0,0],"split_type":[0,0,0,0,0,0,0,0,0,0,0,0,0,0,0,0,0,0,0,0,0,0,0,0,0,0,0,0,0,0,0,0,0,0,0,0,0,0,0,0,0,0,0,0,0],"sum_hessian":[1.3636619E3,6.602434E2,7.034184E2,6.185479E2,4.1695484E1,6.8475836E2,1.8660065E1,2.0497714E2,4.1357077E2,1.9271796E0,3.9768303E1,5.9027985E2,9.447853E1,1.7494447E2,3.003266E1,3.7005933E2,4.3511433E1,4.0769943E2,1.825804E2,8.0425125E1,1.405341E1,1.3786069E2,3.7083797E1,3.5583743E2,1.4221894E1,1.1470683E1,3.204075E1,3.9546378E2,1.2235643E1,1.7927756E2,3.3028438E0,6.641972E1,1.4005399E1,1.2347297E2,1.4387716E1,3.3871082E2,1.7126629E1,1.7733028E0,3.0267445E1,3.88069E2,7.394769E0,1.7787227E2,1.4052923E0,5.4153015E1,1.2266712E1],"tree_param":{"num_deleted":"0","num_feature":"2048","num_nodes":"45","size_leaf_vector":"1"}},{"base_weights":[9.822018E-2,-1.0351657E-1,1.1384641E0,-3.8432053E-1,5.9183455E-1,1.1662825E0,-4.733246E-2,-1.904405E-1,-6.1615672E-2,7.90835E-1,-7.536762E-2,1.1869681E0,-5.0017662E-2,-8.0444336E-2,-6.69304E-2,8.7573445E-1,-7.067071E-2,1.2039473E0,-5.4071844E-2,-1.3596812E-1,1.0150591E-1,9.912823E-1,-2.2972475E-1,1.220624E0,-5.003777E-2,1.1708699E-2,-2.6756203E-2,5.1661607E-2,-8.268019E-2,-7.64677E-2,6.6988416E-2,5.774469E-2,9.932029E-2],"categories":[],"categories_nodes":[],"categories_segments":[],"categories_sizes":[],"default_left":[0,0,0,0,0,0,0,0,0,0,0,0,0,0,0,0,0,0,0,0,0,0,0,0,0,0,0,0,0,0,0,0,0],"id":20,"left_children":[1,3,5,7,9,11,-1,13,-1,15,-1,17,-1,19,-1,21,-1,23,-1,25,-1,27,29,31,-1,-1,-1,-1,-1,-1,-1,-1,-1],"loss_changes":[2.8161462E2,2.1977834E2,1.3747131E1,1.3155063E2,1.3647586E2,1.0847626E1,0E0,8.24369E1,0E0,5.6717407E1,0E0,9.542999E0,0E0,7.029655E1,0E0,3.6770157E1,0E0,9.047333E0,0E0,8.6280235E1,0E0,3.04673E1,5.8927437E1,8.361816E0,0E0,0E0,0E0,0E0,0E0,0E0,0E0,0E0,0E0],"parents":[2147483647,0,0,1,1,2,2,3,3,4,4,5,5,7,7,9,9,11,11,13,13,15,15,17,17,19,19,21,21,22,22,23,23],"right_children":[2,4,6,8,10,12,-1,14,-1,16,-1,18,-1,20,-1,22,-1,24,-1,26,-1,28,30,32,-1,-1,-1,-1,-1,-1,-1,-1,-1],"split_conditions":[1E0,1E0,1E0,1E0,1E0,1E0,-4.733246E-2,1E0,-6.1615672E-2,1E0,-7.536762E-2,1E0,-5.0017662E-2,1E0,-6.69304E-2,1E0,-7.067071E-2,1E0,-5.4071844E-2,1E0,1.0150591E-1,1E0,1E0,1E0,-5.003777E-2,1.1708699E-2,-2.6756203E-2,5.1661607E-2,-8.268019E-2,-7.64677E-2,6.6988416E-2,5.774469E-2,9.932029E-2],"split_indices":[1818,1060,794,1911,1917,656,0,656,0,519,0,2041,0,1829,0,1309,0,1544,0,80,0,695,133,43,0,0,0,0,0,0,0,0,0],"split_type":[0,0,0,0,0,0,0,0,0,0,0,0,0,0,0,0,0,0,0,0,0,0,0,0,0,0,0,0,0,0,0,0,0],"sum_hessian":[1.3403844E3,1.1234181E3,2.169664E2,8.0057056E2,3.2284747E2,2.1454472E2,2.4216766E0,6.525907E2,1.4797987E2,2.9546136E2,2.7386126E1,2.1296365E2,1.5810598E0,5.9651385E2,5.6076862E1,2.850837E2,1.0377651E1,2.1184721E2,1.1164482E0,5.821348E2,1.4378981E1,2.5819882E2,2.6884888E1,2.106998E2,1.1474059E0,3.022594E2,2.7987546E2,2.5476738E2,3.4314442E0,1.4720802E1,1.2164084E1,1.9635406E2,1.434574E1],"tree_param":{"num_deleted":"0","num_feature":"2048","num_nodes":"33","size_leaf_vector":"1"}},{"base_weights":[1.13252394E-1,2.4221647E-1,-6.0570475E-2,7.8051016E-2,8.5130465E-1,1.826308E-2,1.3431453E0,9.155816E-1,-6.962117E-2,-3.599189E-2,1.4337631E0,-5.0760716E-2,7.4403204E-2,9.639488E-1,-6.2201686E-2,-2.1795672E-1,4.650262E-1,1.570573E0,-3.849953E-2,1.0015507E0,-5.6487467E-2,-1.4927824E-2,7.434031E-2,2.6704678E-2,-6.635394E-2,6.280818E-2,9.112334E-2,5.123324E-2,-5.9459396E-2],"categories":[],"categories_nodes":[],"categories_segments":[],"categories_sizes":[],"default_left":[0,0,0,0,0,0,0,0,0,0,0,0,0,0,0,0,0,0,0,0,0,0,0,0,0,0,0,0,0],"id":21,"left_children":[1,3,-1,5,7,9,11,13,-1,15,17,-1,-1,19,-1,21,23,25,-1,27,-1,-1,-1,-1,-1,-1,-1,-1,-1],"loss_changes":[2.2207918E2,1.1831401E2,0E0,7.059504E1,3.750992E1,6.859683E1,1.5905907E1,2.6775345E1,0E0,7.855738E1,1.1150223E1,0E0,0E0,2.0030289E1,0E0,8.7278885E1,2.9127434E1,1.9541168E-1,0E0,1.3186508E1,0E0,0E0,0E0,0E0,0E0,0E0,0E0,0E0,0E0],"parents":[2147483647,0,0,1,1,3,3,4,4,5,5,6,6,7,7,9,9,10,10,13,13,15,15,16,16,17,17,19,19],"right_children":[2,4,-1,6,8,10,12,14,-1,16,18,-1,-1,20,-1,22,24,26,-1,28,-1,-1,-1,-1,-1,-1,-1,-1,-1],"split_conditions":[1E0,1E0,-6.0570475E-2,1E0,1E0,1E0,1E0,1E0,-6.962117E-2,1E0,1E0,-5.0760716E-2,7.4403204E-2,1E0,-6.2201686E-2,1E0,1E0,1E0,-3.849953E-2,1E0,-5.6487467E-2,-1.4927824E-2,7.434031E-2,2.6704678E-2,-6.635394E-2,6.280818E-2,9.112334E-2,5.123324E-2,-5.9459396E-2],"split_indices":[591,1292,0,1344,656,1972,114,519,0,1325,755,0,0,622,0,100,392,625,0,306,0,0,0,0,0,0,0,0,0],"split_type":[0,0,0,0,0,0,0,0,0,0,0,0,0,0,0,0,0,0,0,0,0,0,0,0,0,0,0,0,0],"sum_hessian":[1.2972546E3,1.1829083E3,1.1434633E2,9.326598E2,2.5024846E2,8.9154034E2,4.1119465E1,2.438546E2,6.39386E0,8.5956836E2,3.1971985E1,2.032811E0,3.9086655E1,2.3905434E2,4.800263E0,6.309709E2,2.2859744E2,3.0373695E1,1.5982904E0,2.353492E2,3.7051334E0,6.032735E2,2.769739E1,2.207902E2,7.807238E0,1.617332E1,1.4200374E1,2.3341872E2,1.9304869E0],"tree_param":{"num_deleted":"0","num_feature":"2048","num_nodes":"29","size_leaf_vector":"1"}},{"base_weights":[2.8737877E-2,4.4339305E-1,-4.5340163E-1,2.6253432E-1,1.1412438E0,-5.8759993E-1,1.2971405E0,-5.85989E-2,6.905843E-1,1.1898084E0,-5.905148E-2,-7.862595E-1,4.1394913E-1,9.331215E-1,7.3198386E-2,-2.8454536E-1,1.1458515E0,8.523287E-1,-7.567602E-2,4.7676038E-2,6.13837E-2,-1.09658E0,1.5659466E-1,-1.2614168E-1,7.801849E-2,-5.4624896E-2,6.848186E-2,-4.9413702E-1,1.367475E0,1.3454946E0,-6.821466E-2,9.363491E-1,-6.563242E-2,-1.2784772E0,1.019057E0,-2.818604E-1,1.3415073E0,-6.325369E-2,1.1816033E0,-3.295545E-2,9.2450865E-2,5.068099E-2,8.217116E-2,-5.3571727E-2,7.510285E-2,4.980719E-2,-1.0324903E-1,-6.13404E-2,-7.515932E-2,5.86836E-2,-4.7805812E-2,-3.746241E-2,9.215524E-2,7.95437E-2,-5.7024043E-2,6.650599E-2,-5.0218772E-2],"categories":[],"categories_nodes":[],"categories_segments":[],"categories_sizes":[],"default_left":[0,0,0,0,0,0,0,0,0,0,0,0,0,0,0,0,0,0,0,0,0,0,0,0,0,0,0,0,0,0,0,0,0,0,0,0,0,0,0,0,0,0,0,0,0,0,0,0,0,0,0,0,0,0,0,0,0],"id":22,"left_children":[1,3,5,7,9,11,13,15,17,19,-1,21,23,25,-1,27,29,31,-1,-1,-1,33,35,37,-1,-1,-1,39,41,43,-1,45,-1,47,49,51,53,-1,55,-1,-1,-1,-1,-1,-1,-1,-1,-1,-1,-1,-1,-1,-1,-1,-1,-1,-1],"loss_changes":[2.503281E2,8.4659256E1,1.367768E2,7.3704865E1,1.699701E1,1.07458664E2,1.1564026E0,8.390258E1,8.320899E1,4.5440674E-2,0E0,1.3173853E2,5.5785515E1,1.5477032E1,0E0,9.049196E1,2.624572E1,4.0286346E1,0E0,0E0,0E0,1.3154498E2,5.86825E1,9.3770195E1,0E0,0E0,0E0,9.048474E1,1.2118073E0,1.887368E1,0E0,3.925589E1,0E0,1.7794495E0,9.474964E0,8.355744E1,2.0681957E1,0E0,1.0866623E1,0E0,0E0,0E0,0E0,0E0,0E0,0E0,0E0,0E0,0E0,0E0,0E0,0E0,0E0,0E0,0E0,0E0,0E0],"parents":[2147483647,0,0,1,1,2,2,3,3,4,4,5,5,6,6,7,7,8,8,9,9,11,11,12,12,13,13,15,15,16,16,17,17,21,21,22,22,23,23,27,27,28,28,29,29,31,31,33,33,34,34,35,35,36,36,38,38],"right_children":[2,4,6,8,10,12,14,16,18,20,-1,22,24,26,-1,28,30,32,-1,-1,-1,34,36,38,-1,-1,-1,40,42,44,-1,46,-1,48,50,52,54,-1,56,-1,-1,-1,-1,-1,-1,-1,-1,-1,-1,-1,-1,-1,-1,-1,-1,-1,-1],"split_conditions":[1E0,1E0,1E0,1E0,1E0,1E0,1E0,1E0,1E0,1E0,-5.905148E-2,1E0,1E0,1E0,7.3198386E-2,1E0,1E0,1E0,-7.567602E-2,4.7676038E-2,6.13837E-2,1E0,1E0,1E0,7.801849E-2,-5.4624896E-2,6.848186E-2,1E0,1E0,1E0,-6.821466E-2,1E0,-6.563242E-2,1E0,1E0,1E0,1E0,-6.325369E-2,1E0,-3.295545E-2,9.2450865E-2,5.068099E-2,8.217116E-2,-5.3571727E-2,7.510285E-2,4.980719E-2,-1.0324903E-1,-6.13404E-2,-7.515932E-2,5.86836E-2,-4.7805812E-2,-3.746241E-2,9.215524E-2,7.95437E-2,-5.7024043E-2,6.650599E-2,-5.0218772E-2],"split_indices":[80,1818,197,1274,114,222,828,1022,1309,1292,0,1722,114,56,0,287,1781,1232,0,0,0,1372,1028,1060,0,0,0,1319,1365,926,0,1004,0,926,682,1211,807,0,1516,0,0,0,0,0,0,0,0,0,0,0,0,0,0,0,0,0,0],"split_type":[0,0,0,0,0,0,0,0,0,0,0,0,0,0,0,0,0,0,0,0,0,0,0,0,0,0,0,0,0,0,0,0,0,0,0,0,0,0,0,0,0,0,0,0,0,0,0,0,0,0,0,0,0,0,0,0,0],"sum_hessian":[1.2501254E3,6.721422E2,5.7798315E2,5.3489276E2,1.3724948E2,5.3744635E2,4.053684E1,3.061071E2,2.2878568E2,1.3491571E2,2.333771E0,4.4866714E2,8.877918E1,1.48114395E1,2.5725399E1,2.583973E2,4.770977E1,2.137158E2,1.5069865E1,2.225056E1,1.12665146E2,3.374421E2,1.1122502E2,6.0953377E1,2.7825808E1,2.3595147E0,1.2451925E1,2.2992734E2,2.8469969E1,4.4624557E1,3.0852141E0,2.062779E2,7.437914E0,3.11091E2,2.6351126E1,8.174056E1,2.948446E1,3.2596924E1,2.8356455E1,2.1547531E2,1.4452027E1,1.4521677E1,1.3948291E1,2.3593047E0,4.2265255E1,2.029036E2,3.3743007E0,2.581841E2,5.2906895E1,2.4814459E1,1.5366675E0,6.7533844E1,1.4206717E1,2.7118849E1,2.3656123E0,2.691908E1,1.4373733E0],"tree_param":{"num_deleted":"0","num_feature":"2048","num_nodes":"57","size_leaf_vector":"1"}},{"base_weights":[4.9071137E-2,-1.24750845E-1,1.0673566E0,-4.714594E-1,6.444115E-1,1.1024188E0,-6.525383E-2,-8.108422E-1,1.6386935E-1,7.243968E-1,-6.841354E-2,1.1310064E0,-4.434751E-2,-8.8861424E-1,8.028598E-2,-5.2936696E-2,1.5393707E0,8.4764564E-1,-3.1543848E-1,1.1544518E0,-5.188734E-2,-1.0121934E0,7.990196E-1,-3.4385982E-1,1.2153087E0,9.793798E-2,-5.830742E-2,9.545437E-1,-1.8651979E-1,-7.3362105E-2,6.781147E-2,1.0728586E0,9.679492E-2,-5.5565286E-2,7.0331775E-2,-7.355522E-2,6.252354E-2,-2.6840499E-2,8.901644E-2,6.604874E-2,-4.1992586E-2,4.9359586E-2,-7.992376E-2,-7.273726E-2,6.658222E-2,5.4632194E-2,-4.3804023E-2],"categories":[],"categories_nodes":[],"categories_segments":[],"categories_sizes":[],"default_left":[0,0,0,0,0,0,0,0,0,0,0,0,0,0,0,0,0,0,0,0,0,0,0,0,0,0,0,0,0,0,0,0,0,0,0,0,0,0,0,0,0,0,0,0,0,0,0],"id":23,"left_children":[1,3,5,7,9,11,-1,13,15,17,-1,19,-1,21,-1,23,25,27,29,31,-1,33,35,37,39,-1,-1,41,43,-1,-1,45,-1,-1,-1,-1,-1,-1,-1,-1,-1,-1,-1,-1,-1,-1,-1],"loss_changes":[2.2050847E2,2.8415512E2,1.654863E1,1.5845532E2,5.4299927E1,1.1214066E1,0E0,9.1407745E1,7.6572624E1,4.116771E1,0E0,1.0220322E1,0E0,9.7680725E1,0E0,8.252581E1,4.1948868E1,3.1750244E1,6.85079E1,9.145935E0,0E0,1.0542566E2,3.489191E1,7.546631E1,1.01744995E1,0E0,0E0,2.3165848E1,5.506125E1,0E0,0E0,7.18927E0,0E0,0E0,0E0,0E0,0E0,0E0,0E0,0E0,0E0,0E0,0E0,0E0,0E0,0E0,0E0],"parents":[2147483647,0,0,1,1,2,2,3,3,4,4,5,5,7,7,8,8,9,9,11,11,13,13,15,15,16,16,17,17,18,18,19,19,21,21,22,22,23,23,24,24,27,27,28,28,31,31],"right_children":[2,4,6,8,10,12,-1,14,16,18,-1,20,-1,22,-1,24,26,28,30,32,-1,34,36,38,40,-1,-1,42,44,-1,-1,46,-1,-1,-1,-1,-1,-1,-1,-1,-1,-1,-1,-1,-1,-1,-1],"split_conditions":[1E0,1E0,1E0,1E0,1E0,1E0,-6.525383E-2,1E0,1E0,1E0,-6.841354E-2,1E0,-4.434751E-2,1E0,8.028598E-2,1E0,1E0,1E0,1E0,1E0,-5.188734E-2,1E0,1E0,1E0,1E0,9.793798E-2,-5.830742E-2,1E0,1E0,-7.3362105E-2,6.781147E-2,1E0,9.679492E-2,-5.5565286E-2,7.0331775E-2,-7.355522E-2,6.252354E-2,-2.6840499E-2,8.901644E-2,6.604874E-2,-4.1992586E-2,4.9359586E-2,-7.992376E-2,-7.273726E-2,6.658222E-2,5.4632194E-2,-4.3804023E-2],"split_indices":[1818,1060,1873,283,519,794,0,1031,844,1917,0,1544,0,2044,0,231,208,1309,516,43,0,1665,1309,1614,1873,0,0,2044,107,0,0,574,0,0,0,0,0,0,0,0,0,0,0,0,0,0,0],"split_type":[0,0,0,0,0,0,0,0,0,0,0,0,0,0,0,0,0,0,0,0,0,0,0,0,0,0,0,0,0,0,0,0,0,0,0,0,0,0,0,0,0,0,0,0,0,0,0],"sum_hessian":[1.2440555E3,1.0634084E3,1.8064702E2,7.3326715E2,3.3014133E2,1.7854364E2,2.1033697E0,4.7777228E2,2.5549484E2,3.181384E2,1.2002936E1,1.7643964E2,2.104004E0,4.6348816E2,1.4284118E1,2.2153767E2,3.3957176E1,2.8459137E2,3.354702E1,1.7501532E2,1.4243224E0,4.3223727E2,3.1250906E1,1.8079413E2,4.074354E1,2.963881E1,4.3183684E0,2.5799982E2,2.6591543E1,1.9934292E1,1.361273E1,1.6061765E2,1.439768E1,4.1574265E2,1.6494637E1,4.8092012E0,2.6441706E1,1.664243E2,1.4369825E1,3.909092E1,1.6526215E0,2.5534778E2,2.6520588E0,1.451116E1,1.2080382E1,1.5943842E2,1.1792266E0],"tree_param":{"num_deleted":"0","num_feature":"2048","num_nodes":"47","size_leaf_vector":"1"}},{"base_weights":[1.5165083E-1,-2.7495244E-1,5.360163E-1,-5.1997017E-2,-5.8738936E-2,5.8653975E-1,-6.317385E-2,-6.197704E-2,7.099266E-2,6.201235E-1,-7.179385E-2,-3.0990034E-2,1.3730875E0,6.5477115E-1,-6.634257E-2,-3.264251E-1,5.2799416E-1,1.4726532E0,-3.7532296E-2,6.9153094E-1,-6.057476E-2,-2.2854222E-2,9.042114E-2,3.4078337E-2,-5.9239585E-2,5.912456E-2,8.518382E-2,3.6141463E-2,-6.116871E-2],"categories":[],"categories_nodes":[],"categories_segments":[],"categories_sizes":[],"default_left":[0,0,0,0,0,0,0,0,0,0,0,0,0,0,0,0,0,0,0,0,0,0,0,0,0,0,0,0,0],"id":24,"left_children":[1,3,5,7,-1,9,-1,-1,11,13,-1,15,17,19,-1,21,23,25,-1,27,-1,-1,-1,-1,-1,-1,-1,-1,-1],"loss_changes":[2.104995E2,1.2205339E2,6.2125687E1,7.1488716E1,0E0,4.5542587E1,0E0,0E0,5.8992195E1,4.453972E1,0E0,6.832073E1,7.928108E0,4.4519714E1,0E0,7.6305E1,3.8440006E1,7.410431E-2,0E0,3.8346558E1,0E0,0E0,0E0,0E0,0E0,0E0,0E0,0E0,0E0],"parents":[2147483647,0,0,1,1,2,2,3,3,5,5,8,8,9,9,11,11,12,12,13,13,15,15,16,16,17,17,19,19],"right_children":[2,4,6,8,-1,10,-1,-1,12,14,-1,16,18,20,-1,22,24,26,-1,28,-1,-1,-1,-1,-1,-1,-1,-1,-1],"split_conditions":[1E0,1E0,1E0,1E0,-5.8738936E-2,1E0,-6.317385E-2,-6.197704E-2,1E0,1E0,-7.179385E-2,1E0,1E0,1E0,-6.634257E-2,1E0,1E0,1E0,-3.7532296E-2,1E0,-6.057476E-2,-2.2854222E-2,9.042114E-2,3.4078337E-2,-5.9239585E-2,5.912456E-2,8.518382E-2,3.6141463E-2,-6.116871E-2],"split_indices":[926,794,802,1057,0,841,0,0,1972,519,0,1722,694,970,0,1745,378,625,0,835,0,0,0,0,0,0,0,0,0],"split_type":[0,0,0,0,0,0,0,0,0,0,0,0,0,0,0,0,0,0,0,0,0,0,0,0,0,0,0,0,0],"sum_hessian":[1.2818572E3,6.076819E2,6.7417523E2,4.878597E2,1.1982219E2,6.564194E2,1.7755888E1,4.4932205E1,4.429275E2,6.463791E2,1.0040241E1,4.1166153E2,3.1265965E1,6.357296E2,1.0649504E1,2.695923E2,1.4206924E2,3.0158628E1,1.1073356E0,6.2406683E2,1.1662783E1,2.5478458E2,1.4807712E1,1.3093167E2,1.1137582E1,1.608038E1,1.4078249E1,6.146433E2,9.423542E0],"tree_param":{"num_deleted":"0","num_feature":"2048","num_nodes":"29","size_leaf_vector":"1"}},{"base_weights":[1.2515385E-1,-1.5921693E-1,6.4230734E-1,2.216107E-2,-5.8727678E-2,7.650834E-1,-5.895175E-1,-6.6206686E-2,1.2564945E0,7.979816E-1,-7.760578E-2,-6.5909676E-2,6.2683605E-2,-1.4142919E-1,1.2134794E0,1.3321792E0,-4.0194955E-2,8.3699733E-1,-5.6220975E-2,-1.8617315E-2,-6.1334085E-2,1.49844E0,-5.353857E-2,1.4025456E0,-3.8784385E-2,8.709809E-1,-6.839755E-2,-5.0105094E-3,6.3665375E-2,5.891294E-2,8.9190446E-2,7.362616E-2,-3.7167E-2,4.488277E-2,-9.821903E-2],"categories":[],"categories_nodes":[],"categories_segments":[],"categories_sizes":[],"default_left":[0,0,0,0,0,0,0,0,0,0,0,0,0,0,0,0,0,0,0,0,0,0,0,0,0,0,0,0,0,0,0,0,0,0,0],"id":25,"left_children":[1,3,5,7,-1,9,11,13,15,17,-1,-1,-1,19,21,23,-1,25,-1,27,-1,29,-1,31,-1,33,-1,-1,-1,-1,-1,-1,-1,-1,-1],"loss_changes":[1.8528482E2,1.4979478E2,6.80468E1,7.545166E1,0E0,3.2255264E1,5.6819298E1,6.233357E1,8.277435E0,3.1080536E1,0E0,0E0,0E0,8.138671E1,2.5009144E1,7.7553635E0,0E0,3.0746002E1,0E0,5.8075436E1,0E0,8.572235E-1,0E0,7.6801987E0,0E0,3.1187286E1,0E0,0E0,0E0,0E0,0E0,0E0,0E0,0E0,0E0],"parents":[2147483647,0,0,1,1,2,2,3,3,5,5,6,6,7,7,8,8,9,9,13,13,14,14,15,15,17,17,19,19,21,21,23,23,25,25],"right_children":[2,4,6,8,-1,10,12,14,16,18,-1,-1,-1,20,22,24,-1,26,-1,28,-1,30,-1,32,-1,34,-1,-1,-1,-1,-1,-1,-1,-1,-1],"split_conditions":[1E0,1E0,1E0,1E0,-5.8727678E-2,1E0,1E0,1E0,1E0,1E0,-7.760578E-2,-6.5909676E-2,6.2683605E-2,1E0,1E0,1E0,-4.0194955E-2,1E0,-5.6220975E-2,1E0,-6.1334085E-2,1E0,-5.353857E-2,1E0,-3.8784385E-2,1E0,-6.839755E-2,-5.0105094E-3,6.3665375E-2,5.891294E-2,8.9190446E-2,7.362616E-2,-3.7167E-2,4.488277E-2,-9.821903E-2],"split_indices":[1325,794,1873,1831,0,1154,197,1920,389,591,0,0,0,389,650,1,0,585,0,1818,0,736,0,1017,0,513,0,0,0,0,0,0,0,0,0],"split_type":[0,0,0,0,0,0,0,0,0,0,0,0,0,0,0,0,0,0,0,0,0,0,0,0,0,0,0,0,0,0,0,0,0,0,0],"sum_hessian":[1.2582028E3,8.1225476E2,4.45948E2,6.899766E2,1.2227808E2,4.0587347E2,4.0074528E1,6.447634E2,4.5213207E1,4.0083823E2,5.035244E0,2.8924507E1,1.1150021E1,6.0980725E2,3.4956203E1,4.395214E1,1.2610639E0,3.934183E2,7.4199314E0,5.4872797E2,6.1079273E1,3.138494E1,3.5712636E0,4.2856102E1,1.0960399E0,3.8804263E2,5.3756866E0,5.169988E2,3.1729168E1,1.7207354E1,1.4177587E1,4.1806576E1,1.0495268E0,3.8510306E2,2.9395528E0],"tree_param":{"num_deleted":"0","num_feature":"2048","num_nodes":"35","size_leaf_vector":"1"}},{"base_weights":[9.777512E-2,-8.732957E-2,7.8753644E-1,1.5799599E-2,-6.101635E-2,8.534728E-1,-6.5553054E-2,1.0828708E-1,-5.743094E-2,9.0163946E-1,-7.853107E-2,1.6435191E-1,-6.1110146E-2,9.4230205E-1,-5.7200074E-2,2.1778372E-1,-6.1026134E-2,9.6555793E-1,-7.267107E-2,9.010887E-3,9.903738E-2,4.9583476E-2,-5.9841663E-2],"categories":[],"categories_nodes":[],"categories_segments":[],"categories_sizes":[],"default_left":[0,0,0,0,0,0,0,0,0,0,0,0,0,0,0,0,0,0,0,0,0,0,0],"id":26,"left_children":[1,3,5,7,-1,9,-1,11,-1,13,-1,15,-1,17,-1,19,-1,21,-1,-1,-1,-1,-1],"loss_changes":[1.5459766E2,1.1162095E2,3.6567047E1,9.451041E1,0E0,3.0486938E1,0E0,6.0834366E1,0E0,2.1437607E1,0E0,5.804693E1,0E0,1.4804962E1,0E0,4.9492767E1,0E0,1.4671982E1,0E0,0E0,0E0,0E0,0E0],"parents":[2147483647,0,0,1,1,2,2,3,3,5,5,7,7,9,9,11,11,13,13,15,15,17,17],"right_children":[2,4,6,8,-1,10,-1,12,-1,14,-1,16,-1,18,-1,20,-1,22,-1,-1,-1,-1,-1],"split_conditions":[1E0,1E0,1E0,1E0,-6.101635E-2,1E0,-6.5553054E-2,1E0,-5.743094E-2,1E0,-7.853107E-2,1E0,-6.1110146E-2,1E0,-5.7200074E-2,1E0,-6.1026134E-2,1E0,-7.267107E-2,9.010887E-3,9.903738E-2,4.9583476E-2,-5.9841663E-2],"split_indices":[1292,389,585,1444,0,1386,0,1356,0,519,0,479,0,999,0,2024,0,679,0,0,0,0,0],"split_type":[0,0,0,0,0,0,0,0,0,0,0,0,0,0,0,0,0,0,0,0,0,0,0],"sum_hessian":[1.2093011E3,9.5412506E2,2.5517607E2,8.754268E2,7.869818E1,2.4797809E2,7.197976E0,8.1185016E2,6.357667E1,2.4376259E2,4.215502E0,7.798644E2,3.198582E1,2.3954044E2,4.2221456E0,7.517045E2,2.815984E1,2.3782875E2,1.7116945E0,7.371003E2,1.4604227E1,2.355261E2,2.3026557E0],"tree_param":{"num_deleted":"0","num_feature":"2048","num_nodes":"23","size_leaf_vector":"1"}},{"base_weights":[4.0876072E-2,3.92809E-1,-3.6888865E-1,2.2523569E-1,1.0808202E0,-5.003331E-1,1.3088205E0,1.4286187E-1,1.4286731E0,1.1500171E0,-6.8353675E-2,-5.738821E-1,1.6280937E0,9.8148775E-1,7.2256416E-2,4.508205E-1,-5.6026864E-1,7.9195365E-2,-4.5191493E-2,1.2111518E0,-6.1552327E-2,-7.48129E-1,4.9929863E-1,-4.0701225E-2,9.968763E-2,-4.3659143E-2,6.5838955E-2,5.158177E-1,-7.228886E-2,-7.9148257E-1,7.8061916E-2,1.2525188E0,-5.3436667E-2,-8.4037024E-1,8.105827E-2,8.2291645E-1,-5.975309E-2,2.808758E-2,-8.978471E-2,-5.3857543E-2,6.965385E-2,5.2835166E-2,8.8698976E-2,-4.7054972E-2,7.5832576E-2,5.0695565E-2,-5.200999E-2],"categories":[],"categories_nodes":[],"categories_segments":[],"categories_sizes":[],"default_left":[0,0,0,0,0,0,0,0,0,0,0,0,0,0,0,0,0,0,0,0,0,0,0,0,0,0,0,0,0,0,0,0,0,0,0,0,0,0,0,0,0,0,0,0,0,0,0],"id":27,"left_children":[1,3,5,7,9,11,13,15,17,19,-1,21,23,25,-1,27,29,-1,-1,31,-1,33,35,-1,-1,-1,-1,37,-1,39,-1,41,-1,43,-1,45,-1,-1,-1,-1,-1,-1,-1,-1,-1,-1,-1],"loss_changes":[1.6930638E2,7.256682E1,1.2028929E2,5.026392E1,2.2478973E1,7.980189E1,3.5258484E-1,1.03669075E2,1.3200676E1,1.904277E1,0E0,9.157579E1,1.6882607E1,1.0344596E1,0E0,4.1756905E1,7.280917E1,0E0,0E0,1.2473297E1,0E0,9.314986E1,3.866788E1,0E0,0E0,0E0,0E0,3.523987E1,0E0,8.402419E1,0E0,1.0012955E1,0E0,9.7561615E1,0E0,2.1799477E1,0E0,0E0,0E0,0E0,0E0,0E0,0E0,0E0,0E0,0E0,0E0],"parents":[2147483647,0,0,1,1,2,2,3,3,4,4,5,5,6,6,7,7,8,8,9,9,11,11,12,12,13,13,15,15,16,16,19,19,21,21,22,22,27,27,29,29,31,31,33,33,35,35],"right_children":[2,4,6,8,10,12,14,16,18,20,-1,22,24,26,-1,28,30,-1,-1,32,-1,34,36,-1,-1,-1,-1,38,-1,40,-1,42,-1,44,-1,46,-1,-1,-1,-1,-1,-1,-1,-1,-1,-1,-1],"split_conditions":[1E0,1E0,1E0,1E0,1E0,1E0,1E0,1E0,1E0,1E0,-6.8353675E-2,1E0,1E0,1E0,7.2256416E-2,1E0,1E0,7.9195365E-2,-4.5191493E-2,1E0,-6.1552327E-2,1E0,1E0,-4.0701225E-2,9.968763E-2,-4.3659143E-2,6.5838955E-2,1E0,-7.228886E-2,1E0,7.8061916E-2,1E0,-5.3436667E-2,1E0,8.105827E-2,1E0,-5.975309E-2,2.808758E-2,-8.978471E-2,-5.3857543E-2,6.965385E-2,5.2835166E-2,8.8698976E-2,-4.7054972E-2,7.5832576E-2,5.0695565E-2,-5.200999E-2],"split_indices":[80,1257,197,1920,656,1829,828,1873,650,1028,0,114,36,56,0,1722,1031,0,0,114,0,475,694,0,0,0,0,2044,0,1930,0,650,0,1745,0,1908,0,0,0,0,0,0,0,0,0,0,0],"split_type":[0,0,0,0,0,0,0,0,0,0,0,0,0,0,0,0,0,0,0,0,0,0,0,0,0,0,0,0,0,0,0,0,0,0,0,0,0,0,0,0,0,0,0,0,0,0,0],"sum_hessian":[1.1720243E3,6.305273E2,5.41497E2,5.081007E2,1.224266E2,5.028052E2,3.8691795E1,4.7659695E2,3.150376E1,1.19576614E2,2.8499832E0,4.867168E2,1.608841E1,1.3786095E1,2.49057E1,3.3168408E2,1.4491287E2,2.9838846E1,1.6649119E0,1.1706234E2,2.5142763E0,4.1899036E2,6.7726456E1,1.9355174E0,1.4152891E1,1.8650855E0,1.1921009E1,3.2139767E2,1.0286404E1,1.3123685E2,1.367602E1,1.1541877E2,1.6435715E0,4.0391064E2,1.5079715E1,5.7297184E1,1.0429271E1,3.158776E2,5.520078E0,1.1650833E2,1.4728515E1,8.6109825E1,2.9308943E1,3.8793274E2,1.5977896E1,5.2383007E1,4.914176E0],"tree_param":{"num_deleted":"0","num_feature":"2048","num_nodes":"47","size_leaf_vector":"1"}},{"base_weights":[1.0630084E-1,-3.6622918E-1,5.0868106E-1,-4.9377453E-1,1.2973112E0,5.6276965E-1,-6.637898E-2,-6.146606E-1,1.167571E0,-3.831304E-2,7.041948E-2,7.051833E-1,3.233583E-2,-7.5276834E-1,1.1253401E0,6.919334E-1,8.754982E-2,7.3935986E-1,-6.7398146E-2,-2.1625298E-1,1.0026846E-1,-8.3771855E-1,8.035156E-2,1.4571663E0,-5.3063344E-2,-6.2369294E-2,7.967415E-2,7.7030337E-1,-7.325288E-2,-5.80543E-1,1.1007401E0,-4.6309523E-2,7.711411E-2,7.8365974E-2,-3.8592253E-2,4.0037885E-2,-6.9225155E-2,-4.541604E-2,6.277152E-2,3.844527E-2,6.697851E-2],"categories":[],"categories_nodes":[],"categories_segments":[],"categories_sizes":[],"default_left":[0,0,0,0,0,0,0,0,0,0,0,0,0,0,0,0,0,0,0,0,0,0,0,0,0,0,0,0,0,0,0,0,0,0,0,0,0,0,0,0,0],"id":28,"left_children":[1,3,5,7,9,11,-1,13,15,-1,-1,17,19,21,23,25,-1,27,-1,29,-1,31,-1,33,-1,-1,-1,35,-1,37,39,-1,-1,-1,-1,-1,-1,-1,-1,-1,-1],"loss_changes":[2.2822032E2,1.17795975E2,6.5122574E1,1.03858475E2,1.0155235E1,4.7591705E1,0E0,1.1604677E2,8.550598E0,0E0,0E0,3.586061E1,6.6382324E1,9.049962E1,2.7415024E1,3.876183E1,0E0,3.4509247E1,0E0,5.83629E1,0E0,9.195709E1,0E0,8.9136505E0,0E0,0E0,0E0,3.282083E1,0E0,5.8251335E1,1.0634193E0,0E0,0E0,0E0,0E0,0E0,0E0,0E0,0E0,0E0,0E0],"parents":[2147483647,0,0,1,1,2,2,3,3,4,4,5,5,7,7,8,8,11,11,12,12,13,13,14,14,15,15,17,17,19,19,21,21,23,23,27,27,29,29,30,30],"right_children":[2,4,6,8,10,12,-1,14,16,-1,-1,18,20,22,24,26,-1,28,-1,30,-1,32,-1,34,-1,-1,-1,36,-1,38,40,-1,-1,-1,-1,-1,-1,-1,-1,-1,-1],"split_conditions":[1E0,1E0,1E0,1E0,1E0,1E0,-6.637898E-2,1E0,1E0,-3.831304E-2,7.041948E-2,1E0,1E0,1E0,1E0,1E0,8.754982E-2,1E0,-6.7398146E-2,1E0,1.0026846E-1,1E0,8.035156E-2,1E0,-5.3063344E-2,-6.2369294E-2,7.967415E-2,1E0,-7.325288E-2,1E0,1E0,-4.6309523E-2,7.711411E-2,7.8365974E-2,-3.8592253E-2,4.0037885E-2,-6.9225155E-2,-4.541604E-2,6.277152E-2,3.844527E-2,6.697851E-2],"split_indices":[926,1344,832,1831,1152,1873,0,1920,759,0,0,950,88,475,650,133,0,751,0,383,0,1614,0,695,0,0,0,585,0,805,516,0,0,0,0,0,0,0,0,0,0],"split_type":[0,0,0,0,0,0,0,0,0,0,0,0,0,0,0,0,0,0,0,0,0,0,0,0,0,0,0,0,0,0,0,0,0,0,0,0,0,0,0,0,0],"sum_hessian":[1.1983159E3,5.511591E2,6.471568E2,5.1256354E2,3.8595596E1,6.2931335E2,1.7843435E1,4.7838443E2,3.417913E1,1.6701342E0,3.692546E1,4.9585434E2,1.3345905E2,4.4373184E2,3.465259E1,2.0033115E1,1.4146016E1,4.8836493E2,7.4894013E0,1.19316376E2,1.4142659E1,4.289356E2,1.4796211E1,3.0376442E1,4.2761497E0,6.2357717E0,1.3797344E1,4.822462E2,6.1187377E0,9.390167E1,2.5414703E1,4.1415118E2,1.4784423E1,2.9228868E1,1.1475742E0,4.761451E2,6.1010804E0,8.010562E1,1.3796057E1,1.2402256E1,1.3012447E1],"tree_param":{"num_deleted":"0","num_feature":"2048","num_nodes":"41","size_leaf_vector":"1"}},{"base_weights":[7.62863E-2,1.7843126E-1,-5.6845583E-2,-3.610779E-2,5.480022E-1,-3.258198E-1,4.875773E-1,7.2651E-1,-5.440256E-1,-4.571963E-1,1.2633005E0,6.671162E-1,-7.090723E-2,7.989356E-1,-5.9750356E-2,-6.424513E-2,7.8156345E-2,-6.417695E-1,7.812516E-1,1.3575846E0,-3.618422E-2,8.19483E-1,-7.0248514E-2,8.5075605E-1,-6.737106E-2,-4.153484E-2,4.647462E-2,-6.978413E-2,4.94391E-2,5.0381016E-2,8.4082216E-2,4.3399077E-2,-6.649276E-2,4.529695E-2,-5.363939E-2],"categories":[],"categories_nodes":[],"categories_segments":[],"categories_sizes":[],"default_left":[0,0,0,0,0,0,0,0,0,0,0,0,0,0,0,0,0,0,0,0,0,0,0,0,0,0,0,0,0,0,0,0,0,0,0],"id":29,"left_children":[1,3,-1,5,7,9,11,13,15,17,19,21,-1,23,-1,-1,-1,25,27,29,-1,31,-1,33,-1,-1,-1,-1,-1,-1,-1,-1,-1,-1,-1],"loss_changes":[1.4102264E2,8.31904E1,0E0,1.0099567E2,7.551221E1,9.003828E1,8.207929E1,4.710681E1,8.742117E1,9.113981E1,7.1621666E0,6.9785225E1,0E0,3.6758926E1,0E0,0E0,0E0,1.03376495E2,2.4819172E1,1.916462E0,0E0,2.2328674E1,0E0,3.4222275E1,0E0,0E0,0E0,0E0,0E0,0E0,0E0,0E0,0E0,0E0,0E0],"parents":[2147483647,0,0,1,1,3,3,4,4,5,5,6,6,7,7,8,8,9,9,10,10,11,11,13,13,17,17,18,18,19,19,21,21,23,23],"right_children":[2,4,-1,6,8,10,12,14,16,18,20,22,-1,24,-1,-1,-1,26,28,30,-1,32,-1,34,-1,-1,-1,-1,-1,-1,-1,-1,-1,-1,-1],"split_conditions":[1E0,1E0,-5.6845583E-2,1E0,1E0,1E0,1E0,1E0,1E0,1E0,1E0,1E0,-7.090723E-2,1E0,-5.9750356E-2,-6.424513E-2,7.8156345E-2,1E0,1E0,1E0,-3.618422E-2,1E0,-7.0248514E-2,1E0,-6.737106E-2,-4.153484E-2,4.647462E-2,-6.978413E-2,4.94391E-2,5.0381016E-2,8.4082216E-2,4.3399077E-2,-6.649276E-2,4.529695E-2,-5.363939E-2],"split_indices":[591,283,0,1060,1873,1831,1309,13,741,890,389,1917,0,1349,0,0,0,235,650,759,0,294,0,1911,0,0,0,0,0,0,0,0,0,0,0],"split_type":[0,0,0,0,0,0,0,0,0,0,0,0,0,0,0,0,0,0,0,0,0,0,0,0,0,0,0,0,0,0,0,0,0,0,0],"sum_hessian":[1.1353577E3,1.0479764E3,8.738125E1,6.636337E2,3.843427E2,4.27507E2,2.3612674E2,3.3063098E2,5.3711727E1,3.9552063E2,3.1986366E1,2.1639043E2,1.9736307E1,3.1918454E2,1.1446449E1,4.0028046E1,1.3683682E1,3.4463885E2,5.0881783E1,3.0839756E1,1.1466103E0,2.0213159E2,1.4258829E1,3.122494E2,6.9351497E0,3.0806827E2,3.6570568E1,3.9301755E0,4.6951607E1,1.6802965E1,1.4036792E1,1.9825427E2,3.8773267E0,3.0405563E2,8.1937685E0],"tree_param":{"num_deleted":"0","num_feature":"2048","num_nodes":"35","size_leaf_vector":"1"}},{"base_weights":[1.1820314E-1,2.1853907E-1,-5.6433327E-2,3.0734608E-1,-6.0106616E-2,1.8253493E-1,9.955053E-1,-1.33368075E-2,5.4124093E-1,1.0170361E0,-4.3876123E-2,9.343168E-2,-6.2493403E-2,6.753866E-1,-4.323412E-1,1.0364165E0,-4.639135E-2,1.8498186E-3,9.723299E-2,3.734123E-2,-6.3236766E-2,-7.17767E-2,6.521737E-2,5.2783843E-2,-4.164317E-2],"categories":[],"categories_nodes":[],"categories_segments":[],"categories_sizes":[],"default_left":[0,0,0,0,0,0,0,0,0,0,0,0,0,0,0,0,0,0,0,0,0,0,0,0,0],"id":30,"left_children":[1,3,-1,5,-1,7,9,11,13,15,-1,17,-1,19,21,23,-1,-1,-1,-1,-1,-1,-1,-1,-1],"loss_changes":[1.4577492E2,1.3630585E2,0E0,8.698382E1,0E0,6.0450172E1,7.1666718E0,7.3707115E1,3.997719E1,6.7766266E0,0E0,5.363153E1,0E0,3.801352E1,6.704518E1,6.395767E0,0E0,0E0,0E0,0E0,0E0,0E0,0E0,0E0,0E0],"parents":[2147483647,0,0,1,1,3,3,5,5,6,6,7,7,8,8,9,9,11,11,13,13,14,14,15,15],"right_children":[2,4,-1,6,-1,8,10,12,14,16,-1,18,-1,20,22,24,-1,-1,-1,-1,-1,-1,-1,-1,-1],"split_conditions":[1E0,1E0,-5.6433327E-2,1E0,-6.0106616E-2,1E0,1E0,1E0,1E0,1E0,-4.3876123E-2,1E0,-6.2493403E-2,1E0,1E0,1E0,-4.639135E-2,1.8498186E-3,9.723299E-2,3.734123E-2,-6.3236766E-2,-7.17767E-2,6.521737E-2,5.2783843E-2,-4.164317E-2],"split_indices":[591,389,0,1818,0,1060,1544,656,1917,1873,0,269,0,519,516,229,0,0,0,0,0,0,0,0,0],"split_type":[0,0,0,0,0,0,0,0,0,0,0,0,0,0,0,0,0,0,0,0,0,0,0,0,0],"sum_hessian":[1.1622413E3,1.0764443E3,8.5797035E1,1.0138515E3,6.2592793E1,8.592711E2,1.5458038E2,5.564072E2,3.028639E2,1.5327547E2,1.3049196E0,5.130337E2,4.3373535E1,2.664563E2,3.6407585E1,1.5222565E2,1.0498234E0,4.9884616E2,1.4187509E1,2.5758667E2,8.86963E0,2.3187057E1,1.3220527E1,1.5110399E2,1.1216575E0],"tree_param":{"num_deleted":"0","num_feature":"2048","num_nodes":"25","size_leaf_vector":"1"}},{"base_weights":[1.340391E-1,4.5382687E-1,-2.6817504E-1,3.1049687E-1,1.0427238E0,-4.2747307E-1,1.0888124E0,3.5956842E-1,-5.8694184E-2,1.0938959E0,-9.776701E-2,-7.1798337E-1,1.6918193E-1,-5.4006644E-2,1.5649118E0,4.081568E-1,-5.9800267E-2,1.1554482E0,-6.5994315E-2,-8.921606E-1,1.2541612E0,4.0436062E-1,-7.115795E-2,1.6391184E0,-3.3871043E-2,6.62826E-1,1.21323854E-1,1.1959426E0,-4.6883665E-2,-5.8232304E-2,9.084333E-2,-3.1759318E-2,6.8311214E-2,1.8615207E-1,7.189819E-2,1.1842723E0,9.015062E-2,-6.374374E-2,3.6461912E-2,1.4111305E-2,-7.240992E-2,6.1171886E-2,-3.994589E-2,-1.8343046E-2,7.74177E-2,-1.0854884E-2,5.732682E-2,-3.2850217E-2,6.870469E-2],"categories":[],"categories_nodes":[],"categories_segments":[],"categories_sizes":[],"default_left":[0,0,0,0,0,0,0,0,0,0,0,0,0,0,0,0,0,0,0,0,0,0,0,0,0,0,0,0,0,0,0,0,0,0,0,0,0,0,0,0,0,0,0,0,0,0,0,0,0],"id":31,"left_children":[1,3,5,7,9,11,13,15,-1,17,-1,19,21,-1,23,25,-1,27,-1,29,31,33,-1,35,-1,37,39,41,-1,-1,43,-1,-1,45,-1,47,-1,-1,-1,-1,-1,-1,-1,-1,-1,-1,-1,-1,-1],"loss_changes":[1.4943623E2,5.4293198E1,1.11746994E2,3.8432865E1,2.1505905E1,8.01036E1,5.7830086E1,3.872547E1,0E0,2.006108E1,0E0,1.0778439E2,5.746326E1,0E0,8.596268E0,3.5809425E1,0E0,1.1478241E1,0E0,7.668747E1,6.2911873E0,2.9760729E1,0E0,1.1328278E0,0E0,3.4391983E1,5.9072014E1,7.5763397E0,0E0,0E0,4.258237E1,0E0,0E0,4.326741E1,0E0,5.9799633E0,0E0,0E0,0E0,0E0,0E0,0E0,0E0,0E0,0E0,0E0,0E0,0E0,0E0],"parents":[2147483647,0,0,1,1,2,2,3,3,4,4,5,5,6,6,7,7,9,9,11,11,12,12,14,14,15,15,17,17,19,19,20,20,21,21,23,23,25,25,26,26,27,27,30,30,33,33,35,35],"right_children":[2,4,6,8,10,12,14,16,-1,18,-1,20,22,-1,24,26,-1,28,-1,30,32,34,-1,36,-1,38,40,42,-1,-1,44,-1,-1,46,-1,48,-1,-1,-1,-1,-1,-1,-1,-1,-1,-1,-1,-1,-1],"split_conditions":[1E0,1E0,1E0,1E0,1E0,1E0,1E0,1E0,-5.8694184E-2,1E0,-9.776701E-2,1E0,1E0,-5.4006644E-2,1E0,1E0,-5.9800267E-2,1E0,-6.5994315E-2,1E0,1E0,1E0,-7.115795E-2,1E0,-3.3871043E-2,1E0,1E0,1E0,-4.6883665E-2,-5.8232304E-2,1E0,-3.1759318E-2,6.8311214E-2,1E0,7.189819E-2,1E0,9.015062E-2,-6.374374E-2,3.6461912E-2,1.4111305E-2,-7.240992E-2,6.1171886E-2,-3.994589E-2,-1.8343046E-2,7.74177E-2,-1.0854884E-2,5.732682E-2,-3.2850217E-2,6.870469E-2],"split_indices":[80,1257,844,835,760,926,283,378,0,1028,0,1344,694,0,2025,650,0,656,0,1238,295,371,0,1847,0,1057,1722,519,0,0,439,0,0,890,0,1722,0,0,0,0,0,0,0,0,0,0,0,0,0],"split_type":[0,0,0,0,0,0,0,0,0,0,0,0,0,0,0,0,0,0,0,0,0,0,0,0,0,0,0,0,0,0,0,0,0,0,0,0,0,0,0,0,0,0,0,0,0,0,0,0,0],"sum_hessian":[1.159868E3,6.460699E2,5.1379816E2,5.20833E2,1.252369E2,4.6043253E2,5.336563E1,5.048995E2,1.5933513E1,1.2375965E2,1.4772481E0,3.0952298E2,1.5090955E2,9.377276E0,4.3988354E1,4.903219E2,1.4577602E1,1.2119056E2,2.5690892E0,2.849079E2,2.4615074E1,1.3213945E2,1.8770102E1,4.283965E1,1.1487018E0,2.590285E2,2.3129338E2,1.1931095E2,1.8796088E0,2.2292816E2,6.1979733E1,1.1168704E0,2.3498203E1,1.10080055E2,2.2059387E1,1.3526402E1,2.931325E1,7.980685E0,2.5104782E2,2.1053065E2,2.0762724E1,1.18070305E2,1.2406523E0,4.7737083E1,1.424265E1,7.807259E1,3.2007465E1,1.0341299E0,1.2492272E1],"tree_param":{"num_deleted":"0","num_feature":"2048","num_nodes":"49","size_leaf_vector":"1"}},{"base_weights":[7.013984E-2,1.5502693E-1,-5.8648724E-2,2.1097177E-1,-5.9550047E-2,2.5789353E-1,-5.936091E-2,2.9668343E-1,-6.0176175E-2,2.4936771E-1,7.011872E-2,1.4718006E-2,-5.9933092E-2],"categories":[],"categories_nodes":[],"categories_segments":[],"categories_sizes":[],"default_left":[0,0,0,0,0,0,0,0,0,0,0,0,0],"id":32,"left_children":[1,3,-1,5,-1,7,-1,9,-1,11,-1,-1,-1],"loss_changes":[1.1452949E2,7.670157E1,0E0,6.430887E1,0E0,5.391125E1,0E0,4.7838516E1,0E0,5.797877E1,0E0,0E0,0E0],"parents":[2147483647,0,0,1,1,3,3,5,5,7,7,9,9],"right_children":[2,4,-1,6,-1,8,-1,10,-1,12,-1,-1,-1],"split_conditions":[1E0,1E0,-5.8648724E-2,1E0,-5.9550047E-2,1E0,-5.936091E-2,1E0,-6.0176175E-2,1E0,7.011872E-2,1.4718006E-2,-5.9933092E-2],"split_indices":[1564,13,0,1356,0,116,0,197,0,378,0,0,0],"split_type":[0,0,0,0,0,0,0,0,0,0,0,0,0],"sum_hessian":[1.0826138E3,1.01423145E3,6.838235E1,9.745688E2,3.9662663E1,9.437143E2,3.085448E1,9.2008966E2,2.3624647E1,8.835073E2,3.6582306E1,8.5765546E2,2.5851896E1],"tree_param":{"num_deleted":"0","num_feature":"2048","num_nodes":"13","size_leaf_vector":"1"}},{"base_weights":[1.476659E-1,4.5692906E-1,-2.669769E-1,4.9244216E-1,-5.8377035E-2,-4.2368683E-1,9.9353486E-1,5.230276E-1,-7.2096966E-2,-6.6427916E-1,5.894988E-1,-5.219063E-2,1.3744228E0,5.5243194E-1,-5.7990503E-2,-9.174759E-1,6.1530817E-1,-1.3439464E-2,7.066252E-2,1.4952465E0,-4.2844232E-2,5.7843775E-1,-6.7777425E-2,-1.0400355E0,1.1156673E0,-6.45648E-2,8.2419467E-1,-6.055742E-2,1.048943E0,8.8902456E-1,8.834206E-2,3.026613E-2,-6.2356856E-2,-6.0023744E-2,4.0675662E-2,-4.821127E-2,7.783676E-2,4.772107E-2,-5.6574702E-2,5.9875757E-2,-5.0280597E-2,-4.832356E-2,6.67577E-2],"categories":[],"categories_nodes":[],"categories_segments":[],"categories_sizes":[],"default_left":[0,0,0,0,0,0,0,0,0,0,0,0,0,0,0,0,0,0,0,0,0,0,0,0,0,0,0,0,0,0,0,0,0,0,0,0,0,0,0,0,0,0,0],"id":33,"left_children":[1,3,5,7,-1,9,11,13,-1,15,17,-1,19,21,-1,23,25,27,-1,29,-1,31,-1,33,35,-1,37,-1,39,41,-1,-1,-1,-1,-1,-1,-1,-1,-1,-1,-1,-1,-1],"loss_changes":[1.472947E2,3.8520447E1,9.739894E1,3.887831E1,0E0,1.07003654E2,4.379268E1,3.206642E1,0E0,1.15223816E2,4.1965794E1,0E0,1.3795616E1,3.1788544E1,0E0,7.487862E1,2.458516E1,6.457898E1,0E0,5.739395E0,0E0,3.1045074E1,0E0,8.410681E1,1.7373592E1,0E0,1.4791374E1,0E0,9.416231E0,1.4327878E1,0E0,0E0,0E0,0E0,0E0,0E0,0E0,0E0,0E0,0E0,0E0,0E0,0E0],"parents":[2147483647,0,0,1,1,2,2,3,3,5,5,6,6,7,7,9,9,10,10,12,12,13,13,15,15,16,16,17,17,19,19,21,21,23,23,24,24,26,26,28,28,29,29],"right_children":[2,4,6,8,-1,10,12,14,-1,16,18,-1,20,22,-1,24,26,28,-1,30,-1,32,-1,34,36,-1,38,-1,40,42,-1,-1,-1,-1,-1,-1,-1,-1,-1,-1,-1,-1,-1],"split_conditions":[1E0,1E0,1E0,1E0,-5.8377035E-2,1E0,1E0,1E0,-7.2096966E-2,1E0,1E0,-5.219063E-2,1E0,1E0,-5.7990503E-2,1E0,1E0,1E0,7.066252E-2,1E0,-4.2844232E-2,1E0,-6.7777425E-2,1E0,1E0,-6.45648E-2,1E0,-6.055742E-2,1E0,1E0,8.834206E-2,3.026613E-2,-6.2356856E-2,-6.0023744E-2,4.0675662E-2,-4.821127E-2,7.783676E-2,4.772107E-2,-5.6574702E-2,5.9875757E-2,-5.0280597E-2,-4.832356E-2,6.67577E-2],"split_indices":[80,378,844,953,0,222,1,2033,0,1028,114,0,31,2026,0,1211,650,1060,0,1847,0,519,0,1372,759,0,1017,0,139,1722,0,0,0,0,0,0,0,0,0,0,0,0,0],"split_type":[0,0,0,0,0,0,0,0,0,0,0,0,0,0,0,0,0,0,0,0,0,0,0,0,0,0,0,0,0,0,0,0,0,0,0,0,0,0,0,0,0,0,0],"sum_hessian":[1.1466908E3,6.567494E2,4.8994144E2,6.433811E2,1.3368316E1,4.363564E2,5.358503E1,6.340849E2,9.296212E0,3.5290054E2,8.345585E1,8.165858E0,4.541917E1,6.2385596E2,1.0228945E1,2.9484204E2,5.8058506E1,4.8754253E1,3.4701595E1,4.3399025E1,2.0201478E0,6.161546E2,7.7013607E0,2.785399E2,1.6302166E1,5.22112E0,5.2837383E1,2.2851686E1,2.5902567E1,1.4749734E1,2.864929E1,6.0787103E2,8.283573E0,2.5667496E2,2.1864914E1,2.6447074E0,1.3657458E1,5.0018684E1,2.8186986E0,2.4544788E1,1.3577788E0,2.6328995E0,1.2116835E1],"tree_param":{"num_deleted":"0","num_feature":"2048","num_nodes":"43","size_leaf_vector":"1"}},{"base_weights":[1.284151E-1,2.1446395E-1,-5.5319663E-2,-4.8640937E-2,4.345558E-1,-1.3456549E-1,1.3714564E0,4.7019714E-1,-6.0969573E-2,-2.3941028E-1,1.2247893E0,9.8028636E-1,8.0481045E-2,5.031116E-1,-6.2054675E-2,-3.5586408E-1,1.2062097E0,1.3330208E0,-3.6844205E-2,-3.4214776E-2,6.0705896E-2,5.3158844E-1,-6.7074366E-2,-2.2107124E-2,8.616981E-2,-3.9863627E-2,6.5083236E-2,5.197544E-2,7.911195E-2,2.79112E-2,-6.529973E-2],"categories":[],"categories_nodes":[],"categories_segments":[],"categories_sizes":[],"default_left":[0,0,0,0,0,0,0,0,0,0,0,0,0,0,0,0,0,0,0,0,0,0,0,0,0,0,0,0,0,0,0],"id":34,"left_children":[1,3,-1,5,7,9,11,13,-1,15,17,19,-1,21,-1,23,25,27,-1,-1,-1,29,-1,-1,-1,-1,-1,-1,-1,-1,-1],"loss_changes":[1.17903244E2,6.001876E1,0E0,5.7880238E1,3.3836212E1,6.3966988E1,9.4368744E-1,3.1777504E1,0E0,7.039673E1,7.8091583E0,5.813221E0,0E0,2.9254883E1,0E0,6.990097E1,7.0068436E0,6.103554E-1,0E0,0E0,0E0,2.6954422E1,0E0,0E0,0E0,0E0,0E0,0E0,0E0,0E0,0E0],"parents":[2147483647,0,0,1,1,3,3,4,4,5,5,6,6,7,7,9,9,10,10,11,11,13,13,15,15,16,16,17,17,21,21],"right_children":[2,4,-1,6,8,10,12,14,-1,16,18,20,-1,22,-1,24,26,28,-1,-1,-1,30,-1,-1,-1,-1,-1,-1,-1,-1,-1],"split_conditions":[1E0,1E0,-5.5319663E-2,1E0,1E0,1E0,1E0,1E0,-6.0969573E-2,1E0,1E0,1E0,8.0481045E-2,1E0,-6.2054675E-2,1E0,1E0,1E0,-3.6844205E-2,-3.4214776E-2,6.0705896E-2,1E0,-6.7074366E-2,-2.2107124E-2,8.616981E-2,-3.9863627E-2,6.5083236E-2,5.197544E-2,7.911195E-2,2.79112E-2,-6.529973E-2],"split_indices":[591,926,0,197,802,1972,25,519,0,1831,694,56,0,841,0,1626,650,625,0,0,0,31,0,0,0,0,0,0,0,0,0],"split_type":[0,0,0,0,0,0,0,0,0,0,0,0,0,0,0,0,0,0,0,0,0,0,0,0,0,0,0,0,0,0,0],"sum_hessian":[1.1064043E3,1.0350988E3,7.130558E1,4.7183316E2,5.6326556E2,4.4576678E2,2.606637E1,5.520843E2,1.1181305E1,4.146123E2,3.1154482E1,1.1800618E1,1.4265752E1,5.4235876E2,9.72555E0,3.8440027E2,3.021203E1,2.9829182E1,1.3252999E0,1.2162218E0,1.0584396E1,5.348141E2,7.544635E0,3.6984116E2,1.4559114E1,1.0396084E0,2.9172422E1,1.6071892E1,1.375729E1,5.278591E2,6.9550214E0],"tree_param":{"num_deleted":"0","num_feature":"2048","num_nodes":"31","size_leaf_vector":"1"}},{"base_weights":[1.2439868E-1,2.0681642E-1,-5.5029627E-2,9.952963E-2,9.154221E-1,1.4356159E-1,-6.465223E-2,9.4823116E-1,-5.7126682E-2,8.721281E-2,5.7442572E-2,9.7627E-1,-4.844083E-2,1.2895921E-1,-5.963059E-2,8.876293E-1,7.995499E-2,8.423238E-3,-6.2396217E-2,4.5431145E-2,-3.2791216E-2],"categories":[],"categories_nodes":[],"categories_segments":[],"categories_sizes":[],"default_left":[0,0,0,0,0,0,0,0,0,0,0,0,0,0,0,0,0,0,0,0,0],"id":35,"left_children":[1,3,-1,5,7,9,-1,11,-1,13,-1,15,-1,17,-1,19,-1,-1,-1,-1,-1],"loss_changes":[1.111583E2,7.823837E1,0E0,5.512411E1,1.0222969E1,4.9148712E1,0E0,8.136986E0,0E0,4.4196648E1,0E0,5.8875885E0,0E0,4.3682453E1,0E0,4.423027E0,0E0,0E0,0E0,0E0,0E0],"parents":[2147483647,0,0,1,1,3,3,4,4,5,5,7,7,9,9,11,11,13,13,15,15],"right_children":[2,4,-1,6,8,10,-1,12,-1,14,-1,16,-1,18,-1,20,-1,-1,-1,-1,-1],"split_conditions":[1E0,1E0,-5.5029627E-2,1E0,1E0,1E0,-6.465223E-2,1E0,-5.7126682E-2,1E0,5.7442572E-2,1E0,-4.844083E-2,1E0,-5.963059E-2,1E0,7.995499E-2,8.423238E-3,-6.2396217E-2,4.5431145E-2,-3.2791216E-2],"split_indices":[591,1818,0,1035,227,1928,0,574,0,1356,0,43,0,227,0,1544,0,0,0,0,0],"split_type":[0,0,0,0,0,0,0,0,0,0,0,0,0,0,0,0,0,0,0,0,0],"sum_hessian":[1.0977477E3,1.0293254E3,6.8422134E1,8.9496356E2,1.3436194E2,8.6840234E2,2.6561209E1,1.3278426E2,1.5776821E0,8.2333905E2,4.506328E1,1.313538E2,1.430445E0,7.982019E2,2.5137188E1,1.171117E2,1.4242108E1,7.767918E2,2.1410067E1,1.15945946E2,1.1657565E0],"tree_param":{"num_deleted":"0","num_feature":"2048","num_nodes":"21","size_leaf_vector":"1"}},{"base_weights":[1.042079E-1,1.8655163E-1,-5.8614947E-2,2.461785E-1,-5.44012E-2,1.4776081E-1,8.393941E-1,1.8896572E-1,-5.933833E-2,9.5721966E-1,-5.9773814E-2,2.3034044E-1,-5.834653E-2,9.9819326E-1,-4.807202E-2,1.3560176E-2,-5.9090465E-2,5.099162E-2,-3.9907962E-2],"categories":[],"categories_nodes":[],"categories_segments":[],"categories_sizes":[],"default_left":[0,0,0,0,0,0,0,0,0,0,0,0,0,0,0,0,0,0,0],"id":36,"left_children":[1,3,-1,5,-1,7,9,11,-1,13,-1,15,-1,17,-1,-1,-1,-1,-1],"loss_changes":[1.13153404E2,7.704002E1,0E0,5.6264744E1,0E0,4.584432E1,3.4045036E1,4.5464775E1,0E0,1.1200645E1,0E0,4.5481102E1,0E0,5.790901E0,0E0,0E0,0E0,0E0,0E0],"parents":[2147483647,0,0,1,1,3,3,5,5,6,6,7,7,9,9,11,11,13,13],"right_children":[2,4,-1,6,-1,8,10,12,-1,14,-1,16,-1,18,-1,-1,-1,-1,-1],"split_conditions":[1E0,1E0,-5.8614947E-2,1E0,-5.44012E-2,1E0,1E0,1E0,-5.933833E-2,1E0,-5.9773814E-2,1E0,-5.834653E-2,1E0,-4.807202E-2,1.3560176E-2,-5.9090465E-2,5.099162E-2,-3.9907962E-2],"split_indices":[1564,591,0,253,0,116,1722,378,0,1738,0,13,0,1083,0,0,0,0,0],"split_type":[0,0,0,0,0,0,0,0,0,0,0,0,0,0,0,0,0,0,0],"sum_hessian":[1.0734193E3,1.00917426E3,6.4245026E1,9.64844E2,4.4330223E1,8.286205E2,1.3622356E2,8.0463495E2,2.3985527E1,1.292681E2,6.955452E0,7.816143E2,2.3020582E1,1.2703497E2,2.233128E0,7.604182E2,2.1196112E1,1.25950035E2,1.084935E0],"tree_param":{"num_deleted":"0","num_feature":"2048","num_nodes":"19","size_leaf_vector":"1"}},{"base_weights":[3.848044E-2,1.1879047E-1,-5.8768827E-2,-2.5158933E-1,2.8775343E-1,-7.6623005E-1,5.4983944E-1,3.455575E-1,-5.798915E-2,-1.0615858E0,8.423E-1,7.574944E-1,-8.0819674E-2,3.9633542E-1,-5.2302606E-2,-1.3076013E0,7.357502E-2,-5.9524935E-2,1.0075938E0,8.2418644E-1,-6.7687236E-2,4.3485597E-1,-6.561369E-2,-7.158965E-2,-5.7876404E-2,3.0962357E-2,6.826584E-2,4.3935556E-2,-9.287128E-2,2.3676535E-2,-6.218434E-2],"categories":[],"categories_nodes":[],"categories_segments":[],"categories_sizes":[],"default_left":[0,0,0,0,0,0,0,0,0,0,0,0,0,0,0,0,0,0,0,0,0,0,0,0,0,0,0,0,0,0,0],"id":37,"left_children":[1,3,-1,5,7,9,11,13,-1,15,17,19,-1,21,-1,23,-1,-1,25,27,-1,29,-1,-1,-1,-1,-1,-1,-1,-1,-1],"loss_changes":[9.952936E1,5.9973175E1,0E0,1.2431848E2,5.543995E1,8.799934E1,5.4326588E1,4.51653E1,0E0,9.873152E1,1.094396E1,1.6379368E1,0E0,4.083245E1,0E0,9.915161E-1,0E0,0E0,2.955576E0,1.708789E1,0E0,3.9473755E1,0E0,0E0,0E0,0E0,0E0,0E0,0E0,0E0,0E0],"parents":[2147483647,0,0,1,1,3,3,4,4,5,5,6,6,7,7,9,9,10,10,11,11,13,13,15,15,18,18,19,19,21,21],"right_children":[2,4,-1,6,8,10,12,14,-1,16,18,20,-1,22,-1,24,-1,-1,26,28,-1,30,-1,-1,-1,-1,-1,-1,-1,-1,-1],"split_conditions":[1E0,1E0,-5.8768827E-2,1E0,1E0,1E0,1E0,1E0,-5.798915E-2,1E0,1E0,1E0,-8.0819674E-2,1E0,-5.2302606E-2,1E0,7.357502E-2,-5.9524935E-2,1E0,1E0,-6.7687236E-2,1E0,-6.561369E-2,-7.158965E-2,-5.7876404E-2,3.0962357E-2,6.826584E-2,4.3935556E-2,-9.287128E-2,2.3676535E-2,-6.218434E-2],"split_indices":[389,807,0,1274,479,890,1873,1143,0,1031,650,478,0,1349,0,80,0,0,1,508,0,1544,0,0,0,0,0,0,0,0,0],"split_type":[0,0,0,0,0,0,0,0,0,0,0,0,0,0,0,0,0,0,0,0,0,0,0,0,0,0,0,0,0,0,0],"sum_hessian":[1.0185398E3,9.5618005E2,6.235972E1,2.9939478E2,6.567853E2,1.8234506E2,1.17049706E2,6.3229724E2,2.4488066E1,1.5434457E2,2.8000486E1,1.0740425E2,9.645449E0,6.107278E2,2.1569422E1,1.4112244E2,1.3222139E1,1.6391939E0,2.6361292E1,1.047063E2,2.6979535E0,5.979916E2,1.2736211E1,7.254656E1,6.8575874E1,1.3949114E1,1.2412178E1,1.0327867E2,1.427626E0,5.852255E2,1.2766087E1],"tree_param":{"num_deleted":"0","num_feature":"2048","num_nodes":"31","size_leaf_vector":"1"}},{"base_weights":[7.876132E-2,1.5330088E-1,-5.854797E-2,2.2786756E-1,-5.4143377E-2,1.3988703E-1,8.224364E-1,1.9033831E-1,-7.479938E-2,9.266659E-1,-5.483484E-2,2.3168747E-1,-5.835096E-2,9.5756525E-1,-5.3198814E-2,1.351042E-2,-6.265944E-2,-4.651791E-2,4.9388047E-2],"categories":[],"categories_nodes":[],"categories_segments":[],"categories_sizes":[],"default_left":[0,0,0,0,0,0,0,0,0,0,0,0,0,0,0,0,0,0,0],"id":38,"left_children":[1,3,-1,5,-1,7,9,11,-1,13,-1,15,-1,17,-1,-1,-1,-1,-1],"loss_changes":[9.6034904E1,8.983975E1,0E0,4.7879757E1,0E0,6.634651E1,2.4631966E1,4.39012E1,0E0,7.939934E0,0E0,4.3536945E1,0E0,7.2654266E0,0E0,0E0,0E0,0E0,0E0],"parents":[2147483647,0,0,1,1,3,3,5,5,6,6,7,7,9,9,11,11,13,13],"right_children":[2,4,-1,6,-1,8,10,12,-1,14,-1,16,-1,18,-1,-1,-1,-1,-1],"split_conditions":[1E0,1E0,-5.854797E-2,1E0,-5.4143377E-2,1E0,1E0,1E0,-7.479938E-2,1E0,-5.483484E-2,1E0,-5.835096E-2,1E0,-5.3198814E-2,1.351042E-2,-6.265944E-2,-4.651791E-2,4.9388047E-2],"split_indices":[389,591,0,253,0,675,1722,116,0,265,0,227,0,1325,0,0,0,0,0],"split_type":[0,0,0,0,0,0,0,0,0,0,0,0,0,0,0,0,0,0,0],"sum_hessian":[1.0280033E3,9.709673E2,5.7035984E1,9.1649896E2,5.4468296E1,7.994384E2,1.17060555E2,7.763782E2,2.3060284E1,1.1152091E2,5.5396404E0,7.542313E2,2.2146826E1,1.1032735E2,1.1935668E0,7.3595703E2,1.8274298E1,1.2675189E0,1.0905983E2],"tree_param":{"num_deleted":"0","num_feature":"2048","num_nodes":"19","size_leaf_vector":"1"}},{"base_weights":[1.106211E-1,3.9218736E-1,