{"learner":{"attributes":{"scikit_learn":"{\"_estimator_type\": \"classifier\"}"},"feature_names":[],"feature_types":[],"gradient_booster":{"model":{"cats":{"enc":[],"feature_segments":[],"sorted_idx":[]},"gbtree_model_param":{"num_parallel_tree":"1","num_trees":"300"},"iteration_indptr":[0,1,2,3,4,5,6,7,8,9,10,11,12,13,14,15,16,17,18,19,20,21,22,23,24,25,26,27,28,29,30,31,32,33,34,35,36,37,38,39,40,41,42,43,44,45,46,47,48,49,50,51,52,53,54,55,56,57,58,59,60,61,62,63,64,65,66,67,68,69,70,71,72,73,74,75,76,77,78,79,80,81,82,83,84,85,86,87,88,89,90,91,92,93,94,95,96,97,98,99,100,101,102,103,104,105,106,107,108,109,110,111,112,113,114,115,116,117,118,119,120,121,122,123,124,125,126,127,128,129,130,131,132,133,134,135,136,137,138,139,140,141,142,143,144,145,146,147,148,149,150,151,152,153,154,155,156,157,158,159,160,161,162,163,164,165,166,167,168,169,170,171,172,173,174,175,176,177,178,179,180,181,182,183,184,185,186,187,188,189,190,191,192,193,194,195,196,197,198,199,200,201,202,203,204,205,206,207,208,209,210,211,212,213,214,215,216,217,218,219,220,221,222,223,224,225,226,227,228,229,230,231,232,233,234,235,236,237,238,239,240,241,242,243,244,245,246,247,248,249,250,251,252,253,254,255,256,257,258,259,260,261,262,263,264,265,266,267,268,269,270,271,272,273,274,275,276,277,278,279,280,281,282,283,284,285,286,287,288,289,290,291,292,293,294,295,296,297,298,299,300],"tree_info":[0,0,0,0,0,0,0,0,0,0,0,0,0,0,0,0,0,0,0,0,0,0,0,0,0,0,0,0,0,0,0,0,0,0,0,0,0,0,0,0,0,0,0,0,0,0,0,0,0,0,0,0,0,0,0,0,0,0,0,0,0,0,0,0,0,0,0,0,0,0,0,0,0,0,0,0,0,0,0,0,0,0,0,0,0,0,0,0,0,0,0,0,0,0,0,0,0,0,0,0,0,0,0,0,0,0,0,0,0,0,0,0,0,0,0,0,0,0,0,0,0,0,0,0,0,0,0,0,0,0,0,0,0,0,0,0,0,0,0,0,0,0,0,0,0,0,0,0,0,0,0,0,0,0,0,0,0,0,0,0,0,0,0,0,0,0,0,0,0,0,0,0,0,0,0,0,0,0,0,0,0,0,0,0,0,0,0,0,0,0,0,0,0,0,0,0,0,0,0,0,0,0,0,0,0,0,0,0,0,0,0,0,0,0,0,0,0,0,0,0,0,0,0,0,0,0,0,0,0,0,0,0,0,0,0,0,0,0,0,0,0,0,0,0,0,0,0,0,0,0,0,0,0,0,0,0,0,0,0,0,0,0,0,0,0,0,0,0,0,0,0,0,0,0,0,0,0,0,0,0,0,0,0,0,0,0,0,0,0,0,0,0,0,0,0,0,0,0,0,0],"trees":[{"base_weights":[1.9147132E-2,-5.0697273E-1,1.5303351E0,-1.0697515E0,1.4450647E0,1.5497054E0,-8.134606E-2,-1.210736E0,1.5561049E0,1.4908526E0,-8.9867935E-2,1.5674891E0,-7.921767E-2,-7.5265753E-1,-2.0728738E0,-7.6762885E-2,8.500231E-2,1.515559E0,-7.6762885E-2,1.5800377E0,-7.051932E-2,-5.5034345E-1,-1.0999296E-1,-1.1093384E-1,7.271363E-2,1.5322132E0,-6.6464834E-2,1.5926696E0,-7.051932E-2,-3.4907255E-2,6.1085057E-2,7.745083E-2,-6.6464834E-2,8.0269285E-2,-7.051932E-2],"categories":[],"categories_nodes":[],"categories_segments":[],"categories_sizes":[],"default_left":[0,0,0,0,0,0,0,0,0,0,0,0,0,0,0,0,0,0,0,0,0,0,0,0,0,0,0,0,0,0,0,0,0,0,0],"id":0,"left_children":[1,3,5,7,9,11,-1,13,15,17,-1,19,-1,21,23,-1,-1,25,-1,27,-1,29,-1,-1,-1,31,-1,33,-1,-1,-1,-1,-1,-1,-1],"loss_changes":[1.6329095E3,1.6751567E3,3.495752E1,4.398734E2,5.335791E1,3.1892456E1,0E0,4.4209167E2,2.962999E1,2.7533203E1,0E0,2.1853394E1,0E0,2.1403818E2,2.0338562E2,0E0,0E0,1.7904785E1,0E0,2.2019531E1,0E0,1.7013435E2,0E0,0E0,0E0,1.809137E1,0E0,2.2187134E1,0E0,0E0,0E0,0E0,0E0,0E0,0E0],"parents":[2147483647,0,0,1,1,2,2,3,3,4,4,5,5,7,7,8,8,9,9,11,11,13,13,14,14,17,17,19,19,21,21,25,25,27,27],"right_children":[2,4,6,8,10,12,-1,14,16,18,-1,20,-1,22,24,-1,-1,26,-1,28,-1,30,-1,-1,-1,32,-1,34,-1,-1,-1,-1,-1,-1,-1],"split_conditions":[1E0,1E0,1E0,1E0,1E0,1E0,-8.134606E-2,1E0,1E0,1E0,-8.9867935E-2,1E0,-7.921767E-2,1E0,1E0,-7.6762885E-2,8.500231E-2,1E0,-7.6762885E-2,1E0,-7.051932E-2,1E0,-1.0999296E-1,-1.1093384E-1,7.271363E-2,1E0,-6.6464834E-2,1E0,-7.051932E-2,-3.4907255E-2,6.1085057E-2,7.745083E-2,-6.6464834E-2,8.0269285E-2,-7.051932E-2],"split_indices":[116,229,1290,828,1432,1959,0,695,1873,1290,0,1162,0,1325,1387,0,0,841,0,1452,0,1567,0,0,0,1199,0,1824,0,0,0,0,0,0,0],"split_type":[0,0,0,0,0,0,0,0,0,0,0,0,0,0,0,0,0,0,0,0,0,0,0,0,0,0,0,0,0,0,0,0,0,0,0],"sum_hessian":[2.0518281E3,1.5224514E3,5.293767E2,1.1821E3,3.4035135E2,5.266547E2,2.7219634E0,1.1223776E3,5.972249E1,3.3614468E2,4.2066708E0,5.241802E2,2.474512E0,7.3416675E2,3.882108E2,2.227061E0,5.7495426E1,3.339176E2,2.227061E0,5.2244806E2,1.7321585E0,6.453318E2,8.8834984E1,3.7315643E2,1.5054348E1,3.324329E2,1.4847074E0,5.207159E2,1.7321585E0,5.9620953E2,4.912226E1,3.309482E2,1.4847074E0,5.189837E2,1.7321585E0],"tree_param":{"num_deleted":"0","num_feature":"2048","num_nodes":"35","size_leaf_vector":"1"}},{"base_weights":[1.0135856E-2,-5.34595E-1,1.4534333E0,-9.711619E-1,1.3179367E0,1.4749863E0,-8.694152E-2,-1.3562918E0,1.0485516E0,1.3703399E0,-8.5732E-2,1.491255E0,-7.595397E-2,-1.5371567E0,1.5871824E0,1.1739832E0,-9.5490925E-2,1.4065355E0,-8.473941E-2,1.5048698E0,-7.704853E-2,-1.636464E0,9.784534E-1,8.422192E-2,-6.392263E-2,1.2696003E0,-8.849614E-2,1.4428667E0,-8.1810616E-2,1.518123E0,-7.127078E-2,-8.707823E-2,2.8654406E-2,7.0637144E-2,-8.724855E-2,6.591083E-2,-7.868851E-2,7.331414E-2,-7.034155E-2,7.657365E-2,-7.127078E-2],"categories":[],"categories_nodes":[],"categories_segments":[],"categories_sizes":[],"default_left":[0,0,0,0,0,0,0,0,0,0,0,0,0,0,0,0,0,0,0,0,0,0,0,0,0,0,0,0,0,0,0,0,0,0,0,0,0,0,0,0,0],"id":1,"left_children":[1,3,5,7,9,11,-1,13,15,17,-1,19,-1,21,23,25,-1,27,-1,29,-1,31,33,-1,-1,35,-1,37,-1,39,-1,-1,-1,-1,-1,-1,-1,-1,-1,-1,-1],"loss_changes":[1.5995629E3,1.1958655E3,4.0920288E1,9.316902E2,4.718393E1,2.9263672E1,0E0,5.373943E2,7.3522156E1,3.3213867E1,0E0,2.5098145E1,0E0,2.3822705E2,1.8502579E1,5.429355E1,0E0,3.2782288E1,0E0,2.3516724E1,0E0,2.1269312E2,4.575103E1,0E0,0E0,2.6910187E1,0E0,2.024469E1,0E0,2.371045E1,0E0,0E0,0E0,0E0,0E0,0E0,0E0,0E0,0E0,0E0,0E0],"parents":[2147483647,0,0,1,1,2,2,3,3,4,4,5,5,7,7,8,8,9,9,11,11,13,13,14,14,15,15,17,17,19,19,21,21,22,22,25,25,27,27,29,29],"right_children":[2,4,6,8,10,12,-1,14,16,18,-1,20,-1,22,24,26,-1,28,-1,30,-1,32,34,-1,-1,36,-1,38,-1,40,-1,-1,-1,-1,-1,-1,-1,-1,-1,-1,-1],"split_conditions":[1E0,1E0,1E0,1E0,1E0,1E0,-8.694152E-2,1E0,1E0,1E0,-8.5732E-2,1E0,-7.595397E-2,1E0,1E0,1E0,-9.5490925E-2,1E0,-8.473941E-2,1E0,-7.704853E-2,1E0,1E0,8.422192E-2,-6.392263E-2,1E0,-8.849614E-2,1E0,-8.1810616E-2,1E0,-7.127078E-2,-8.707823E-2,2.8654406E-2,7.0637144E-2,-8.724855E-2,6.591083E-2,-7.868851E-2,7.331414E-2,-7.034155E-2,7.657365E-2,-7.127078E-2],"split_indices":[116,229,1238,675,1432,1290,0,828,1917,321,0,1604,0,1168,1257,1325,0,13,0,1452,0,1844,650,0,0,665,0,389,0,1824,0,0,0,0,0,0,0,0,0,0,0],"split_type":[0,0,0,0,0,0,0,0,0,0,0,0,0,0,0,0,0,0,0,0,0,0,0,0,0,0,0,0,0,0,0,0,0,0,0,0,0,0,0,0,0],"sum_hessian":[2.032539E3,1.476069E3,5.564699E2,1.1949446E3,2.8112442E2,5.5327234E2,3.1975462E0,1.0038529E3,1.9109164E2,2.768879E2,4.236518E0,5.5078156E2,2.4908285E0,9.46191E2,5.7661934E1,1.8389775E2,7.1938925E0,2.7419113E2,2.6967652E0,5.4882104E2,1.960511E0,9.105935E2,3.559749E1,5.616786E1,1.4940745E0,1.7866354E2,5.234198E0,2.7147546E2,2.7156894E0,5.468297E2,1.9912983E0,8.6944867E2,4.1144802E1,3.1116735E1,4.480752E0,1.7618747E2,2.4760847E0,2.6974442E2,1.731028E0,5.4483844E2,1.9912983E0],"tree_param":{"num_deleted":"0","num_feature":"2048","num_nodes":"41","size_leaf_vector":"1"}},{"base_weights":[-4.786736E-3,-5.11177E-1,1.4011866E0,-8.9679825E-1,1.2723206E0,1.4244969E0,-8.413603E-2,-1.0107504E0,1.1363597E0,1.3225727E0,-9.007949E-2,1.444966E0,-8.309367E-2,-1.141127E0,7.653238E-1,1.347831E0,-8.4941976E-2,1.3746938E0,-8.1093095E-2,1.4618422E0,-7.609073E-2,-1.3098226E0,2.682874E-1,1.587764E-1,9.041609E-2,1.4384027E0,-7.008395E-2,1.4022944E0,-7.2184615E-2,1.4785693E0,-7.3074125E-2,-6.96653E-2,2.8927987E-2,-1.0016823E-1,5.857391E-2,-2.5521373E-2,8.979619E-2,5.2326538E-2,7.80276E-2,7.119342E-2,-6.9029965E-2,7.455693E-2,-7.49109E-2],"categories":[],"categories_nodes":[],"categories_segments":[],"categories_sizes":[],"default_left":[0,0,0,0,0,0,0,0,0,0,0,0,0,0,0,0,0,0,0,0,0,0,0,0,0,0,0,0,0,0,0,0,0,0,0,0,0,0,0,0,0,0,0],"id":2,"left_children":[1,3,5,7,9,11,-1,13,15,17,-1,19,-1,21,23,25,-1,27,-1,29,-1,31,33,35,-1,37,-1,39,-1,41,-1,-1,-1,-1,-1,-1,-1,-1,-1,-1,-1,-1,-1],"loss_changes":[1.4397845E3,1.0236643E3,4.0891846E1,2.8450354E2,4.3274963E1,3.6011353E1,0E0,2.6916846E2,4.1489113E1,4.229123E1,0E0,2.8712769E1,0E0,2.5709045E2,5.021884E1,1.7306335E1,0E0,2.2019867E1,0E0,2.7909058E1,0E0,1.5286694E2,2.4088008E2,5.742215E1,0E0,1.2357254E0,0E0,1.7279053E1,0E0,2.1842407E1,0E0,0E0,0E0,0E0,0E0,0E0,0E0,0E0,0E0,0E0,0E0,0E0,0E0],"parents":[2147483647,0,0,1,1,2,2,3,3,4,4,5,5,7,7,8,8,9,9,11,11,13,13,14,14,15,15,17,17,19,19,21,21,22,22,23,23,25,25,27,27,29,29],"right_children":[2,4,6,8,10,12,-1,14,16,18,-1,20,-1,22,24,26,-1,28,-1,30,-1,32,34,36,-1,38,-1,40,-1,42,-1,-1,-1,-1,-1,-1,-1,-1,-1,-1,-1,-1,-1],"split_conditions":[1E0,1E0,1E0,1E0,1E0,1E0,-8.413603E-2,1E0,1E0,1E0,-9.007949E-2,1E0,-8.309367E-2,1E0,1E0,1E0,-8.4941976E-2,1E0,-8.1093095E-2,1E0,-7.609073E-2,1E0,1E0,1E0,9.041609E-2,1E0,-7.008395E-2,1E0,-7.2184615E-2,1E0,-7.3074125E-2,-6.96653E-2,2.8927987E-2,-1.0016823E-1,5.857391E-2,-2.5521373E-2,8.979619E-2,5.2326538E-2,7.80276E-2,7.119342E-2,-6.9029965E-2,7.455693E-2,-7.49109E-2],"split_indices":[116,229,1238,1567,114,1959,0,1737,1917,1432,0,378,0,875,1517,591,0,1199,0,1290,0,1844,1917,388,0,1722,0,1824,0,1544,0,0,0,0,0,0,0,0,0,0,0,0,0],"split_type":[0,0,0,0,0,0,0,0,0,0,0,0,0,0,0,0,0,0,0,0,0,0,0,0,0,0,0,0,0,0,0,0,0,0,0,0,0,0,0,0,0,0,0],"sum_hessian":[2.0202452E3,1.485756E3,5.3448926E2,1.2220303E3,2.6372568E2,5.3101355E2,3.4756868E0,1.1576505E3,6.437986E1,2.6004425E2,3.681437E0,5.2804333E2,2.9702022E0,1.0788153E3,7.883521E1,6.0399406E1,3.9804506E0,2.5604498E2,3.9992692E0,5.2556104E2,2.482339E0,9.63556E2,1.1525925E2,5.0575592E1,2.8259619E1,5.8934883E1,1.4645233E0,2.540594E2,1.9855745E0,5.230623E2,2.4987159E0,9.2301276E2,4.0543224E1,3.244284E1,8.281641E1,3.6389263E1,1.4186331E1,1.6278591E1,4.2656292E1,2.5258958E2,1.4698102E0,5.2136E2,1.7023351E0],"tree_param":{"num_deleted":"0","num_feature":"2048","num_nodes":"43","size_leaf_vector":"1"}},{"base_weights":[1.2787973E-2,-2.3516001E-1,1.2924747E0,-4.2651165E-1,1.5105152E0,1.3425651E0,-8.265437E-2,-6.89158E-1,1.1939827E0,7.8047596E-2,9.663591E-1,1.3863966E0,-8.918867E-2,-9.7897583E-1,1.0798335E0,1.2912701E0,-8.95543E-2,-8.7475054E-2,7.673586E-2,1.4112804E0,-7.552572E-2,-1.1531876E0,3.6276588E-1,1.1483415E0,-8.275489E-2,1.358582E0,-8.8393874E-2,1.4304366E0,-6.6155255E-2,-6.1739054E-2,7.105562E-2,-9.693899E-2,5.002311E-2,5.966395E-2,-7.568533E-2,6.9473326E-2,-7.3448226E-2,7.2413854E-2,-7.3543355E-2],"categories":[],"categories_nodes":[],"categories_segments":[],"categories_sizes":[],"default_left":[0,0,0,0,0,0,0,0,0,0,0,0,0,0,0,0,0,0,0,0,0,0,0,0,0,0,0,0,0,0,0,0,0,0,0,0,0,0,0],"id":3,"left_children":[1,3,5,7,9,11,-1,13,15,-1,17,19,-1,21,23,25,-1,-1,-1,27,-1,29,31,33,-1,35,-1,37,-1,-1,-1,-1,-1,-1,-1,-1,-1,-1,-1],"loss_changes":[6.472627E2,5.714748E2,5.10708E1,6.5663306E2,3.1307678E0,4.7161133E1,0E0,6.811721E2,6.482974E1,0E0,2.8869759E1,2.5355347E1,0E0,2.6697388E2,3.697841E1,4.545047E1,0E0,0E0,0E0,1.8651306E1,0E0,2.1380591E2,1.9539468E2,2.3725632E1,0E0,1.9953888E1,0E0,1.860022E1,0E0,0E0,0E0,0E0,0E0,0E0,0E0,0E0,0E0,0E0,0E0],"parents":[2147483647,0,0,1,1,2,2,3,3,4,4,5,5,7,7,8,8,10,10,11,11,13,13,14,14,15,15,19,19,21,21,22,22,23,23,25,25,27,27],"right_children":[2,4,6,8,10,12,-1,14,16,-1,18,20,-1,22,24,26,-1,-1,-1,28,-1,30,32,34,-1,36,-1,38,-1,-1,-1,-1,-1,-1,-1,-1,-1,-1,-1],"split_conditions":[1E0,1E0,1E0,1E0,1E0,1E0,-8.265437E-2,1E0,1E0,7.8047596E-2,1E0,1E0,-8.918867E-2,1E0,1E0,1E0,-8.95543E-2,-8.7475054E-2,7.673586E-2,1E0,-7.552572E-2,1E0,1E0,1E0,-8.275489E-2,1E0,-8.8393874E-2,1E0,-6.6155255E-2,-6.1739054E-2,7.105562E-2,-9.693899E-2,5.002311E-2,5.966395E-2,-7.568533E-2,6.9473326E-2,-7.3448226E-2,7.2413854E-2,-7.3543355E-2],"split_indices":[229,1024,1432,394,394,114,0,675,1722,0,1,1824,0,875,1274,283,0,0,0,1199,0,1906,80,665,0,844,0,675,0,0,0,0,0,0,0,0,0,0,0],"split_type":[0,0,0,0,0,0,0,0,0,0,0,0,0,0,0,0,0,0,0,0,0,0,0,0,0,0,0,0,0,0,0,0,0,0,0,0,0,0,0],"sum_hessian":[2.0379772E3,1.70788E3,3.300971E2,1.539846E3,1.6803406E2,3.2511267E2,4.9844475E0,1.3255743E3,2.1427164E2,1.520704E2,1.5963653E1,3.211664E2,3.9462507E0,1.1393574E3,1.8621686E2,2.0805817E2,6.213473E0,2.4029856E0,1.3560667E1,3.1893964E2,2.2267706E0,1.00854803E3,1.3080942E2,1.822322E2,3.9846587E0,2.0412265E2,3.9355159E0,3.1719434E2,1.7452946E0,9.780682E2,3.0479862E1,2.793768E1,1.0287174E2,1.7974962E2,2.48258E0,2.0242027E2,1.7023833E0,3.1575354E2,1.4408E0],"tree_param":{"num_deleted":"0","num_feature":"2048","num_nodes":"39","size_leaf_vector":"1"}},{"base_weights":[8.1441164E-2,-1.7855164E-1,1.3009348E0,-3.6903128E-1,1.4605528E0,1.3427923E0,-7.912823E-2,-6.037602E-1,1.0741395E0,7.616862E-2,7.9000866E-1,1.3667041E0,-7.619055E-2,-8.5078263E-1,1.0927098E0,1.1495862E0,-8.278084E-2,-8.9988075E-2,7.4415594E-2,1.3886501E0,-7.4595414E-2,-9.984E-1,1.3557776E0,1.2049952E0,-8.508489E-2,1.2032392E0,-7.976328E-2,1.4019197E0,-7.143726E-2,-5.89316E-2,4.8464585E-2,-7.3615044E-2,7.32382E-2,6.414023E-2,-8.491547E-2,6.2324584E-2,-7.466805E-2,7.075632E-2,-6.920431E-2],"categories":[],"categories_nodes":[],"categories_segments":[],"categories_sizes":[],"default_left":[0,0,0,0,0,0,0,0,0,0,0,0,0,0,0,0,0,0,0,0,0,0,0,0,0,0,0,0,0,0,0,0,0,0,0,0,0,0,0],"id":4,"left_children":[1,3,5,7,9,11,-1,13,15,-1,17,19,-1,21,23,25,-1,-1,-1,27,-1,29,31,33,-1,35,-1,37,-1,-1,-1,-1,-1,-1,-1,-1,-1,-1,-1],"loss_changes":[6.6385736E2,5.3946234E2,4.653369E1,5.24773E2,6.374878E0,2.697931E1,0E0,5.588771E2,4.655484E1,0E0,3.4305054E1,2.4702576E1,0E0,3.8009003E2,5.5285797E1,3.307666E1,0E0,0E0,0E0,1.5406067E1,0E0,3.8784717E2,2.4759506E1,3.9157837E1,0E0,2.6130737E1,0E0,1.5106262E1,0E0,0E0,0E0,0E0,0E0,0E0,0E0,0E0,0E0,0E0,0E0],"parents":[2147483647,0,0,1,1,2,2,3,3,4,4,5,5,7,7,8,8,10,10,11,11,13,13,14,14,15,15,19,19,21,21,22,22,23,23,25,25,27,27],"right_children":[2,4,6,8,10,12,-1,14,16,-1,18,20,-1,22,24,26,-1,-1,-1,28,-1,30,32,34,-1,36,-1,38,-1,-1,-1,-1,-1,-1,-1,-1,-1,-1,-1],"split_conditions":[1E0,1E0,1E0,1E0,1E0,1E0,-7.912823E-2,1E0,1E0,7.616862E-2,1E0,1E0,-7.619055E-2,1E0,1E0,1E0,-8.278084E-2,-8.9988075E-2,7.4415594E-2,1E0,-7.4595414E-2,1E0,1E0,1E0,-8.508489E-2,1E0,-7.976328E-2,1E0,-7.143726E-2,-5.89316E-2,4.8464585E-2,-7.3615044E-2,7.32382E-2,6.414023E-2,-8.491547E-2,6.2324584E-2,-7.466805E-2,7.075632E-2,-6.920431E-2],"split_indices":[229,1024,1432,675,394,1290,0,394,1325,0,283,1308,0,828,1722,695,0,0,0,1292,0,1737,1917,283,0,665,0,1238,0,0,0,0,0,0,0,0,0,0,0],"split_type":[0,0,0,0,0,0,0,0,0,0,0,0,0,0,0,0,0,0,0,0,0,0,0,0,0,0,0,0,0,0,0,0,0,0,0,0,0,0,0],"sum_hessian":[2.0920613E3,1.725123E3,3.6693808E2,1.5462131E3,1.7890991E2,3.6221442E2,4.7236605E0,1.3304067E3,2.1580643E2,1.6242172E2,1.6488201E1,3.597369E2,2.4775176E0,1.161744E3,1.6866267E2,2.1056555E2,5.2408752E0,3.166689E0,1.3321512E1,3.575065E2,2.2304041E0,1.0894108E3,7.2333275E1,1.6269405E2,5.9686203E0,2.0707945E2,3.4861019E0,3.5633063E2,1.1758783E0,9.983658E2,9.1045006E1,2.2199113E0,7.0113365E1,1.589912E2,3.7028592E0,2.0433968E2,2.7397778E0,3.551392E2,1.1914365E0],"tree_param":{"num_deleted":"0","num_feature":"2048","num_nodes":"39","size_leaf_vector":"1"}},{"base_weights":[1.02185175E-1,-3.8656846E-1,1.3281107E0,-6.999797E-1,1.149314E0,1.3498011E0,-7.678499E-2,-1.0664042E0,1.108757E0,1.1912003E0,-8.253011E-2,1.3671119E0,-7.844111E-2,-1.205314E0,1.4023663E0,1.181158E0,-7.88474E-2,1.2238207E0,-6.600912E-2,1.3825566E0,-7.251632E-2,-1.2938725E0,1.5534143E0,-6.645962E-2,7.638963E-2,1.228181E0,-8.812867E-2,1.2487863E0,-7.65483E-2,1.3959924E0,-7.505832E-2,-7.121516E-2,2.5545154E-3,8.4876195E-2,-5.292877E-2,6.368056E-2,-7.9015985E-2,6.3786395E-2,-6.907138E-2,7.0464335E-2,-7.316229E-2],"categories":[],"categories_nodes":[],"categories_segments":[],"categories_sizes":[],"default_left":[0,0,0,0,0,0,0,0,0,0,0,0,0,0,0,0,0,0,0,0,0,0,0,0,0,0,0,0,0,0,0,0,0,0,0,0,0,0,0,0,0],"id":5,"left_children":[1,3,5,7,9,11,-1,13,15,17,-1,19,-1,21,23,25,-1,27,-1,29,-1,31,33,-1,-1,35,-1,37,-1,39,-1,-1,-1,-1,-1,-1,-1,-1,-1,-1,-1],"loss_changes":[1.26216E3,7.258428E2,3.936914E1,8.3068176E2,3.1947876E1,3.2279053E1,0E0,3.5877063E2,4.2954834E1,2.229776E1,0E0,2.782898E1,0E0,2.4297534E2,2.1192444E1,3.072879E1,0E0,1.90878E1,0E0,2.4983765E1,0E0,1.6781091E2,1.3515259E1,0E0,0E0,2.8002625E1,0E0,1.93396E1,0E0,2.4432373E1,0E0,0E0,0E0,0E0,0E0,0E0,0E0,0E0,0E0,0E0,0E0],"parents":[2147483647,0,0,1,1,2,2,3,3,4,4,5,5,7,7,8,8,9,9,11,11,13,13,14,14,15,15,17,17,19,19,21,21,22,22,25,25,27,27,29,29],"right_children":[2,4,6,8,10,12,-1,14,16,18,-1,20,-1,22,24,26,-1,28,-1,30,-1,32,34,-1,-1,36,-1,38,-1,40,-1,-1,-1,-1,-1,-1,-1,-1,-1,-1,-1],"split_conditions":[1E0,1E0,1E0,1E0,1E0,1E0,-7.678499E-2,1E0,1E0,1E0,-8.253011E-2,1E0,-7.844111E-2,1E0,1E0,1E0,-7.88474E-2,1E0,-6.600912E-2,1E0,-7.251632E-2,1E0,1E0,-6.645962E-2,7.638963E-2,1E0,-8.812867E-2,1E0,-7.65483E-2,1E0,-7.505832E-2,-7.121516E-2,2.5545154E-3,8.4876195E-2,-5.292877E-2,6.368056E-2,-7.9015985E-2,6.3786395E-2,-6.907138E-2,7.0464335E-2,-7.316229E-2],"split_indices":[116,229,1238,675,13,1959,0,828,1325,1267,0,378,0,117,1243,1866,0,1238,0,2026,0,1602,1019,0,0,1727,0,1199,0,423,0,0,0,0,0,0,0,0,0,0,0],"split_type":[0,0,0,0,0,0,0,0,0,0,0,0,0,0,0,0,0,0,0,0,0,0,0,0,0,0,0,0,0,0,0,0,0,0,0,0,0,0,0,0,0],"sum_hessian":[2.104638E3,1.5052196E3,5.994183E2,1.2505728E3,2.546469E2,5.9543713E2,3.9811351E0,1.0402443E3,2.1032837E2,2.5145967E2,3.18723E0,5.924548E2,2.9823487E0,9.8531555E2,5.492875E1,2.053527E2,4.9756613E0,2.4874146E2,2.7182176E0,5.8973126E2,2.723512E0,9.55184E2,3.0131544E1,1.9901208E0,5.293863E1,2.0269762E2,2.655104E0,2.4704922E2,1.6922305E0,5.875098E2,2.2214253E0,8.706881E2,8.4495895E1,2.8887838E1,1.2437056E0,2.0000879E2,2.6888185E0,2.4505408E2,1.995142E0,5.8529553E2,2.2142713E0],"tree_param":{"num_deleted":"0","num_feature":"2048","num_nodes":"41","size_leaf_vector":"1"}},{"base_weights":[7.147241E-2,-3.1037444E-1,1.2540141E0,-6.561387E-1,1.1787742E0,1.277787E0,-7.437778E-2,-8.971073E-1,8.519675E-1,1.2272309E0,-7.3120914E-2,1.2969155E0,-6.971785E-2,-1.0174801E0,1.3738263E0,9.553752E-1,-9.388532E-2,1.2593353E0,-7.656342E-2,1.3136898E0,-8.561488E-2,-1.169211E0,8.0439866E-1,-6.359115E-2,7.42281E-2,1.0567985E0,-9.294601E-2,1.2829804E0,-6.956567E-2,1.3281912E0,-6.357714E-2,-6.291806E-2,5.1475056E-2,1.2749483E-2,8.735278E-2,5.7858746E-2,-7.684733E-2,6.5161124E-2,-8.198538E-2,6.70572E-2,-7.400679E-2],"categories":[],"categories_nodes":[],"categories_segments":[],"categories_sizes":[],"default_left":[0,0,0,0,0,0,0,0,0,0,0,0,0,0,0,0,0,0,0,0,0,0,0,0,0,0,0,0,0,0,0,0,0,0,0,0,0,0,0,0,0],"id":6,"left_children":[1,3,5,7,9,11,-1,13,15,17,-1,19,-1,21,23,25,-1,27,-1,29,-1,31,33,-1,-1,35,-1,37,-1,39,-1,-1,-1,-1,-1,-1,-1,-1,-1,-1,-1],"loss_changes":[9.161406E2,7.905221E2,3.4176025E1,4.533593E2,3.8830902E1,2.6930542E1,0E0,2.9507544E2,5.037075E1,2.7142517E1,0E0,2.6908691E1,0E0,2.831328E2,1.785627E1,4.948236E1,0E0,1.9458557E1,0E0,1.9922607E1,0E0,1.8608948E2,4.0506958E1,0E0,0E0,4.37789E1,0E0,1.8702698E1,0E0,1.9596558E1,0E0,0E0,0E0,0E0,0E0,0E0,0E0,0E0,0E0,0E0,0E0],"parents":[2147483647,0,0,1,1,2,2,3,3,4,4,5,5,7,7,8,8,9,9,11,11,13,13,14,14,15,15,17,17,19,19,21,21,22,22,25,25,27,27,29,29],"right_children":[2,4,6,8,10,12,-1,14,16,18,-1,20,-1,22,24,26,-1,28,-1,30,-1,32,34,-1,-1,36,-1,38,-1,40,-1,-1,-1,-1,-1,-1,-1,-1,-1,-1,-1],"split_conditions":[1E0,1E0,1E0,1E0,1E0,1E0,-7.437778E-2,1E0,1E0,1E0,-7.3120914E-2,1E0,-6.971785E-2,1E0,1E0,1E0,-9.388532E-2,1E0,-7.656342E-2,1E0,-8.561488E-2,1E0,1E0,-6.359115E-2,7.42281E-2,1E0,-9.294601E-2,1E0,-6.956567E-2,1E0,-6.357714E-2,-6.291806E-2,5.1475056E-2,1.2749483E-2,8.735278E-2,5.7858746E-2,-7.684733E-2,6.5161124E-2,-8.198538E-2,6.70572E-2,-7.400679E-2],"split_indices":[116,229,1238,675,1432,1290,0,828,1243,1290,0,1256,0,1737,875,694,0,13,0,1452,0,1168,1517,0,0,1325,0,886,0,1685,0,0,0,0,0,0,0,0,0,0,0],"split_type":[0,0,0,0,0,0,0,0,0,0,0,0,0,0,0,0,0,0,0,0,0,0,0,0,0,0,0,0,0,0,0,0,0,0,0,0,0,0,0,0,0],"sum_hessian":[2.0270183E3,1.5328071E3,4.942112E2,1.2444246E3,2.883826E2,4.9049197E2,3.7192512E0,1.0733306E3,1.71094E2,2.837128E2,4.6697907E0,4.8751675E2,2.9752321E0,1.01982574E3,5.350479E1,1.6547533E2,5.618664E0,2.8098605E2,2.7267475E0,4.8537454E2,2.1421952E0,9.417523E2,7.807338E1,1.7282815E0,5.177651E1,1.6032204E2,5.1532893E0,2.790131E2,1.97297E0,4.8315067E2,2.2238944E0,9.054665E2,3.6285835E1,5.0127857E1,2.7945526E1,1.5488205E2,5.4399943E0,2.776443E2,1.3688102E0,4.8145248E2,1.6981658E0],"tree_param":{"num_deleted":"0","num_feature":"2048","num_nodes":"41","size_leaf_vector":"1"}},{"base_weights":[-1.4392011E-2,-4.2426932E-1,1.195287E0,-6.884768E-1,1.0346175E0,1.2212231E0,-7.279944E-2,-9.3222743E-1,8.1157285E-1,1.1212897E0,-9.27813E-2,1.2429488E0,-6.98337E-2,-1.0313038E0,1.4627897E0,9.204682E-1,-9.0437844E-2,1.1742326E0,-7.809447E-2,1.257647E0,-7.8937955E-2,-1.183318E0,7.9494065E-1,1.2266753E0,8.998736E-2,9.842404E-1,-8.079889E-2,1.2119371E0,-8.8497825E-2,1.2712628E0,-8.7269664E-2,-6.371521E-2,3.7036225E-2,4.586236E-2,-7.724334E-2,-5.54243E-2,6.9996014E-2,5.1966894E-2,-8.367052E-2,6.206288E-2,-7.574549E-2,6.428216E-2,-7.213729E-2],"categories":[],"categories_nodes":[],"categories_segments":[],"categories_sizes":[],"default_left":[0,0,0,0,0,0,0,0,0,0,0,0,0,0,0,0,0,0,0,0,0,0,0,0,0,0,0,0,0,0,0,0,0,0,0,0,0,0,0,0,0,0,0],"id":7,"left_children":[1,3,5,7,9,11,-1,13,15,17,-1,19,-1,21,23,25,-1,27,-1,29,-1,31,33,35,-1,37,-1,39,-1,41,-1,-1,-1,-1,-1,-1,-1,-1,-1,-1,-1,-1,-1],"loss_changes":[9.5466046E2,5.5502905E2,3.528595E1,4.4617603E2,5.7419266E1,2.9213257E1,0E0,2.5027869E2,5.0405785E1,3.2390137E1,0E0,2.1879211E1,0E0,2.8058887E2,1.1385956E0,2.822554E1,0E0,2.5624512E1,0E0,2.1752625E1,0E0,1.6380664E2,2.3739529E1,1.28271675E1,0E0,2.5350494E1,0E0,1.8624725E1,0E0,2.0438599E1,0E0,0E0,0E0,0E0,0E0,0E0,0E0,0E0,0E0,0E0,0E0,0E0,0E0],"parents":[2147483647,0,0,1,1,2,2,3,3,4,4,5,5,7,7,8,8,9,9,11,11,13,13,14,14,15,15,17,17,19,19,21,21,22,22,23,23,25,25,27,27,29,29],"right_children":[2,4,6,8,10,12,-1,14,16,18,-1,20,-1,22,24,26,-1,28,-1,30,-1,32,34,36,-1,38,-1,40,-1,42,-1,-1,-1,-1,-1,-1,-1,-1,-1,-1,-1,-1,-1],"split_conditions":[1E0,1E0,1E0,1E0,1E0,1E0,-7.279944E-2,1E0,1E0,1E0,-9.27813E-2,1E0,-6.98337E-2,1E0,1E0,1E0,-9.0437844E-2,1E0,-7.809447E-2,1E0,-7.8937955E-2,1E0,1E0,1E0,8.998736E-2,1E0,-8.079889E-2,1E0,-8.8497825E-2,1E0,-8.7269664E-2,-6.371521E-2,3.7036225E-2,4.586236E-2,-7.724334E-2,-5.54243E-2,6.9996014E-2,5.1966894E-2,-8.367052E-2,6.206288E-2,-7.574549E-2,6.428216E-2,-7.213729E-2],"split_indices":[116,229,1238,675,695,1290,0,667,1917,1564,0,1256,0,1737,117,1017,0,1388,0,674,0,1844,955,25,0,998,0,389,0,875,0,0,0,0,0,0,0,0,0,0,0,0,0],"split_type":[0,0,0,0,0,0,0,0,0,0,0,0,0,0,0,0,0,0,0,0,0,0,0,0,0,0,0,0,0,0,0,0,0,0,0,0,0,0,0,0,0,0,0],"sum_hessian":[1.923395E3,1.4371072E3,4.8628784E2,1.217198E3,2.1990906E2,4.8211096E2,4.176882E0,1.0473822E3,1.6981587E2,2.1410068E2,5.80838E0,4.786638E2,3.4471745E0,1.0063223E3,4.1059856E1,1.636631E2,6.152769E0,2.1050941E2,3.591269E0,4.7673477E2,1.9290141E0,9.2931903E2,7.700329E1,2.6871077E1,1.4188779E1,1.602461E2,3.4170015E0,2.0842856E2,2.0808542E0,4.751571E2,1.5776721E0,8.876792E2,4.1639816E1,7.37559E1,3.2473924E0,1.4830278E0,2.538805E1,1.5758797E2,2.6581342E0,2.0675027E2,1.678289E0,4.7317624E2,1.9808688E0],"tree_param":{"num_deleted":"0","num_feature":"2048","num_nodes":"43","size_leaf_vector":"1"}},{"base_weights":[4.6843786E-2,-3.6234877E-1,1.2057014E0,-7.832572E-1,1.1486413E0,1.2263601E0,-8.0532454E-2,-9.883518E-1,6.9598216E-1,1.1919374E0,-6.9972984E-2,1.2422556E0,-7.413029E-2,-1.116135E0,1.3090274E0,8.278431E-1,-9.579363E-2,1.2187706E0,-6.966057E-2,1.256992E0,-7.458057E-2,-1.1990521E0,8.4432495E-1,-6.462822E-2,7.230641E-2,9.2895424E-1,-8.879837E-2,1.2372977E0,-6.724536E-2,1.2697387E0,-8.5446835E-2,-6.265574E-2,9.794184E-2,5.424985E-2,-7.168925E-2,5.1177453E-2,-7.1999E-2,6.2712416E-2,-6.9523625E-2,6.4178966E-2,-6.639281E-2],"categories":[],"categories_nodes":[],"categories_segments":[],"categories_sizes":[],"default_left":[0,0,0,0,0,0,0,0,0,0,0,0,0,0,0,0,0,0,0,0,0,0,0,0,0,0,0,0,0,0,0,0,0,0,0,0,0,0,0,0,0],"id":8,"left_children":[1,3,5,7,9,11,-1,13,15,17,-1,19,-1,21,23,25,-1,27,-1,29,-1,31,33,-1,-1,35,-1,37,-1,39,-1,-1,-1,-1,-1,-1,-1,-1,-1,-1,-1],"loss_changes":[9.424598E2,9.3512244E2,3.215088E1,3.4942322E2,3.7020447E1,2.4036316E1,0E0,2.9794263E2,4.9993416E1,2.3592682E1,0E0,2.2541016E1,0E0,1.5661963E2,2.1013649E1,3.7059723E1,0E0,1.652716E1,0E0,2.1479614E1,0E0,1.5932043E2,2.3174643E1,0E0,0E0,3.0633972E1,0E0,1.5605469E1,0E0,2.0009705E1,0E0,0E0,0E0,0E0,0E0,0E0,0E0,0E0,0E0,0E0,0E0],"parents":[2147483647,0,0,1,1,2,2,3,3,4,4,5,5,7,7,8,8,9,9,11,11,13,13,14,14,15,15,17,17,19,19,21,21,22,22,25,25,27,27,29,29],"right_children":[2,4,6,8,10,12,-1,14,16,18,-1,20,-1,22,24,26,-1,28,-1,30,-1,32,34,-1,-1,36,-1,38,-1,40,-1,-1,-1,-1,-1,-1,-1,-1,-1,-1,-1],"split_conditions":[1E0,1E0,1E0,1E0,1E0,1E0,-8.0532454E-2,1E0,1E0,1E0,-6.9972984E-2,1E0,-7.413029E-2,1E0,1E0,1E0,-9.579363E-2,1E0,-6.966057E-2,1E0,-7.458057E-2,1E0,1E0,-6.462822E-2,7.230641E-2,1E0,-8.879837E-2,1E0,-6.724536E-2,1E0,-8.5446835E-2,-6.265574E-2,9.794184E-2,5.424985E-2,-7.168925E-2,5.1177453E-2,-7.1999E-2,6.2712416E-2,-6.9523625E-2,6.4178966E-2,-6.639281E-2],"split_indices":[116,229,1959,675,1432,2026,0,828,1,13,0,1824,0,1110,875,1243,0,1818,0,210,0,2045,1873,0,0,1325,0,1308,0,423,0,0,0,0,0,0,0,0,0,0,0],"split_type":[0,0,0,0,0,0,0,0,0,0,0,0,0,0,0,0,0,0,0,0,0,0,0,0,0,0,0,0,0,0,0,0,0,0,0,0,0,0,0,0,0],"sum_hessian":[1.9855691E3,1.4679303E3,5.176388E2,1.1484847E3,3.194456E2,5.144299E2,3.208941E0,1.00892975E3,1.3955495E2,3.1463177E2,4.8138337E0,5.1196722E2,2.4626527E0,9.5625574E2,5.2674004E1,1.3349825E2,6.0566926E0,3.1192264E2,2.709126E0,5.0975967E2,2.2075489E0,9.1782495E2,3.8430763E1,2.2149894E0,5.0459015E1,1.2912721E2,4.3710337E0,3.1019827E2,1.7243588E0,5.081477E2,1.6119851E0,9.029694E2,1.4855574E1,3.5232353E1,3.1984096E0,1.24715096E2,4.41212E0,3.087295E2,1.4687841E0,5.0595767E2,2.190031E0],"tree_param":{"num_deleted":"0","num_feature":"2048","num_nodes":"41","size_leaf_vector":"1"}},{"base_weights":[4.064652E-2,-2.956652E-1,1.1207957E0,-6.5579647E-1,1.1082602E0,1.1471589E0,-8.814021E-2,-9.4015026E-1,9.264052E-1,1.151848E0,-6.722392E-2,1.1665736E0,-9.2529826E-2,-1.06218E0,1.289615E0,1.019323E0,-8.835237E-2,1.1823912E0,-7.070585E-2,1.1822358E0,-6.953957E-2,-1.1809433E0,5.9007525E-1,-5.5878263E-2,6.966614E-2,1.0819266E0,-9.279018E-2,1.204838E0,-7.0343845E-2,1.1977957E0,-6.726923E-2,-6.3952886E-2,4.1540056E-2,4.0893298E-2,-8.261459E-2,5.7267856E-2,-6.661558E-2,6.1191242E-2,-8.187874E-2,6.449651E-2,3.624045E-2],"categories":[],"categories_nodes":[],"categories_segments":[],"categories_sizes":[],"default_left":[0,0,0,0,0,0,0,0,0,0,0,0,0,0,0,0,0,0,0,0,0,0,0,0,0,0,0,0,0,0,0,0,0,0,0,0,0,0,0,0,0],"id":9,"left_children":[1,3,5,7,9,11,-1,13,15,17,-1,19,-1,21,23,25,-1,27,-1,29,-1,31,33,-1,-1,35,-1,37,-1,39,-1,-1,-1,-1,-1,-1,-1,-1,-1,-1,-1],"loss_changes":[7.026243E2,7.4650464E2,3.6932983E1,5.293034E2,3.3781982E1,2.867926E1,0E0,2.7240814E2,4.6708344E1,2.4931152E1,0E0,1.9802734E1,0E0,1.8612561E2,1.4572899E1,3.3342117E1,0E0,1.8772644E1,0E0,1.9354492E1,0E0,1.7513965E2,3.406023E1,0E0,0E0,2.771347E1,0E0,1.7754395E1,0E0,1.8627502E1,0E0,0E0,0E0,0E0,0E0,0E0,0E0,0E0,0E0,0E0,0E0],"parents":[2147483647,0,0,1,1,2,2,3,3,4,4,5,5,7,7,8,8,9,9,11,11,13,13,14,14,15,15,17,17,19,19,21,21,22,22,25,25,27,27,29,29],"right_children":[2,4,6,8,10,12,-1,14,16,18,-1,20,-1,22,24,26,-1,28,-1,30,-1,32,34,-1,-1,36,-1,38,-1,40,-1,-1,-1,-1,-1,-1,-1,-1,-1,-1,-1],"split_conditions":[1E0,1E0,1E0,1E0,1E0,1E0,-8.814021E-2,1E0,1E0,1E0,-6.722392E-2,1E0,-9.2529826E-2,1E0,1E0,1E0,-8.835237E-2,1E0,-7.070585E-2,1E0,-6.953957E-2,1E0,1E0,-5.5878263E-2,6.966614E-2,1E0,-9.279018E-2,1E0,-7.0343845E-2,1E0,-6.726923E-2,-6.3952886E-2,4.1540056E-2,4.0893298E-2,-8.261459E-2,5.7267856E-2,-6.661558E-2,6.1191242E-2,-8.187874E-2,6.449651E-2,3.624045E-2],"split_indices":[116,229,930,675,1432,1199,0,828,1452,13,0,1342,0,1737,1243,789,0,1199,0,378,0,1844,283,0,0,1325,0,675,0,1917,0,0,0,0,0,0,0,0,0,0,0],"split_type":[0,0,0,0,0,0,0,0,0,0,0,0,0,0,0,0,0,0,0,0,0,0,0,0,0,0,0,0,0,0,0,0,0,0,0,0,0,0,0,0,0],"sum_hessian":[1.9322699E3,1.474043E3,4.5822693E2,1.173542E3,3.00501E2,4.546723E2,3.554632E0,9.951068E2,1.7843517E2,2.9577515E2,4.725864E0,4.5235352E2,2.318784E0,9.439693E2,5.1137547E1,1.7308566E2,5.3494906E0,2.9282874E2,2.946399E0,4.5013446E2,2.2190726E0,8.809335E2,6.30358E1,1.7083571E0,4.9429188E1,1.7000758E2,3.0780878E0,2.9084207E2,1.9866835E0,4.479033E2,2.23116E0,8.403148E2,4.0618652E1,5.7799507E1,5.236293E0,1.6616736E2,3.840222E0,2.8947784E2,1.3642267E0,3.7343393E2,7.4469376E1],"tree_param":{"num_deleted":"0","num_feature":"2048","num_nodes":"41","size_leaf_vector":"1"}},{"base_weights":[4.2701162E-2,-1.4248249E-1,1.0308808E0,-2.9395995E-1,9.454295E-1,1.070417E0,-8.5321866E-2,-4.584869E-1,8.3687174E-1,1.0584117E0,-8.250936E-2,1.1079594E0,-6.521075E-2,-2.4530675E-1,-1.4447429E0,9.8224056E-1,-1.0055037E-1,1.0973101E0,-7.7164106E-2,1.1295222E0,-8.430832E-2,-3.4126216E-1,1.4878955E0,-8.1057005E-2,6.7494564E-2,1.0580263E0,-7.571896E-2,1.1364174E0,-7.0983194E-2,1.1520218E0,-6.9112495E-2,2.5983495E-4,-4.1877802E-2,5.426224E-2,1.23974E-1,5.5223327E-2,-7.344822E-2,5.8038075E-2,-7.36233E-2,5.855192E-2,-7.848087E-2],"categories":[],"categories_nodes":[],"categories_segments":[],"categories_sizes":[],"default_left":[0,0,0,0,0,0,0,0,0,0,0,0,0,0,0,0,0,0,0,0,0,0,0,0,0,0,0,0,0,0,0,0,0,0,0,0,0,0,0,0,0],"id":10,"left_children":[1,3,5,7,9,11,-1,13,15,17,-1,19,-1,21,23,25,-1,27,-1,29,-1,31,33,-1,-1,35,-1,37,-1,39,-1,-1,-1,-1,-1,-1,-1,-1,-1,-1,-1],"loss_changes":[3.4169702E2,2.5945926E2,3.371884E1,2.5737762E2,5.8186768E1,2.7397064E1,0E0,2.5331313E2,7.4753746E1,2.0419785E1,0E0,1.9203247E1,0E0,1.6569887E2,1.0779727E2,3.3376144E1,0E0,1.9616425E1,0E0,1.7728088E1,0E0,1.6197333E2,1.8187538E1,0E0,0E0,2.0818268E1,0E0,1.31828E1,0E0,1.6512543E1,0E0,0E0,0E0,0E0,0E0,0E0,0E0,0E0,0E0,0E0,0E0],"parents":[2147483647,0,0,1,1,2,2,3,3,4,4,5,5,7,7,8,8,9,9,11,11,13,13,14,14,15,15,17,17,19,19,21,21,22,22,25,25,27,27,29,29],"right_children":[2,4,6,8,10,12,-1,14,16,18,-1,20,-1,22,24,26,-1,28,-1,30,-1,32,34,-1,-1,36,-1,38,-1,40,-1,-1,-1,-1,-1,-1,-1,-1,-1,-1,-1],"split_conditions":[1E0,1E0,1E0,1E0,1E0,1E0,-8.5321866E-2,1E0,1E0,1E0,-8.250936E-2,1E0,-6.521075E-2,1E0,1E0,1E0,-1.0055037E-1,1E0,-7.7164106E-2,1E0,-8.430832E-2,1E0,1E0,-8.1057005E-2,6.7494564E-2,1E0,-7.571896E-2,1E0,-7.0983194E-2,1E0,-6.9112495E-2,2.5983495E-4,-4.1877802E-2,5.426224E-2,1.23974E-1,5.5223327E-2,-7.344822E-2,5.8038075E-2,-7.36233E-2,5.855192E-2,-7.848087E-2],"split_indices":[229,394,1053,675,1722,1432,0,1019,1738,930,0,593,0,1331,1560,695,0,1959,0,1199,0,695,718,0,0,1274,0,1366,0,675,0,0,0,0,0,0,0,0,0,0,0],"split_type":[0,0,0,0,0,0,0,0,0,0,0,0,0,0,0,0,0,0,0,0,0,0,0,0,0,0,0,0,0,0,0,0,0,0,0,0,0,0,0,0,0],"sum_hessian":[1.865448E3,1.5717582E3,2.9368973E2,1.3802994E3,1.9145877E2,2.9010852E2,3.5811994E0,1.2055029E3,1.7479648E2,1.8404008E2,7.4186807E0,2.861185E2,3.9900382E0,9.922713E2,2.1323166E2,1.6693068E2,7.8658075E0,1.8189873E2,2.1413639E0,2.8451855E2,1.599935E0,9.4097894E2,5.129239E1,2.0096655E2,1.2265097E1,1.6257196E2,4.3587155E0,1.7965584E2,2.2428925E0,2.825291E2,1.9894449E0,5.547216E2,3.862573E2,3.7968895E1,1.3323497E1,1.6019095E2,2.381006E0,1.7854486E2,1.1109676E0,2.811345E2,1.3946142E0],"tree_param":{"num_deleted":"0","num_feature":"2048","num_nodes":"41","size_leaf_vector":"1"}},{"base_weights":[4.2192988E-2,-2.813519E-1,1.0763754E0,-5.5959487E-1,1.0017583E0,1.0945343E0,-9.5843576E-2,-8.1975263E-1,8.828626E-1,1.0439637E0,-6.253075E-2,1.1165093E0,-7.3027216E-2,-9.889119E-1,5.8800024E-1,9.491908E-1,-8.359341E-2,1.070672E0,-6.852933E-2,1.1362658E0,-6.76921E-2,-1.0844446E0,1.6829505E0,-7.539661E-2,8.208981E-1,1.0163498E0,-6.603556E-2,1.094876E0,-7.6849304E-2,1.1537781E0,-6.9665916E-2,-5.860811E-2,7.7576615E-2,6.0323697E-2,1.04806535E-1,-7.603415E-2,5.004544E-2,5.3525865E-2,-8.95504E-2,5.5771768E-2,-7.276627E-2,5.8505096E-2,-6.983986E-2],"categories":[],"categories_nodes":[],"categories_segments":[],"categories_sizes":[],"default_left":[0,0,0,0,0,0,0,0,0,0,0,0,0,0,0,0,0,0,0,0,0,0,0,0,0,0,0,0,0,0,0,0,0,0,0,0,0,0,0,0,0,0,0],"id":11,"left_children":[1,3,5,7,9,11,-1,13,15,17,-1,19,-1,21,23,25,-1,27,-1,29,-1,31,33,-1,35,37,-1,39,-1,41,-1,-1,-1,-1,-1,-1,-1,-1,-1,-1,-1,-1,-1],"loss_changes":[6.2362427E2,5.074297E2,2.6238037E1,4.3879913E2,2.5390945E1,2.645282E1,0E0,2.3621973E2,3.1893967E1,1.754123E1,0E0,2.2958069E1,0E0,2.274002E2,5.3358856E1,2.8014938E1,0E0,1.7277649E1,0E0,2.091919E1,0E0,1.9924536E2,3.5542374E0,0E0,4.2300766E1,2.7845322E1,0E0,1.4489502E1,0E0,1.9682922E1,0E0,0E0,0E0,0E0,0E0,0E0,0E0,0E0,0E0,0E0,0E0,0E0,0E0],"parents":[2147483647,0,0,1,1,2,2,3,3,4,4,5,5,7,7,8,8,9,9,11,11,13,13,14,14,15,15,17,17,19,19,21,21,22,22,24,24,25,25,27,27,29,29],"right_children":[2,4,6,8,10,12,-1,14,16,18,-1,20,-1,22,24,26,-1,28,-1,30,-1,32,34,-1,36,38,-1,40,-1,42,-1,-1,-1,-1,-1,-1,-1,-1,-1,-1,-1,-1,-1],"split_conditions":[1E0,1E0,1E0,1E0,1E0,1E0,-9.5843576E-2,1E0,1E0,1E0,-6.253075E-2,1E0,-7.3027216E-2,1E0,1E0,1E0,-8.359341E-2,1E0,-6.852933E-2,1E0,-6.76921E-2,1E0,1E0,-7.539661E-2,1E0,1E0,-6.603556E-2,1E0,-7.6849304E-2,1E0,-6.9665916E-2,-5.860811E-2,7.7576615E-2,6.0323697E-2,1.04806535E-1,-7.603415E-2,5.004544E-2,5.3525865E-2,-8.95504E-2,5.5771768E-2,-7.276627E-2,5.8505096E-2,-6.983986E-2],"split_indices":[116,229,210,675,1432,1959,0,1602,694,1308,0,1238,0,41,1750,1325,0,1238,0,378,0,667,959,0,1057,554,0,593,0,2026,0,0,0,0,0,0,0,0,0,0,0,0,0],"split_type":[0,0,0,0,0,0,0,0,0,0,0,0,0,0,0,0,0,0,0,0,0,0,0,0,0,0,0,0,0,0,0,0,0,0,0,0,0,0,0,0,0,0,0],"sum_hessian":[1.8618607E3,1.418736E3,4.4312485E2,1.1663716E3,2.523643E2,4.4108328E2,2.0415485E0,9.885171E2,1.7785457E2,2.4824908E2,4.115219E0,4.378803E2,3.2029965E0,8.8274194E2,1.057751E2,1.7396635E2,3.888211E0,2.4608362E2,2.1654649E0,4.3494193E2,2.9383757E0,8.5284265E2,2.9899338E1,1.0030683E1,9.5744415E1,1.6950356E2,4.4628086E0,2.443953E2,1.6883172E0,4.324917E2,2.450239E0,8.2591394E2,2.6928663E1,1.5706584E1,1.4192755E1,6.3033E0,8.944112E1,1.6690189E2,2.6016676E0,2.4299889E2,1.396411E0,4.302791E2,2.212575E0],"tree_param":{"num_deleted":"0","num_feature":"2048","num_nodes":"43","size_leaf_vector":"1"}},{"base_weights":[-5.42055E-2,-3.8330853E-1,1.0163099E0,-6.4417624E-1,9.021251E-1,1.1588534E0,5.095204E-1,-8.86384E-1,7.728535E-1,9.470762E-1,-1.0354576E-1,1.1758809E0,-7.984803E-2,-6.3801026E-1,9.2240506E-1,-1.0062587E0,1.313276E0,-1.0422721E-1,8.441762E-1,9.9666E-1,-9.061802E-2,1.1948174E0,-6.2778495E-2,-1.1471752E-1,6.303957E-2,1.0573124E0,-6.6102915E-2,-1.1893787E0,3.9879066E-1,-4.9537044E-2,6.957037E-2,9.225618E-1,-9.2320755E-2,1.0466009E0,-6.1698355E-2,1.2095581E0,-7.850285E-2,3.7530643E-1,6.2829606E-2,-6.2636904E-2,1.0457554E-1,-7.910426E-3,8.6764224E-2,5.097733E-2,-6.766368E-2,5.4473616E-2,-7.023643E-2,6.119882E-2,-7.247012E-2,-9.801143E-2,6.303957E-2],"categories":[],"categories_nodes":[],"categories_segments":[],"categories_sizes":[],"default_left":[0,0,0,0,0,0,0,0,0,0,0,0,0,0,0,0,0,0,0,0,0,0,0,0,0,0,0,0,0,0,0,0,0,0,0,0,0,0,0,0,0,0,0,0,0,0,0,0,0,0,0],"id":12,"left_children":[1,3,5,7,9,11,13,15,17,19,-1,21,-1,23,25,27,29,-1,31,33,-1,35,-1,-1,-1,37,-1,39,41,-1,-1,43,-1,45,-1,47,-1,49,-1,-1,-1,-1,-1,-1,-1,-1,-1,-1,-1,-1,-1],"loss_changes":[6.1476953E2,4.4809033E2,2.9051025E1,3.8164804E2,3.2105347E1,1.6868347E1,4.411145E1,2.5140369E2,3.488983E1,3.2302338E1,0E0,1.6145508E1,0E0,8.119575E1,2.1976532E1,2.3202966E2,1.0280052E1,0E0,3.5303993E1,2.575447E1,0E0,1.4783295E1,0E0,0E0,0E0,8.316994E0,0E0,1.6818225E2,7.808015E1,0E0,0E0,3.569612E1,0E0,2.415976E1,0E0,1.3851135E1,0E0,3.5660267E1,0E0,0E0,0E0,0E0,0E0,0E0,0E0,0E0,0E0,0E0,0E0,0E0,0E0],"parents":[2147483647,0,0,1,1,2,2,3,3,4,4,5,5,6,6,7,7,8,8,9,9,11,11,13,13,14,14,15,15,16,16,18,18,19,19,21,21,25,25,27,27,28,28,31,31,33,33,35,35,37,37],"right_children":[2,4,6,8,10,12,14,16,18,20,-1,22,-1,24,26,28,30,-1,32,34,-1,36,-1,-1,-1,38,-1,40,42,-1,-1,44,-1,46,-1,48,-1,50,-1,-1,-1,-1,-1,-1,-1,-1,-1,-1,-1,-1,-1],"split_conditions":[1E0,1E0,1E0,1E0,1E0,1E0,1E0,1E0,1E0,1E0,-1.0354576E-1,1E0,-7.984803E-2,1E0,1E0,1E0,1E0,-1.0422721E-1,1E0,1E0,-9.061802E-2,1E0,-6.2778495E-2,-1.1471752E-1,6.303957E-2,1E0,-6.6102915E-2,1E0,1E0,-4.9537044E-2,6.957037E-2,1E0,-9.2320755E-2,1E0,-6.1698355E-2,1E0,-7.850285E-2,1E0,6.2829606E-2,-6.2636904E-2,1.0457554E-1,-7.910426E-3,8.6764224E-2,5.097733E-2,-6.766368E-2,5.4473616E-2,-7.023643E-2,6.119882E-2,-7.247012E-2,-9.801143E-2,6.303957E-2],"split_indices":[116,229,650,675,1019,774,294,828,1057,1750,0,378,0,339,1722,1440,875,0,79,1432,0,674,0,0,0,1911,0,355,739,0,0,1325,0,13,0,1615,0,450,0,0,0,0,0,0,0,0,0,0,0,0,0],"split_type":[0,0,0,0,0,0,0,0,0,0,0,0,0,0,0,0,0,0,0,0,0,0,0,0,0,0,0,0,0,0,0,0,0,0,0,0,0,0,0,0,0,0,0,0,0,0,0,0,0,0,0],"sum_hessian":[1.7428627E3,1.333541E3,4.093217E2,1.1089816E3,2.2455942E2,3.1846194E2,9.085975E1,9.474174E2,1.6156415E2,2.2188605E2,2.6733732E0,3.1707614E2,1.3858191E0,2.3897144E1,6.696261E1,8.9896893E2,4.844851E1,3.2471385E0,1.58317E2,2.1859694E2,3.2891088E0,3.1513043E2,1.945693E0,1.2652207E1,1.1244938E1,6.366485E1,3.2977605E0,7.954513E2,1.035176E2,1.205943E0,4.7242565E1,1.544738E2,3.8432095E0,2.1432918E2,4.267753E0,3.140188E2,1.1116334E0,1.5048126E1,4.8616722E1,7.8098737E2,1.446397E1,7.368864E1,2.9828964E1,1.486894E2,5.7843885E0,2.1119121E2,3.137974E0,3.1286197E2,1.1568229E0,3.8031886E0,1.1244938E1],"tree_param":{"num_deleted":"0","num_feature":"2048","num_nodes":"51","size_leaf_vector":"1"}},{"base_weights":[-3.0627992E-2,-3.521538E-1,1.0187678E0,-6.7406785E-1,9.9817926E-1,1.0765003E0,-9.778783E-2,-8.901577E-1,6.8482465E-1,1.0948688E0,-9.007419E-2,1.0978161E0,-6.3203245E-2,-1.0807788E0,6.180845E-1,9.260688E-1,-3.3407187E-1,1.1246842E0,-6.909587E-2,1.1121287E0,-9.836417E-2,-1.1388375E0,9.869669E-2,3.4021798E-1,1.14259414E-1,1.0319805E0,-8.823308E-2,-1.0213623E-1,7.2735064E-2,1.1436142E0,-8.142001E-2,1.1275823E0,-8.326467E-2,-6.005923E-2,8.643135E-2,-3.584362E-2,5.956469E-2,5.4903746E-2,-7.537048E-2,5.820614E-2,-6.57979E-2,5.7179328E-2,-7.177296E-2],"categories":[],"categories_nodes":[],"categories_segments":[],"categories_sizes":[],"default_left":[0,0,0,0,0,0,0,0,0,0,0,0,0,0,0,0,0,0,0,0,0,0,0,0,0,0,0,0,0,0,0,0,0,0,0,0,0,0,0,0,0,0,0],"id":13,"left_children":[1,3,5,7,9,11,-1,13,15,17,-1,19,-1,21,23,25,27,29,-1,31,-1,33,-1,35,-1,37,-1,-1,-1,39,-1,41,-1,-1,-1,-1,-1,-1,-1,-1,-1,-1,-1],"loss_changes":[5.8399506E2,5.765612E2,7.18165E1,3.149205E2,7.1118546E1,2.1287292E1,0E0,2.663097E2,3.6546494E1,1.9833496E1,0E0,1.9551178E1,0E0,1.4779254E2,4.754202E1,3.5866386E1,9.147853E1,1.4637787E1,0E0,1.881424E1,0E0,1.4616821E2,0E0,8.234759E1,0E0,2.1052849E1,0E0,0E0,0E0,1.3842499E1,0E0,1.776239E1,0E0,0E0,0E0,0E0,0E0,0E0,0E0,0E0,0E0,0E0,0E0],"parents":[2147483647,0,0,1,1,2,2,3,3,4,4,5,5,7,7,8,8,9,9,11,11,13,13,14,14,15,15,16,16,17,17,19,19,21,21,23,23,25,25,29,29,31,31],"right_children":[2,4,6,8,10,12,-1,14,16,18,-1,20,-1,22,24,26,28,30,-1,32,-1,34,-1,36,-1,38,-1,-1,-1,40,-1,42,-1,-1,-1,-1,-1,-1,-1,-1,-1,-1,-1],"split_conditions":[1E0,1E0,1E0,1E0,1E0,1E0,-9.778783E-2,1E0,1E0,1E0,-9.007419E-2,1E0,-6.3203245E-2,1E0,1E0,1E0,1E0,1E0,-6.909587E-2,1E0,-9.836417E-2,1E0,9.869669E-2,1E0,1.14259414E-1,1E0,-8.823308E-2,-1.0213623E-1,7.2735064E-2,1E0,-8.142001E-2,1E0,-8.326467E-2,-6.005923E-2,8.643135E-2,-3.584362E-2,5.956469E-2,5.4903746E-2,-7.537048E-2,5.820614E-2,-6.57979E-2,5.7179328E-2,-7.177296E-2],"split_indices":[116,229,1017,675,695,1238,0,1602,926,1564,0,728,0,1857,463,79,66,1292,0,1816,0,1331,0,1536,0,1727,0,0,0,1308,0,1723,0,0,0,0,0,0,0,0,0,0,0],"split_type":[0,0,0,0,0,0,0,0,0,0,0,0,0,0,0,0,0,0,0,0,0,0,0,0,0,0,0,0,0,0,0,0,0,0,0,0,0,0,0,0,0,0,0],"sum_hessian":[1.7287648E3,1.3238217E3,4.0494308E2,1.0693853E3,2.544364E2,3.9785916E2,7.083938E0,9.229617E2,1.4642355E2,2.465311E2,7.905304E0,3.9479468E2,3.064495E0,8.196523E2,1.03309395E2,1.1846557E2,2.795799E1,2.4413809E2,2.3930106E0,3.9359393E2,1.2007339E0,8.0497986E2,1.4672453E1,8.958224E1,1.3727152E1,1.1457227E2,3.8932917E0,1.4226621E1,1.373137E1,2.430515E2,1.0865929E0,3.920068E2,1.5871196E0,7.884184E2,1.656147E1,4.0025597E1,4.9556644E1,1.12219055E2,2.3532178E0,2.4156396E2,1.4875339E0,3.901246E2,1.8821918E0],"tree_param":{"num_deleted":"0","num_feature":"2048","num_nodes":"43","size_leaf_vector":"1"}},{"base_weights":[6.83363E-3,-3.8219234E-1,1.0450289E0,-6.165963E-1,8.3991176E-1,1.1855507E0,4.441533E-1,-8.307328E-1,6.808232E-1,9.488544E-1,-8.657747E-2,1.2011999E0,-6.2286835E-2,-7.6637006E-1,1.0101339E0,-9.337376E-1,1.477537E0,-9.861173E-2,7.633123E-1,-1.1449223E-1,1.0272105E0,1.2123425E0,-6.2526256E-2,-1.0703563E-1,6.423416E-2,1.0792089E0,-7.612621E-2,-1.0203696E0,1.4525445E0,-4.5962032E-2,1.5768569E0,8.56532E-1,-8.206059E-2,1.0561305E0,-9.584867E-2,6.444038E-2,1.0044506E0,1.1630263E0,-5.8137156E-2,-5.5996437E-2,5.701636E-2,-4.7053777E-2,8.0671534E-2,6.487051E-2,9.568784E-2,4.6022218E-2,-8.3122514E-2,5.45668E-2,-5.372808E-2,5.2308943E-2,-8.276811E-2,6.151356E-2,4.1244455E-2],"categories":[],"categories_nodes":[],"categories_segments":[],"categories_sizes":[],"default_left":[0,0,0,0,0,0,0,0,0,0,0,0,0,0,0,0,0,0,0,0,0,0,0,0,0,0,0,0,0,0,0,0,0,0,0,0,0,0,0,0,0,0,0,0,0,0,0,0,0,0,0,0,0],"id":14,"left_children":[1,3,5,7,9,11,13,15,17,19,-1,21,-1,23,25,27,29,-1,31,-1,33,35,-1,-1,-1,37,-1,39,41,-1,43,45,-1,47,-1,-1,49,51,-1,-1,-1,-1,-1,-1,-1,-1,-1,-1,-1,-1,-1,-1,-1],"loss_changes":[7.027769E2,3.6311563E2,3.9520752E1,2.9579135E2,5.882817E1,1.6098999E1,6.3460075E1,2.1834857E2,3.4570946E1,5.2212906E1,0E0,1.1947754E1,0E0,8.652094E1,1.262545E1,1.821991E2,1.0821259E1,0E0,3.4412537E1,0E0,1.8417526E1,4.7561646E0,0E0,0E0,0E0,1.2945709E1,0E0,1.8286523E2,1.3470734E1,0E0,1.1107025E0,2.445819E1,0E0,1.5522537E1,0E0,0E0,1.3595047E1,3.4879303E-1,0E0,0E0,0E0,0E0,0E0,0E0,0E0,0E0,0E0,0E0,0E0,0E0,0E0,0E0,0E0],"parents":[2147483647,0,0,1,1,2,2,3,3,4,4,5,5,6,6,7,7,8,8,9,9,11,11,13,13,14,14,15,15,16,16,18,18,20,20,21,21,25,25,27,27,28,28,30,30,31,31,33,33,36,36,37,37],"right_children":[2,4,6,8,10,12,14,16,18,20,-1,22,-1,24,26,28,30,-1,32,-1,34,36,-1,-1,-1,38,-1,40,42,-1,44,46,-1,48,-1,-1,50,52,-1,-1,-1,-1,-1,-1,-1,-1,-1,-1,-1,-1,-1,-1,-1],"split_conditions":[1E0,1E0,1E0,1E0,1E0,1E0,1E0,1E0,1E0,1E0,-8.657747E-2,1E0,-6.2286835E-2,1E0,1E0,1E0,1E0,-9.861173E-2,1E0,-1.1449223E-1,1E0,1E0,-6.2526256E-2,-1.0703563E-1,6.423416E-2,1E0,-7.612621E-2,1E0,1E0,-4.5962032E-2,1E0,1E0,-8.206059E-2,1E0,-9.584867E-2,6.444038E-2,1E0,1E0,-5.8137156E-2,-5.5996437E-2,5.701636E-2,-4.7053777E-2,8.0671534E-2,6.487051E-2,9.568784E-2,4.6022218E-2,-8.3122514E-2,5.45668E-2,-5.372808E-2,5.2308943E-2,-8.276811E-2,6.151356E-2,4.1244455E-2],"split_indices":[116,229,650,675,695,378,1942,667,1057,1057,0,1604,0,500,1245,1517,841,0,694,0,321,394,0,0,0,1959,0,1168,389,0,1,665,0,1432,0,0,844,1,0,0,0,0,0,0,0,0,0,0,0,0,0,0,0],"split_type":[0,0,0,0,0,0,0,0,0,0,0,0,0,0,0,0,0,0,0,0,0,0,0,0,0,0,0,0,0,0,0,0,0,0,0,0,0,0,0,0,0,0,0,0,0,0,0,0,0,0,0,0,0],"sum_hessian":[1.7380536E3,1.264762E3,4.7329172E2,1.0616324E3,2.0312944E2,3.8279712E2,9.049459E1,9.115437E2,1.5008879E2,1.9547878E2,7.6506557E0,3.8085165E2,1.9454488E0,2.8718086E1,6.1776505E1,8.7317444E2,3.836926E1,3.835042E0,1.4625375E2,3.9509304E0,1.9152785E2,3.7963184E2,1.2198402E0,1.7169598E1,1.154849E1,6.069501E1,1.0814948E0,8.431374E2,3.0037046E1,1.1982317E0,3.717103E1,1.4141508E2,4.838663E0,1.9029987E2,1.2279905E0,2.7374564E2,1.0588619E2,5.8971546E1,1.7234633E0,8.064596E2,3.6677784E1,1.5863553E0,2.8450691E1,2.296959E1,1.420144E1,1.3853474E2,2.880349E0,1.8768651E2,2.6133537E0,1.0484796E2,1.0382282E0,4.6988625E1,1.19829235E1],"tree_param":{"num_deleted":"0","num_feature":"2048","num_nodes":"53","size_leaf_vector":"1"}},{"base_weights":[4.2926945E-2,-2.7555138E-1,1.0037118E0,-5.5880916E-1,9.207666E-1,1.1076703E0,3.754723E-1,-7.925312E-1,7.859312E-1,9.5379525E-1,-5.9057057E-2,1.1216086E0,-7.74573E-2,-2.2204755E-1,6.554724E-2,-8.775386E-1,1.7024385E0,8.8186264E-1,-8.4639885E-2,9.807977E-1,-7.1228586E-2,1.1366243E0,-5.8185514E-2,-9.875431E-2,7.170717E-1,-1.0207394E0,3.512838E-1,1.8810971E0,-5.432589E-2,1.0503551E0,-2.2639489E-1,1.008563E0,-6.006437E-2,1.1502888E0,-5.6161083E-2,-6.602054E-2,8.844353E-1,-5.402953E-2,9.680744E-2,-4.026337E-4,1.1050427E-1,6.91601E-2,1.125885E-1,5.5796172E-2,-5.7496518E-2,-1.11982286E-1,6.423212E-2,5.135535E-2,-8.032044E-2,5.807798E-2,-6.0607202E-2,2.4273453E-2,6.2954985E-2],"categories":[],"categories_nodes":[],"categories_segments":[],"categories_sizes":[],"default_left":[0,0,0,0,0,0,0,0,0,0,0,0,0,0,0,0,0,0,0,0,0,0,0,0,0,0,0,0,0,0,0,0,0,0,0,0,0,0,0,0,0,0,0,0,0,0,0,0,0,0,0,0,0],"id":15,"left_children":[1,3,5,7,9,11,13,15,17,19,-1,21,-1,23,-1,25,27,29,-1,31,-1,33,-1,-1,35,37,39,41,-1,43,45,47,-1,49,-1,-1,51,-1,-1,-1,-1,-1,-1,-1,-1,-1,-1,-1,-1,-1,-1,-1,-1],"loss_changes":[5.3212E2,4.4313702E2,2.7858826E1,3.3275302E2,1.8512955E1,1.5474335E1,3.549473E1,1.9253949E2,3.8819275E1,1.7267685E1,0E0,1.4005402E1,0E0,6.609553E1,0E0,1.5375922E2,1.7001732E1,2.8580597E1,0E0,1.6051453E1,0E0,1.2645996E1,0E0,0E0,1.01416445E1,1.4031213E2,6.1287766E1,2.159668E0,0E0,2.0316498E1,6.631515E1,1.3404587E1,0E0,1.1152313E1,0E0,0E0,3.1133728E0,0E0,0E0,0E0,0E0,0E0,0E0,0E0,0E0,0E0,0E0,0E0,0E0,0E0,0E0,0E0,0E0],"parents":[2147483647,0,0,1,1,2,2,3,3,4,4,5,5,6,6,7,7,8,8,9,9,11,11,13,13,15,15,16,16,17,17,19,19,21,21,24,24,25,25,26,26,27,27,29,29,30,30,31,31,33,33,36,36],"right_children":[2,4,6,8,10,12,14,16,18,20,-1,22,-1,24,-1,26,28,30,-1,32,-1,34,-1,-1,36,38,40,42,-1,44,46,48,-1,50,-1,-1,52,-1,-1,-1,-1,-1,-1,-1,-1,-1,-1,-1,-1,-1,-1,-1,-1],"split_conditions":[1E0,1E0,1E0,1E0,1E0,1E0,1E0,1E0,1E0,1E0,-5.9057057E-2,1E0,-7.74573E-2,1E0,6.554724E-2,1E0,1E0,1E0,-8.4639885E-2,1E0,-7.1228586E-2,1E0,-5.8185514E-2,-9.875431E-2,1E0,1E0,1E0,1E0,-5.432589E-2,1E0,1E0,1E0,-6.006437E-2,1E0,-5.6161083E-2,-6.602054E-2,1E0,-5.402953E-2,9.680744E-2,-4.026337E-4,1.1050427E-1,6.91601E-2,1.125885E-1,5.5796172E-2,-5.7496518E-2,-1.11982286E-1,6.423212E-2,5.135535E-2,-8.032044E-2,5.807798E-2,-6.0607202E-2,2.4273453E-2,6.2954985E-2],"split_indices":[116,229,1917,675,1267,674,1737,41,1917,1238,0,378,0,1911,0,1602,1380,378,0,13,0,1342,0,0,294,1882,463,959,0,1325,760,1292,0,1742,0,0,474,0,0,0,0,0,0,0,0,0,0,0,0,0,0,0,0],"split_type":[0,0,0,0,0,0,0,0,0,0,0,0,0,0,0,0,0,0,0,0,0,0,0,0,0,0,0,0,0,0,0,0,0,0,0,0,0,0,0,0,0,0,0,0,0,0,0,0,0,0,0,0,0],"sum_hessian":[1.737112E3,1.3051859E3,4.319262E2,1.0557451E3,2.494408E2,3.6994598E2,6.198022E1,8.9977136E2,1.5597374E2,2.4611958E2,3.3212135E0,3.685901E2,1.3558877E0,3.828735E1,2.3692871E1,8.707518E2,2.901957E1,1.5078241E2,5.191332E0,2.4393768E2,2.1818988E0,3.6668344E2,1.9066476E0,1.2971165E1,2.5316187E1,7.8002136E2,9.073041E1,2.7578434E1,1.4411352E0,1.3092903E2,1.9853378E1,2.4140381E2,2.5338762E0,3.649676E2,1.7158514E0,1.398719E0,2.3917467E1,7.6516797E2,1.4853426E1,7.686653E1,1.3863876E1,1.37887335E1,1.3789701E1,1.27618835E2,3.3101997E0,8.305389E0,1.1547989E1,2.403069E2,1.0969076E0,3.6374057E2,1.227011E0,1.2694894E1,1.1222574E1],"tree_param":{"num_deleted":"0","num_feature":"2048","num_nodes":"53","size_leaf_vector":"1"}},{"base_weights":[7.4984916E-2,3.680792E-1,-7.546018E-1,4.8422182E-1,-1.1333832E0,-1.121066E0,7.639688E-1,5.4865134E-1,-9.4144416E-1,-7.2360225E-2,6.0159184E-2,-1.3390464E0,8.300954E-1,1.7985436E-1,1.5123625E0,5.8762693E-1,-7.483457E-2,-7.699618E-2,6.1166562E-2,-7.237329E-2,1.0690361E0,-8.247134E-2,5.8878798E-2,-6.9785826E-2,7.9711854E-1,6.119142E-2,9.369286E-2,6.484503E-1,-7.351952E-1,-4.8158433E-2,6.761759E-2,5.474131E-2,9.148439E-2,3.4178767E-2,-7.092803E-2,-7.6356374E-2,6.762799E-2,-8.170968E-2,6.769373E-2],"categories":[],"categories_nodes":[],"categories_segments":[],"categories_sizes":[],"default_left":[0,0,0,0,0,0,0,0,0,0,0,0,0,0,0,0,0,0,0,0,0,0,0,0,0,0,0,0,0,0,0,0,0,0,0,0,0,0,0],"id":16,"left_children":[1,3,5,7,9,11,13,15,17,-1,-1,19,21,23,25,27,-1,-1,-1,-1,29,-1,-1,-1,31,-1,-1,33,35,-1,-1,37,-1,-1,-1,-1,-1,-1,-1],"loss_changes":[4.194286E2,2.2279886E2,2.5148758E2,1.0924362E2,6.90597E1,1.5559409E2,3.8262398E1,9.121097E1,6.866915E1,0E0,0E0,8.6948E1,3.392247E1,5.0365654E1,1.7230453E0,8.999988E1,0E0,0E0,0E0,0E0,9.747623E0,0E0,0E0,0E0,2.8281073E1,0E0,0E0,7.824063E1,8.370836E1,0E0,0E0,5.1733696E1,0E0,0E0,0E0,0E0,0E0,0E0,0E0],"parents":[2147483647,0,0,1,1,2,2,3,3,4,4,5,5,6,6,7,7,8,8,11,11,12,12,13,13,14,14,15,15,20,20,24,24,27,27,28,28,31,31],"right_children":[2,4,6,8,10,12,14,16,18,-1,-1,20,22,24,26,28,-1,-1,-1,-1,30,-1,-1,-1,32,-1,-1,34,36,-1,-1,38,-1,-1,-1,-1,-1,-1,-1],"split_conditions":[1E0,1E0,1E0,1E0,1E0,1E0,1E0,1E0,1E0,-7.2360225E-2,6.0159184E-2,1E0,1E0,1E0,1E0,1E0,-7.483457E-2,-7.699618E-2,6.1166562E-2,-7.237329E-2,1E0,-8.247134E-2,5.8878798E-2,-6.9785826E-2,1E0,6.119142E-2,9.369286E-2,1E0,1E0,-4.8158433E-2,6.761759E-2,1E0,9.148439E-2,3.4178767E-2,-7.092803E-2,-7.6356374E-2,6.762799E-2,-8.170968E-2,6.769373E-2],"split_indices":[695,1325,875,1199,1560,1942,667,1257,683,0,0,1727,794,1607,1,1274,0,0,0,0,1,0,0,0,940,0,0,432,1724,0,0,172,0,0,0,0,0,0,0],"split_type":[0,0,0,0,0,0,0,0,0,0,0,0,0,0,0,0,0,0,0,0,0,0,0,0,0,0,0,0,0,0,0,0,0,0,0,0,0,0,0],"sum_hessian":[1.722857E3,1.273488E3,4.49369E2,1.1826816E3,9.08065E1,3.6221933E2,8.714966E1,1.1321327E3,5.0548843E1,8.0390045E1,1.0416458E1,3.2610153E2,3.6117775E1,4.96436E1,3.750606E1,1.1116619E3,2.0470856E1,3.9826855E1,1.0721991E1,3.1243372E2,1.3667829E1,3.97887E0,3.2138905E1,1.3619247E1,3.6024353E1,2.3296766E1,1.4209294E1,1.063282E3,4.837993E1,1.3787212E0,1.2289107E1,2.1569635E1,1.4454718E1,1.0461735E3,1.7108482E1,3.5269825E1,1.31101055E1,9.265776E0,1.230386E1],"tree_param":{"num_deleted":"0","num_feature":"2048","num_nodes":"39","size_leaf_vector":"1"}},{"base_weights":[1.0880171E-1,-2.0435438E-1,1.0127852E0,-4.493585E-1,9.336265E-1,1.0316066E0,-6.412414E-2,-6.802391E-1,7.88745E-1,9.8527557E-1,-7.249196E-2,1.0486395E0,-6.54077E-2,-7.7335906E-1,1.4069988E0,9.207589E-1,-9.7611345E-2,1.0152706E0,-8.706712E-2,1.0639299E0,-6.1829668E-2,-8.5825783E-1,1.6071568E0,1.1111116E0,8.947971E-2,-8.666609E-2,9.7229177E-1,1.0462284E0,-7.2928645E-2,1.0775977E0,-6.58627E-2,-4.8919138E-2,3.2982063E-2,8.8736646E-2,-5.163312E-2,-4.5533393E-2,6.270949E-2,5.079142E-2,-7.194065E-2,5.3879958E-2,-6.739869E-2,5.4414373E-2,-8.904996E-2],"categories":[],"categories_nodes":[],"categories_segments":[],"categories_sizes":[],"default_left":[0,0,0,0,0,0,0,0,0,0,0,0,0,0,0,0,0,0,0,0,0,0,0,0,0,0,0,0,0,0,0,0,0,0,0,0,0,0,0,0,0,0,0],"id":17,"left_children":[1,3,5,7,9,11,-1,13,15,17,-1,19,-1,21,23,25,-1,27,-1,29,-1,31,33,35,-1,-1,37,39,-1,41,-1,-1,-1,-1,-1,-1,-1,-1,-1,-1,-1,-1,-1],"loss_changes":[4.9103198E2,3.596841E2,2.0601532E1,3.0381686E2,2.9570236E1,1.9034088E1,0E0,1.7499438E2,6.230361E1,2.0116241E1,0E0,1.6709106E1,0E0,1.7461774E2,2.3776627E0,2.3597687E1,0E0,1.8569153E1,0E0,1.5679108E1,0E0,1.5167804E2,1.5044487E1,8.196386E0,0E0,0E0,1.8026062E1,1.800418E1,0E0,1.5267456E1,0E0,0E0,0E0,0E0,0E0,0E0,0E0,0E0,0E0,0E0,0E0,0E0,0E0],"parents":[2147483647,0,0,1,1,2,2,3,3,4,4,5,5,7,7,8,8,9,9,11,11,13,13,14,14,15,15,17,17,19,19,21,21,22,22,23,23,26,26,27,27,29,29],"right_children":[2,4,6,8,10,12,-1,14,16,18,-1,20,-1,22,24,26,-1,28,-1,30,-1,32,34,36,-1,-1,38,40,-1,42,-1,-1,-1,-1,-1,-1,-1,-1,-1,-1,-1,-1,-1],"split_conditions":[1E0,1E0,1E0,1E0,1E0,1E0,-6.412414E-2,1E0,1E0,1E0,-7.249196E-2,1E0,-6.54077E-2,1E0,1E0,1E0,-9.7611345E-2,1E0,-8.706712E-2,1E0,-6.1829668E-2,1E0,1E0,1E0,8.947971E-2,-8.666609E-2,1E0,1E0,-7.2928645E-2,1E0,-6.58627E-2,-4.8919138E-2,3.2982063E-2,8.8736646E-2,-5.163312E-2,-4.5533393E-2,6.270949E-2,5.079142E-2,-7.194065E-2,5.3879958E-2,-6.739869E-2,5.4414373E-2,-8.904996E-2],"split_indices":[116,229,1959,675,147,423,0,667,1738,1807,0,378,0,41,118,1057,0,1290,0,1604,0,1607,1380,31,0,0,665,1564,0,1991,0,0,0,0,0,0,0,0,0,0,0,0,0],"split_type":[0,0,0,0,0,0,0,0,0,0,0,0,0,0,0,0,0,0,0,0,0,0,0,0,0,0,0,0,0,0,0,0,0,0,0,0,0,0,0,0,0,0,0],"sum_hessian":[1.7328253E3,1.287564E3,4.4526132E2,1.0599622E3,2.276018E2,4.421859E2,3.075406E0,8.9374744E2,1.6621475E2,2.2334853E2,4.2532845E0,4.39538E2,2.6479275E0,8.561794E2,3.7568085E1,1.5921072E2,7.0040197E0,2.2153906E2,1.8094618E0,4.3714746E2,2.3905184E0,8.2731354E2,2.8865858E1,2.3386135E1,1.418195E1,2.4108377E0,1.567999E2,2.1937093E2,2.1681426E0,4.3519696E2,1.9505255E0,7.669716E2,6.03419E1,2.7450972E1,1.4148864E0,1.1910505E0,2.2195084E1,1.5458723E2,2.2126496E0,2.1707652E2,2.294402E0,4.3419257E2,1.0043817E0],"tree_param":{"num_deleted":"0","num_feature":"2048","num_nodes":"43","size_leaf_vector":"1"}},{"base_weights":[6.485592E-2,-2.170979E-1,9.4972897E-1,-4.1256556E-1,8.258671E-1,9.723975E-1,-6.418337E-2,-6.8895936E-1,8.607657E-1,8.688035E-1,-7.9796076E-2,9.941529E-1,-6.1143216E-2,-8.0644214E-1,8.33976E-1,9.187607E-1,-5.997787E-2,9.130141E-1,-7.823777E-2,1.0119698E0,-7.260146E-2,-9.705139E-1,3.4375864E-1,4.4279584E-1,1.02749385E-1,9.582239E-1,-8.3344065E-2,9.3606746E-1,-8.676058E-2,1.0256679E0,-6.811604E-2,-5.1979583E-2,9.713729E-2,-7.207087E-2,4.3433104E-2,-7.91234E-2,5.9884887E-2,4.9878184E-2,-7.913674E-2,4.8438948E-2,-5.1822033E-2,5.1999915E-2,-6.385473E-2],"categories":[],"categories_nodes":[],"categories_segments":[],"categories_sizes":[],"default_left":[0,0,0,0,0,0,0,0,0,0,0,0,0,0,0,0,0,0,0,0,0,0,0,0,0,0,0,0,0,0,0,0,0,0,0,0,0,0,0,0,0,0,0],"id":18,"left_children":[1,3,5,7,9,11,-1,13,15,17,-1,19,-1,21,23,25,-1,27,-1,29,-1,31,33,35,-1,37,-1,39,-1,41,-1,-1,-1,-1,-1,-1,-1,-1,-1,-1,-1,-1,-1],"loss_changes":[4.165614E2,2.585094E2,2.1673431E1,3.7616858E2,2.220491E1,2.0316986E1,0E0,1.5765286E2,2.389714E1,2.2663406E1,0E0,1.8753693E1,0E0,1.5414722E2,2.9337616E1,2.0588043E1,0E0,1.3497345E1,0E0,1.4221344E1,0E0,1.4561902E2,9.7288666E1,7.717195E1,0E0,1.9966888E1,0E0,1.3486176E1,0E0,1.4284119E1,0E0,0E0,0E0,0E0,0E0,0E0,0E0,0E0,0E0,0E0,0E0,0E0,0E0],"parents":[2147483647,0,0,1,1,2,2,3,3,4,4,5,5,7,7,8,8,9,9,11,11,13,13,14,14,15,15,17,17,19,19,21,21,22,22,23,23,25,25,27,27,29,29],"right_children":[2,4,6,8,10,12,-1,14,16,18,-1,20,-1,22,24,26,-1,28,-1,30,-1,32,34,36,-1,38,-1,40,-1,42,-1,-1,-1,-1,-1,-1,-1,-1,-1,-1,-1,-1,-1],"split_conditions":[1E0,1E0,1E0,1E0,1E0,1E0,-6.418337E-2,1E0,1E0,1E0,-7.9796076E-2,1E0,-6.1143216E-2,1E0,1E0,1E0,-5.997787E-2,1E0,-7.823777E-2,1E0,-7.260146E-2,1E0,1E0,1E0,1.02749385E-1,1E0,-8.3344065E-2,1E0,-8.676058E-2,1E0,-6.811604E-2,-5.1979583E-2,9.713729E-2,-7.207087E-2,4.3433104E-2,-7.91234E-2,5.9884887E-2,4.9878184E-2,-7.913674E-2,4.8438948E-2,-5.1822033E-2,5.1999915E-2,-6.385473E-2],"split_indices":[116,229,1959,675,1750,1238,0,1737,1325,1053,0,926,0,875,388,719,0,1582,0,1824,0,1331,80,1110,0,1693,0,1432,0,423,0,0,0,0,0,0,0,0,0,0,0,0,0],"split_type":[0,0,0,0,0,0,0,0,0,0,0,0,0,0,0,0,0,0,0,0,0,0,0,0,0,0,0,0,0,0,0,0,0,0,0,0,0,0,0,0,0,0,0],"sum_hessian":[1.667803E3,1.2653649E3,4.0243814E2,1.0661554E3,1.9920949E2,3.9895343E2,3.4846928E0,8.763834E2,1.8977194E2,1.9636926E2,2.8402183E0,3.9558032E2,3.3731248E0,8.140557E2,6.232769E1,1.851153E2,4.6566467E0,1.9347914E2,2.8901207E0,3.93302E2,2.278327E0,7.12567E2,1.0148874E2,4.8236595E1,1.4091096E1,1.829524E2,2.1628945E0,1.9245035E2,1.0287924E0,3.9161066E2,1.6913317E0,6.9669055E2,1.587644E1,2.2663841E1,7.88249E1,1.2800076E1,3.543652E1,1.8076122E2,2.1911852E0,1.8981145E2,2.6389108E0,3.8973367E2,1.8769945E0],"tree_param":{"num_deleted":"0","num_feature":"2048","num_nodes":"43","size_leaf_vector":"1"}},{"base_weights":[7.7038065E-2,-1.7680888E-1,9.0614206E-1,-4.0914613E-1,8.82111E-1,9.2916656E-1,-6.258793E-2,-6.110937E-1,6.523371E-1,9.194153E-1,-1.0494019E-1,9.503807E-1,-6.164586E-2,-7.137664E-1,1.1950167E0,7.8233117E-1,-9.995991E-2,9.553119E-1,-7.044404E-2,9.6782994E-1,-6.945213E-2,-8.01134E-1,1.187171E0,-4.8507955E-2,6.502874E-2,8.919672E-1,-8.389757E-2,9.9008185E-1,-5.3544104E-2,9.8212665E-1,-8.735356E-2,-4.5168314E-2,4.9168605E-2,7.132732E-2,-6.0637202E-2,4.68993E-2,-7.784586E-2,5.1035173E-2,-5.775813E-2,4.9950834E-2,-6.7038976E-2],"categories":[],"categories_nodes":[],"categories_segments":[],"categories_sizes":[],"default_left":[0,0,0,0,0,0,0,0,0,0,0,0,0,0,0,0,0,0,0,0,0,0,0,0,0,0,0,0,0,0,0,0,0,0,0,0,0,0,0,0,0],"id":19,"left_children":[1,3,5,7,9,11,-1,13,15,17,-1,19,-1,21,23,25,-1,27,-1,29,-1,31,33,-1,-1,35,-1,37,-1,39,-1,-1,-1,-1,-1,-1,-1,-1,-1,-1,-1],"loss_changes":[3.4202075E2,3.065166E2,2.0088287E1,2.1930237E2,2.686348E1,1.8484467E1,0E0,1.6004587E2,5.799205E1,1.9912537E1,0E0,1.6626007E1,0E0,1.3596072E2,1.1901001E1,4.3785057E1,0E0,1.6515045E1,0E0,1.6161407E1,0E0,1.4278464E2,2.248207E1,0E0,0E0,1.8448166E1,0E0,1.5380661E1,0E0,1.5889893E1,0E0,0E0,0E0,0E0,0E0,0E0,0E0,0E0,0E0,0E0,0E0],"parents":[2147483647,0,0,1,1,2,2,3,3,4,4,5,5,7,7,8,8,9,9,11,11,13,13,14,14,15,15,17,17,19,19,21,21,22,22,25,25,27,27,29,29],"right_children":[2,4,6,8,10,12,-1,14,16,18,-1,20,-1,22,24,26,-1,28,-1,30,-1,32,34,-1,-1,36,-1,38,-1,40,-1,-1,-1,-1,-1,-1,-1,-1,-1,-1,-1],"split_conditions":[1E0,1E0,1E0,1E0,1E0,1E0,-6.258793E-2,1E0,1E0,1E0,-1.0494019E-1,1E0,-6.164586E-2,1E0,1E0,1E0,-9.995991E-2,1E0,-7.044404E-2,1E0,-6.945213E-2,1E0,1E0,-4.8507955E-2,6.502874E-2,1E0,-8.389757E-2,1E0,-5.3544104E-2,1E0,-8.735356E-2,-4.5168314E-2,4.9168605E-2,7.132732E-2,-6.0637202E-2,4.68993E-2,-7.784586E-2,5.1035173E-2,-5.775813E-2,4.9950834E-2,-6.7038976E-2],"split_indices":[116,229,1959,675,694,1290,0,828,1738,1290,0,1824,0,1168,875,283,0,1432,0,1427,0,1844,1004,0,0,719,0,13,0,1723,0,0,0,0,0,0,0,0,0,0,0],"split_type":[0,0,0,0,0,0,0,0,0,0,0,0,0,0,0,0,0,0,0,0,0,0,0,0,0,0,0,0,0,0,0,0,0,0,0,0,0,0,0,0,0],"sum_hessian":[1.6233068E3,1.2434011E3,3.7990564E2,1.02017786E3,2.2322325E2,3.7645828E2,3.4473538E0,8.574685E2,1.627094E2,2.211473E2,2.0759518E0,3.733554E2,3.1028883E0,8.1191785E2,4.5550625E1,1.5577722E2,6.93218E0,2.1837025E2,2.777039E0,3.711732E2,2.1822057E0,7.7679474E2,3.5123135E1,1.7367225E0,4.3813904E1,1.4974184E2,6.0353947E0,2.1518892E2,3.1813333E0,3.6986374E2,1.3094615E0,7.351714E2,4.1623337E1,3.2306377E1,2.816759E0,1.4758542E2,2.1564124E0,2.1267734E2,2.5115845E0,3.6775967E2,2.1040714E0],"tree_param":{"num_deleted":"0","num_feature":"2048","num_nodes":"41","size_leaf_vector":"1"}},{"base_weights":[2.787116E-2,-2.4382538E-1,9.0060896E-1,-4.7821394E-1,8.2495064E-1,9.284235E-1,-8.060674E-2,-6.2632E-1,4.9605998E-1,8.7195474E-1,-8.625805E-2,9.4696516E-1,-8.21873E-2,-7.8831637E-1,6.510834E-1,6.4748037E-1,-9.453293E-2,9.051063E-1,-6.737971E-2,9.637045E-1,-9.410503E-2,-9.938826E-1,4.1900393E-1,2.9080495E-1,1.4036183E-1,7.9363257E-1,-9.542446E-2,9.3533444E-1,-5.0859004E-2,9.820889E-1,-6.485028E-2,-5.6543715E-2,5.2664515E-2,-6.997522E-2,4.4057116E-2,-2.4894787E-2,8.5756294E-2,-8.833311E-2,4.4328697E-2,4.802695E-2,-6.31045E-2,4.981287E-2,-8.640936E-2],"categories":[],"categories_nodes":[],"categories_segments":[],"categories_sizes":[],"default_left":[0,0,0,0,0,0,0,0,0,0,0,0,0,0,0,0,0,0,0,0,0,0,0,0,0,0,0,0,0,0,0,0,0,0,0,0,0,0,0,0,0,0,0],"id":20,"left_children":[1,3,5,7,9,11,-1,13,15,17,-1,19,-1,21,23,25,-1,27,-1,29,-1,31,33,35,-1,37,-1,39,-1,41,-1,-1,-1,-1,-1,-1,-1,-1,-1,-1,-1,-1,-1],"loss_changes":[3.7108182E2,2.9937793E2,2.746289E1,1.4164452E2,2.7279205E1,1.9111633E1,0E0,1.765456E2,4.8135937E1,1.6804642E1,0E0,1.9150696E1,0E0,1.8789008E2,7.3979614E1,4.7390614E1,0E0,1.3112396E1,0E0,1.6427155E1,0E0,1.8229572E2,9.4187256E1,9.478476E1,0E0,2.9376633E1,0E0,1.2652985E1,0E0,1.5631439E1,0E0,0E0,0E0,0E0,0E0,0E0,0E0,0E0,0E0,0E0,0E0,0E0,0E0],"parents":[2147483647,0,0,1,1,2,2,3,3,4,4,5,5,7,7,8,8,9,9,11,11,13,13,14,14,15,15,17,17,19,19,21,21,22,22,23,23,25,25,27,27,29,29],"right_children":[2,4,6,8,10,12,-1,14,16,18,-1,20,-1,22,24,26,-1,28,-1,30,-1,32,34,36,-1,38,-1,40,-1,42,-1,-1,-1,-1,-1,-1,-1,-1,-1,-1,-1,-1,-1],"split_conditions":[1E0,1E0,1E0,1E0,1E0,1E0,-8.060674E-2,1E0,1E0,1E0,-8.625805E-2,1E0,-8.21873E-2,1E0,1E0,1E0,-9.453293E-2,1E0,-6.737971E-2,1E0,-9.410503E-2,1E0,1E0,1E0,1.4036183E-1,1E0,-9.542446E-2,1E0,-5.0859004E-2,1E0,-6.485028E-2,-5.6543715E-2,5.2664515E-2,-6.997522E-2,4.4057116E-2,-2.4894787E-2,8.5756294E-2,-8.833311E-2,4.4328697E-2,4.802695E-2,-6.31045E-2,4.981287E-2,-8.640936E-2],"split_indices":[116,229,930,675,1750,1816,0,1440,1738,1290,0,210,0,875,1652,1452,0,1432,0,2026,0,1844,80,283,0,1057,0,1308,0,1245,0,0,0,0,0,0,0,0,0,0,0,0,0],"split_type":[0,0,0,0,0,0,0,0,0,0,0,0,0,0,0,0,0,0,0,0,0,0,0,0,0,0,0,0,0,0,0,0,0,0,0,0,0,0,0,0,0,0,0],"sum_hessian":[1.5630287E3,1.1925045E3,3.7052414E2,9.7847253E2,2.1403195E2,3.670912E2,3.4329667E0,8.4966614E2,1.2880644E2,2.1080444E2,3.2275107E0,3.6509125E2,1.9999352E0,7.5438074E2,9.528537E1,1.21807335E2,6.999098E0,2.0828566E2,2.5187833E0,3.635992E2,1.4920322E0,6.447741E2,1.0960664E2,8.261572E1,1.2669649E1,1.1587123E2,5.936103E0,2.0556653E2,2.7191238E0,3.6122726E2,2.3719683E0,6.047531E2,4.0020977E1,2.1799112E1,8.780753E1,5.359086E1,2.9024864E1,3.4280825E0,1.1244315E2,2.0379192E2,1.7746217E0,3.599778E2,1.2494351E0],"tree_param":{"num_deleted":"0","num_feature":"2048","num_nodes":"43","size_leaf_vector":"1"}},{"base_weights":[-6.835186E-3,-2.8003794E-1,8.561056E-1,-5.118403E-1,8.11218E-1,8.771809E-1,-9.750394E-2,-7.044794E-1,6.195898E-1,8.5688925E-1,-8.223158E-2,1.0056354E0,4.171626E-1,-8.3103305E-1,1.0282667E0,7.0816785E-1,-8.697435E-2,8.947494E-1,-8.483767E-2,1.0284797E0,-7.0082046E-2,6.029109E-1,-8.235782E-2,-1.0446713E0,4.8714966E-1,-7.8363575E-2,1.5823617E0,4.3197134E-1,6.860968E-2,9.3067974E-1,-5.1469147E-2,1.044603E0,-8.068456E-2,7.4762726E-1,-8.69165E-2,-5.617369E-2,9.4410144E-2,-6.811657E-2,4.635514E-2,8.371889E-2,-4.8598018E-2,1.5415372E-3,7.457235E-2,4.7968555E-2,-6.255089E-2,5.4474186E-2,2.3698682E-2,4.1949496E-2,-6.297408E-2],"categories":[],"categories_nodes":[],"categories_segments":[],"categories_sizes":[],"default_left":[0,0,0,0,0,0,0,0,0,0,0,0,0,0,0,0,0,0,0,0,0,0,0,0,0,0,0,0,0,0,0,0,0,0,0,0,0,0,0,0,0,0,0,0,0,0,0,0,0],"id":21,"left_children":[1,3,5,7,9,11,-1,13,15,17,-1,19,21,23,25,27,-1,29,-1,31,-1,33,-1,35,37,-1,39,41,-1,43,-1,45,-1,47,-1,-1,-1,-1,-1,-1,-1,-1,-1,-1,-1,-1,-1,-1,-1],"loss_changes":[3.5290353E2,2.8800598E2,2.2998444E1,2.0495573E2,2.379425E1,2.0732727E1,0E0,1.7678537E2,2.9870552E1,2.0524872E1,0E0,1.679068E1,3.1609394E1,2.1122302E2,8.165892E1,2.3763496E1,0E0,1.4396027E1,0E0,1.34888E1,0E0,2.6367348E1,0E0,1.5100763E2,8.672941E1,0E0,1.240802E1,4.043537E1,0E0,1.3177063E1,0E0,6.551819E0,0E0,1.3962334E1,0E0,0E0,0E0,0E0,0E0,0E0,0E0,0E0,0E0,0E0,0E0,0E0,0E0,0E0,0E0],"parents":[2147483647,0,0,1,1,2,2,3,3,4,4,5,5,7,7,8,8,9,9,11,11,12,12,13,13,14,14,15,15,17,17,19,19,21,21,23,23,24,24,26,26,27,27,29,29,31,31,33,33],"right_children":[2,4,6,8,10,12,-1,14,16,18,-1,20,22,24,26,28,-1,30,-1,32,-1,34,-1,36,38,-1,40,42,-1,44,-1,46,-1,48,-1,-1,-1,-1,-1,-1,-1,-1,-1,-1,-1,-1,-1,-1,-1],"split_conditions":[1E0,1E0,1E0,1E0,1E0,1E0,-9.750394E-2,1E0,1E0,1E0,-8.223158E-2,1E0,1E0,1E0,1E0,1E0,-8.697435E-2,1E0,-8.483767E-2,1E0,-7.0082046E-2,1E0,-8.235782E-2,1E0,1E0,-7.8363575E-2,1E0,1E0,6.860968E-2,1E0,-5.1469147E-2,1E0,-8.068456E-2,1E0,-8.69165E-2,-5.617369E-2,9.4410144E-2,-6.811657E-2,4.635514E-2,8.371889E-2,-4.8598018E-2,1.5415372E-3,7.457235E-2,4.7968555E-2,-6.255089E-2,5.4474186E-2,2.3698682E-2,4.1949496E-2,-6.297408E-2],"split_indices":[116,229,210,675,1750,650,0,1844,789,1824,0,1723,283,875,283,313,0,1432,0,1615,0,1017,0,1652,80,0,1544,1651,0,1308,0,37,0,1722,0,0,0,0,0,0,0,0,0,0,0,0,0,0,0],"split_type":[0,0,0,0,0,0,0,0,0,0,0,0,0,0,0,0,0,0,0,0,0,0,0,0,0,0,0,0,0,0,0,0,0,0,0,0,0,0,0,0,0,0,0,0,0,0,0,0,0],"sum_hessian":[1.4948732E3,1.1359215E3,3.589516E2,9.373439E2,1.985777E2,3.5695816E2,1.9934415E0,8.0129193E2,1.3605191E2,1.9559138E2,2.9863145E0,2.7811252E2,7.884566E1,7.472368E2,5.405514E1,1.3180281E2,4.2490892E0,1.9337405E2,2.2173333E0,2.760655E2,2.0470116E0,7.298626E1,5.859397E0,6.432006E2,1.0403621E2,9.187899E0,4.4867245E1,9.425054E1,3.7552273E1,1.9033612E2,3.0379338E0,2.7499207E2,1.0734426E0,6.937852E1,3.6077428E0,6.269716E2,1.622898E1,1.9589415E1,8.444679E1,4.363967E1,1.2275697E0,6.9112236E1,2.5138302E1,1.884185E2,1.917619E0,2.5409772E2,2.0894342E1,6.691459E1,2.4639292E0],"tree_param":{"num_deleted":"0","num_feature":"2048","num_nodes":"49","size_leaf_vector":"1"}},{"base_weights":[6.913141E-2,-1.707889E-1,8.5983485E-1,-3.9995304E-1,8.450019E-1,8.790466E-1,-1.11064784E-1,-6.290868E-1,7.338768E-1,8.878147E-1,-8.006266E-2,9.01456E-1,-5.9301134E-2,-7.995298E-1,6.2810516E-1,8.146794E-1,-8.671481E-2,9.2486703E-1,-5.2358802E-2,9.201925E-1,-6.8955E-2,-1.0286669E0,5.996331E-1,9.4470614E-1,-6.314441E-2,8.7205917E-1,-1.0065611E-1,9.462334E-1,-8.612805E-2,9.3291897E-1,-8.4604666E-2,-5.8620036E-2,6.791032E-2,-6.480517E-2,4.2012107E-2,-6.3687414E-2,6.2066007E-2,4.598264E-2,-7.330879E-2,4.847697E-2,-7.199377E-2,4.7336426E-2,-7.6188534E-2],"categories":[],"categories_nodes":[],"categories_segments":[],"categories_sizes":[],"default_left":[0,0,0,0,0,0,0,0,0,0,0,0,0,0,0,0,0,0,0,0,0,0,0,0,0,0,0,0,0,0,0,0,0,0,0,0,0,0,0,0,0,0,0],"id":22,"left_children":[1,3,5,7,9,11,-1,13,15,17,-1,19,-1,21,23,25,-1,27,-1,29,-1,31,33,35,-1,37,-1,39,-1,41,-1,-1,-1,-1,-1,-1,-1,-1,-1,-1,-1,-1,-1],"loss_changes":[2.9133395E2,2.7466174E2,2.3113678E1,2.5044249E2,2.4173843E1,1.7543152E1,0E0,1.7213727E2,3.3765762E1,1.632225E1,0E0,1.6341217E1,0E0,2.2689578E2,5.87802E1,2.7353592E1,0E0,1.354599E1,0E0,1.3229767E1,0E0,2.0978564E2,4.6680653E1,5.617466E1,0E0,1.8633316E1,0E0,1.3052963E1,0E0,1.3296387E1,0E0,0E0,0E0,0E0,0E0,0E0,0E0,0E0,0E0,0E0,0E0,0E0,0E0],"parents":[2147483647,0,0,1,1,2,2,3,3,4,4,5,5,7,7,8,8,9,9,11,11,13,13,14,14,15,15,17,17,19,19,21,21,22,22,23,23,25,25,27,27,29,29],"right_children":[2,4,6,8,10,12,-1,14,16,18,-1,20,-1,22,24,26,-1,28,-1,30,-1,32,34,36,-1,38,-1,40,-1,42,-1,-1,-1,-1,-1,-1,-1,-1,-1,-1,-1,-1,-1],"split_conditions":[1E0,1E0,1E0,1E0,1E0,1E0,-1.11064784E-1,1E0,1E0,1E0,-8.006266E-2,1E0,-5.9301134E-2,1E0,1E0,1E0,-8.671481E-2,1E0,-5.2358802E-2,1E0,-6.8955E-2,1E0,1E0,1E0,-6.314441E-2,1E0,-1.0065611E-1,1E0,-8.612805E-2,1E0,-8.4604666E-2,-5.8620036E-2,6.791032E-2,-6.480517E-2,4.2012107E-2,-6.3687414E-2,6.2066007E-2,4.598264E-2,-7.330879E-2,4.847697E-2,-7.199377E-2,4.7336426E-2,-7.6188534E-2],"split_indices":[116,229,844,675,114,1238,0,1440,1243,1432,0,1723,0,1602,695,1799,0,1292,0,1245,0,667,1750,650,0,363,0,675,0,674,0,0,0,0,0,0,0,0,0,0,0,0,0],"split_type":[0,0,0,0,0,0,0,0,0,0,0,0,0,0,0,0,0,0,0,0,0,0,0,0,0,0,0,0,0,0,0,0,0,0,0,0,0,0,0,0,0,0,0],"sum_hessian":[1.5339404E3,1.1774539E3,3.564866E2,9.6120953E2,2.1624425E2,3.5498782E2,1.4987534E0,7.9998676E2,1.6122282E2,2.131509E2,3.0933619E0,3.517344E2,3.2534213E0,7.047982E2,9.518853E1,1.5676074E2,4.462076E0,2.0965826E2,3.492629E0,3.4945984E2,2.2745674E0,6.058454E2,9.895282E1,8.196577E1,1.3222762E1,1.5432098E2,2.4397612E0,2.0861717E2,1.04108E0,3.4840536E2,1.054489E0,5.7191437E2,3.393101E1,1.0650641E1,8.830218E1,9.278103E0,7.268766E1,1.518371E2,2.4838839E0,2.0718718E2,1.4300032E0,3.4706906E2,1.3363065E0],"tree_param":{"num_deleted":"0","num_feature":"2048","num_nodes":"43","size_leaf_vector":"1"}},{"base_weights":[5.9488717E-2,1.655976E-1,-1.1340736E0,3.0464992E-1,-5.5809855E-1,-6.8091854E-2,5.352485E-2,4.2031085E-1,-5.104765E-1,-7.772116E-1,1.2603501E0,3.9021456E-1,1.23922825E-1,-8.483847E-1,1.3028112E-1,-9.370377E-1,6.935357E-2,4.1577782E-2,7.49054E-2,2.99959E-1,1.0344769E0,-6.6563524E-2,8.918162E-1,-1.1900759E0,8.149284E-1,1.7093645E-2,-7.606923E-2,4.8635114E-2,6.331094E-2,-6.0839225E-2,5.5217233E-2,-6.799982E-2,5.6281745E-2,-9.6620366E-2,6.032939E-2],"categories":[],"categories_nodes":[],"categories_segments":[],"categories_sizes":[],"default_left":[0,0,0,0,0,0,0,0,0,0,0,0,0,0,0,0,0,0,0,0,0,0,0,0,0,0,0,0,0,0,0,0,0,0,0],"id":23,"left_children":[1,3,5,7,9,-1,-1,11,13,15,17,19,-1,21,-1,23,-1,-1,-1,25,27,-1,29,31,33,-1,-1,-1,-1,-1,-1,-1,-1,-1,-1],"loss_changes":[1.8997328E2,1.3874586E2,6.295349E1,1.0917779E2,8.955367E1,0E0,0E0,6.1761703E1,1.5390784E2,7.013983E1,1.2302551E0,5.7796356E1,0E0,1.1104052E2,0E0,8.339223E1,0E0,0E0,0E0,6.7538956E1,5.2033997E-1,0E0,1.4337433E1,6.561624E1,2.8218155E1,0E0,0E0,0E0,0E0,0E0,0E0,0E0,0E0,0E0,0E0],"parents":[2147483647,0,0,1,1,2,2,3,3,4,4,7,7,8,8,9,9,10,10,11,11,13,13,15,15,19,19,20,20,22,22,23,23,24,24],"right_children":[2,4,6,8,10,-1,-1,12,14,16,18,20,-1,22,-1,24,-1,-1,-1,26,28,-1,30,32,34,-1,-1,-1,-1,-1,-1,-1,-1,-1,-1],"split_conditions":[1E0,1E0,1E0,1E0,1E0,-6.8091854E-2,5.352485E-2,1E0,1E0,1E0,1E0,1E0,1.23922825E-1,1E0,1.3028112E-1,1E0,6.935357E-2,4.1577782E-2,7.49054E-2,1E0,1E0,-6.6563524E-2,1E0,1E0,1E0,1.7093645E-2,-7.606923E-2,4.8635114E-2,6.331094E-2,-6.0839225E-2,5.5217233E-2,-6.799982E-2,5.6281745E-2,-9.6620366E-2,6.032939E-2],"split_indices":[401,1019,11,147,2011,0,0,1857,1331,921,147,1132,0,1942,0,229,0,0,0,1544,1088,0,794,659,656,0,0,0,0,0,0,0,0,0,0],"split_type":[0,0,0,0,0,0,0,0,0,0,0,0,0,0,0,0,0,0,0,0,0,0,0,0,0,0,0,0,0,0,0,0,0,0,0],"sum_hessian":[1.4975323E3,1.3760604E3,1.2147189E2,1.1547615E3,2.2129898E2,1.10443756E2,1.1028139E1,1.01169336E3,1.430681E2,1.9801219E2,2.3286783E1,9.9828503E2,1.3408345E1,1.2972818E2,1.3339918E1,1.8492319E2,1.3089002E1,9.910596E0,1.3376188E1,8.76904E2,1.2138105E2,1.0173334E2,2.7994844E1,1.6186552E2,2.3057674E1,8.579721E2,1.8931894E1,9.993823E1,2.1442814E1,2.1306202E0,2.5864223E1,1.5118471E2,1.0680804E1,2.3861165E0,2.0671558E1],"tree_param":{"num_deleted":"0","num_feature":"2048","num_nodes":"35","size_leaf_vector":"1"}},{"base_weights":[9.433084E-2,-1.3330105E-1,8.4365815E-1,-3.4103686E-1,7.9046184E-1,8.6013806E-1,-9.138008E-2,-5.391046E-1,6.471267E-1,8.209077E-1,-9.205421E-2,8.773579E-1,-7.799679E-2,-6.5341586E-1,1.0632588E0,7.480872E-1,-8.691491E-2,8.5740876E-1,-6.7155704E-2,8.952922E-1,-6.368143E-2,-7.590273E-1,1.1290631E0,1.3590481E0,-6.2429506E-2,8.0212706E-1,-7.5699426E-2,8.786726E-1,-8.68847E-2,9.1010636E-1,-7.94839E-2,-4.12143E-2,1.1036501E-1,-4.2229176E-2,6.1250668E-2,-4.578582E-2,7.4266724E-2,4.5910347E-2,-4.814166E-3,4.553179E-2,-4.92787E-2,4.621489E-2,-8.068467E-2],"categories":[],"categories_nodes":[],"categories_segments":[],"categories_sizes":[],"default_left":[0,0,0,0,0,0,0,0,0,0,0,0,0,0,0,0,0,0,0,0,0,0,0,0,0,0,0,0,0,0,0,0,0,0,0,0,0,0,0,0,0,0,0],"id":24,"left_children":[1,3,5,7,9,11,-1,13,15,17,-1,19,-1,21,23,25,-1,27,-1,29,-1,31,33,35,-1,37,-1,39,-1,41,-1,-1,-1,-1,-1,-1,-1,-1,-1,-1,-1,-1,-1],"loss_changes":[2.5626962E2,2.2147427E2,1.6981827E1,1.8467789E2,1.8491333E1,1.5895172E1,0E0,1.4449596E2,3.9281387E1,1.7755096E1,0E0,1.4517029E1,0E0,1.3892334E2,3.7705486E1,1.9795433E1,0E0,1.2967407E1,0E0,1.412796E1,0E0,1.3596823E2,8.879601E0,1.4908936E1,0E0,1.563858E1,0E0,1.3190552E1,0E0,1.3779144E1,0E0,0E0,0E0,0E0,0E0,0E0,0E0,0E0,0E0,0E0,0E0,0E0,0E0],"parents":[2147483647,0,0,1,1,2,2,3,3,4,4,5,5,7,7,8,8,9,9,11,11,13,13,14,14,15,15,17,17,19,19,21,21,22,22,23,23,25,25,27,27,29,29],"right_children":[2,4,6,8,10,12,-1,14,16,18,-1,20,-1,22,24,26,-1,28,-1,30,-1,32,34,36,-1,38,-1,40,-1,42,-1,-1,-1,-1,-1,-1,-1,-1,-1,-1,-1,-1,-1],"split_conditions":[1E0,1E0,1E0,1E0,1E0,1E0,-9.138008E-2,1E0,1E0,1E0,-9.205421E-2,1E0,-7.799679E-2,1E0,1E0,1E0,-8.691491E-2,1E0,-6.7155704E-2,1E0,-6.368143E-2,1E0,1E0,1E0,-6.2429506E-2,1E0,-7.5699426E-2,1E0,-8.68847E-2,1E0,-7.94839E-2,-4.12143E-2,1.1036501E-1,-4.2229176E-2,6.1250668E-2,-4.578582E-2,7.4266724E-2,4.5910347E-2,-4.814166E-3,4.553179E-2,-4.92787E-2,4.621489E-2,-8.068467E-2],"split_indices":[116,229,774,675,1824,1544,0,1171,1917,1290,0,1685,0,828,1380,665,0,995,0,31,0,355,875,389,0,1309,0,1432,0,1245,0,0,0,0,0,0,0,0,0,0,0,0,0],"split_type":[0,0,0,0,0,0,0,0,0,0,0,0,0,0,0,0,0,0,0,0,0,0,0,0,0,0,0,0,0,0,0,0,0,0,0,0,0,0,0,0,0,0,0],"sum_hessian":[1.5007645E3,1.1517163E3,3.4904816E2,9.407837E2,2.1093263E2,3.4758182E2,1.4663483E0,7.8407745E2,1.5670622E2,2.0920032E2,1.7323058E0,3.4575906E2,1.8227489E0,7.324195E2,5.165797E1,1.5100163E2,5.70459E0,2.06324E2,2.8763232E0,3.43479E2,2.2800615E0,6.919932E2,4.0426254E1,4.6163696E1,5.494273E0,1.481088E2,2.8928428E0,2.0530319E2,1.0208101E0,3.420735E2,1.4055145E0,6.778038E2,1.4189453E1,1.5125072E0,3.891375E1,2.0992522E0,4.4064445E1,1.311424E2,1.6966394E1,2.0234543E2,2.9577618E0,3.40791E2,1.2825058E0],"tree_param":{"num_deleted":"0","num_feature":"2048","num_nodes":"43","size_leaf_vector":"1"}},{"base_weights":[1.2563887E-1,-6.55629E-2,7.991247E-1,-2.0327275E-1,7.126138E-1,8.1633836E-1,-7.977463E-2,-9.707626E-2,-6.2472917E-2,7.8053784E-1,-7.3505506E-2,8.3346474E-1,-7.855251E-2,-1.697714E-1,1.1275115E0,8.1296384E-1,-1.1772785E-1,8.526919E-1,-6.466917E-2,-2.1328053E-1,2.0431912E0,8.0354965E-1,6.033818E-2,8.52792E-1,-7.413687E-2,8.67686E-1,-7.819662E-2,-3.0707605E-3,-4.9926683E-2,-5.411763E-2,1.3806129E-1,-5.700757E-2,5.963658E-2,4.4179197E-2,-5.787014E-2,4.427817E-2,-5.7315387E-2],"categories":[],"categories_nodes":[],"categories_segments":[],"categories_sizes":[],"default_left":[0,0,0,0,0,0,0,0,0,0,0,0,0,0,0,0,0,0,0,0,0,0,0,0,0,0,0,0,0,0,0,0,0,0,0,0,0],"id":25,"left_children":[1,3,5,7,9,11,-1,13,-1,15,-1,17,-1,19,21,23,-1,25,-1,27,29,31,-1,33,-1,35,-1,-1,-1,-1,-1,-1,-1,-1,-1,-1,-1],"loss_changes":[1.9215347E2,1.2475896E2,1.49028015E1,1.09734055E2,2.7102425E1,1.4730759E1,0E0,8.0199554E1,0E0,1.9240303E1,0E0,1.445726E1,0E0,8.2205605E1,3.267212E-1,1.6756325E1,0E0,1.3106003E1,0E0,9.9369965E1,3.995098E1,1.1131338E1,0E0,1.1370628E1,0E0,1.2640717E1,0E0,0E0,0E0,0E0,0E0,0E0,0E0,0E0,0E0,0E0,0E0],"parents":[2147483647,0,0,1,1,2,2,3,3,4,4,5,5,7,7,9,9,11,11,13,13,14,14,15,15,17,17,19,19,20,20,21,21,23,23,25,25],"right_children":[2,4,6,8,10,12,-1,14,-1,16,-1,18,-1,20,22,24,-1,26,-1,28,30,32,-1,34,-1,36,-1,-1,-1,-1,-1,-1,-1,-1,-1,-1,-1],"split_conditions":[1E0,1E0,1E0,1E0,1E0,1E0,-7.977463E-2,1E0,-6.2472917E-2,1E0,-7.3505506E-2,1E0,-7.855251E-2,1E0,1E0,1E0,-1.1772785E-1,1E0,-6.466917E-2,1E0,1E0,1E0,6.033818E-2,1E0,-7.413687E-2,1E0,-7.819662E-2,-3.0707605E-3,-4.9926683E-2,-5.411763E-2,1.3806129E-1,-5.700757E-2,5.963658E-2,4.4179197E-2,-5.787014E-2,4.427817E-2,-5.7315387E-2],"split_indices":[116,229,1816,1325,147,1615,0,828,0,1328,0,2026,0,1331,875,1750,0,210,0,147,718,407,0,1564,0,1342,0,0,0,0,0,0,0,0,0,0,0],"split_type":[0,0,0,0,0,0,0,0,0,0,0,0,0,0,0,0,0,0,0,0,0,0,0,0,0,0,0,0,0,0,0,0,0,0,0,0,0],"sum_hessian":[1.4907959E3,1.1618507E3,3.2894525E2,9.8778613E2,1.7406454E2,3.2725192E2,1.6933464E0,8.977499E2,9.003625E1,1.6943434E2,4.6302104E0,3.255673E2,1.6846248E0,8.482562E2,4.949363E1,1.6843294E2,1.0013999E0,3.2324417E2,2.3231158E0,8.3278644E2,1.5469816E1,1.1917443E1,3.7576183E1,1.6617844E2,2.2545054E0,3.2188794E2,1.3562196E0,6.987322E2,1.3405424E2,2.795194E0,1.2674623E1,1.6662153E0,1.0251228E1,1.6422333E2,1.9550997E0,3.1961118E2,2.2767704E0],"tree_param":{"num_deleted":"0","num_feature":"2048","num_nodes":"37","size_leaf_vector":"1"}},{"base_weights":[4.5859803E-2,2.1149054E-1,-8.130924E-1,2.7776068E-1,-6.7602076E-2,-9.76147E-1,4.810559E-2,3.271992E-1,-6.584665E-2,-1.1084763E0,5.5925906E-2,3.7765166E-1,-6.516949E-2,-1.2391845E0,5.8819544E-2,4.115952E-1,-6.2478315E-2,-1.358277E0,5.4680306E-2,2.212974E-2,-6.2999204E-2,-6.509291E-2,-9.4364114E-2],"categories":[],"categories_nodes":[],"categories_segments":[],"categories_sizes":[],"default_left":[0,0,0,0,0,0,0,0,0,0,0,0,0,0,0,0,0,0,0,0,0,0,0],"id":26,"left_children":[1,3,5,7,-1,9,-1,11,-1,13,-1,15,-1,17,-1,19,-1,21,-1,-1,-1,-1,-1],"loss_changes":[1.9668774E2,1.2044473E2,6.563313E1,8.814015E1,0E0,5.8117493E1,0E0,8.932891E1,0E0,5.924861E1,0E0,5.8411255E1,0E0,5.2471222E1,0E0,5.3803802E1,0E0,2.7677002E0,0E0,0E0,0E0,0E0,0E0],"parents":[2147483647,0,0,1,1,2,2,3,3,5,5,7,7,9,9,11,11,13,13,15,15,17,17],"right_children":[2,4,6,8,-1,10,-1,12,-1,14,-1,16,-1,18,-1,20,-1,22,-1,-1,-1,-1,-1],"split_conditions":[1E0,1E0,1E0,1E0,-6.7602076E-2,1E0,4.810559E-2,1E0,-6.584665E-2,1E0,5.5925906E-2,1E0,-6.516949E-2,1E0,5.8819544E-2,1E0,-6.2478315E-2,1E0,5.4680306E-2,2.212974E-2,-6.2999204E-2,-6.509291E-2,-9.4364114E-2],"split_indices":[926,1238,722,1066,0,1724,0,1257,0,428,0,1249,0,667,0,432,0,675,0,0,0,0,0],"split_type":[0,0,0,0,0,0,0,0,0,0,0,0,0,0,0,0,0,0,0,0,0,0,0],"sum_hessian":[1.3802982E3,1.1577957E3,2.225026E2,1.111507E3,4.6288754E1,2.0419698E2,1.8305609E1,1.0788552E3,3.2651726E1,1.9250632E2,1.169067E1,1.0472213E3,3.1633938E1,1.8252257E2,9.983741E0,1.0265546E3,2.0666716E1,1.7405458E2,8.467998E0,1.00858545E3,1.7969095E1,1.6040788E2,1.3646694E1],"tree_param":{"num_deleted":"0","num_feature":"2048","num_nodes":"23","size_leaf_vector":"1"}},{"base_weights":[1.2228749E-1,-1.2486364E-1,8.596687E-1,-3.224102E-1,7.702945E-1,9.655215E-1,2.6732406E-1,-4.3703932E-1,9.507442E-1,8.030143E-1,-4.907675E-2,9.8224604E-1,-5.9433084E-2,-6.612474E-1,7.417814E-1,-4.8446226E-1,1.0577255E-1,6.3580614E-1,1.0971761E-1,8.2463664E-1,-8.4592715E-2,9.960493E-1,-7.7126555E-2,-9.446185E-2,5.3484887E-2,8.642221E-1,-8.00366E-2,-5.331871E-1,2.0473921E0,-2.5162825E-2,1.3396208E0,8.541468E-1,-5.3662907E-2,1.009799E0,-7.491861E-2,4.4467467E-1,6.1217714E-2,-3.0374516E-2,6.1515566E-2,-3.7942693E-2,1.1509273E-1,-7.4388094E-2,8.638283E-2,7.451119E-2,-4.900996E-2,4.4053737E-2,-6.0344536E-2,5.2133422E-2,3.1699784E-2,-1.0423427E-1,5.0098818E-2],"categories":[],"categories_nodes":[],"categories_segments":[],"categories_sizes":[],"default_left":[0,0,0,0,0,0,0,0,0,0,0,0,0,0,0,0,0,0,0,0,0,0,0,0,0,0,0,0,0,0,0,0,0,0,0,0,0,0,0,0,0,0,0,0,0,0,0,0,0,0,0],"id":27,"left_children":[1,3,5,7,9,11,13,15,17,19,-1,21,-1,23,25,27,-1,29,-1,31,-1,33,-1,-1,-1,35,-1,37,39,41,43,45,-1,47,-1,49,-1,-1,-1,-1,-1,-1,-1,-1,-1,-1,-1,-1,-1,-1,-1],"loss_changes":[2.708033E2,1.9712729E2,2.3129395E1,1.3362604E2,1.2342232E1,1.2554718E1,2.601379E1,1.0246962E2,2.8256859E1,1.2099327E1,0E0,1.2485626E1,0E0,4.478682E1,1.2515732E1,1.0269324E2,0E0,2.8791458E1,0E0,1.1972244E1,0E0,1.22508545E1,0E0,0E0,0E0,5.126753E0,0E0,1.0673178E2,1.299868E1,8.6815056E1,1.1926899E1,1.1881836E1,0E0,3.1923828E0,0E0,2.8741089E1,0E0,0E0,0E0,0E0,0E0,0E0,0E0,0E0,0E0,0E0,0E0,0E0,0E0,0E0,0E0],"parents":[2147483647,0,0,1,1,2,2,3,3,4,4,5,5,6,6,7,7,8,8,9,9,11,11,13,13,14,14,15,15,17,17,19,19,21,21,25,25,27,27,28,28,29,29,30,30,31,31,33,33,35,35],"right_children":[2,4,6,8,10,12,14,16,18,20,-1,22,-1,24,26,28,-1,30,-1,32,-1,34,-1,-1,-1,36,-1,38,40,42,44,46,-1,48,-1,50,-1,-1,-1,-1,-1,-1,-1,-1,-1,-1,-1,-1,-1,-1,-1],"split_conditions":[1E0,1E0,1E0,1E0,1E0,1E0,1E0,1E0,1E0,1E0,-4.907675E-2,1E0,-5.9433084E-2,1E0,1E0,1E0,1.0577255E-1,1E0,1.0971761E-1,1E0,-8.4592715E-2,1E0,-7.7126555E-2,-9.446185E-2,5.3484887E-2,1E0,-8.00366E-2,1E0,1E0,1E0,1E0,1E0,-5.3662907E-2,1E0,-7.491861E-2,1E0,6.1217714E-2,-3.0374516E-2,6.1515566E-2,-3.7942693E-2,1.1509273E-1,-7.4388094E-2,8.638283E-2,7.451119E-2,-4.900996E-2,4.4053737E-2,-6.0344536E-2,5.2133422E-2,3.1699784E-2,-1.0423427E-1,5.0098818E-2],"split_indices":[116,229,1917,1737,1432,378,1182,1857,595,995,0,1615,0,450,1245,2045,0,1440,0,13,0,339,0,0,0,1737,0,667,1267,1840,1873,1199,0,37,0,1034,0,0,0,0,0,0,0,0,0,0,0,0,0,0,0],"split_type":[0,0,0,0,0,0,0,0,0,0,0,0,0,0,0,0,0,0,0,0,0,0,0,0,0,0,0,0,0,0,0,0,0,0,0,0,0,0,0,0,0,0,0,0,0,0,0,0,0,0,0],"sum_hessian":[1.4843445E3,1.1123456E3,3.7199884E2,9.117724E2,2.0057323E2,3.150661E2,5.6932747E1,8.3706366E2,7.4708725E1,1.974274E2,3.1458316E0,3.1317868E2,1.8874125E0,1.9119616E1,3.7813133E1,8.225909E2,1.4472791E1,6.0818077E1,1.3890646E1,1.9639476E2,1.0326345E0,3.12078E2,1.1006782E0,1.1131273E1,7.9883413E0,3.653458E1,1.2785535E0,8.0783374E2,1.4757125E1,3.1860954E1,2.8957125E1,1.9392932E2,2.4654372E0,3.109591E2,1.1188796E0,1.7907465E1,1.8627117E1,7.7580164E2,3.2032093E1,1.0620885E0,1.3695036E1,1.7450779E1,1.4410175E1,2.7527637E1,1.429486E0,1.919934E2,1.9359293E0,2.8431693E2,2.6642204E1,2.738388E0,1.5169076E1],"tree_param":{"num_deleted":"0","num_feature":"2048","num_nodes":"51","size_leaf_vector":"1"}},{"base_weights":[4.2970475E-2,2.7735677E-1,-6.276242E-1,4.4126278E-1,-4.6499234E-1,-1.0367064E0,6.805921E-1,4.7416377E-1,-7.015579E-2,-7.789268E-1,1.6382192E0,-1.1409897E0,1.0592672E0,-6.340372E-2,9.18791E-1,5.075442E-1,-6.7485616E-2,-9.885827E-1,7.115468E-2,7.031971E-1,1.0824423E-1,-6.3714415E-2,5.4689264E-1,-3.515908E-2,6.312466E-2,1.1181686E0,-7.138508E-2,4.7268307E-1,1.12496845E-1,-1.192667E0,6.4284824E-2,-4.8296567E-2,5.3126253E-2,-6.47132E-2,5.0306268E-2,1.1801028E0,-4.8989885E-2,3.1749245E-2,5.6061E-5,-6.730154E-2,4.412966E-2,6.2348366E-2,-4.6034396E-2],"categories":[],"categories_nodes":[],"categories_segments":[],"categories_sizes":[],"default_left":[0,0,0,0,0,0,0,0,0,0,0,0,0,0,0,0,0,0,0,0,0,0,0,0,0,0,0,0,0,0,0,0,0,0,0,0,0,0,0,0,0,0,0],"id":28,"left_children":[1,3,5,7,9,11,13,15,-1,17,19,21,23,-1,25,27,-1,29,-1,31,-1,-1,33,-1,-1,35,-1,37,-1,39,-1,-1,-1,-1,-1,41,-1,-1,-1,-1,-1,-1,-1],"loss_changes":[2.1421901E2,1.2307205E2,1.8962332E2,5.089003E1,1.2218386E2,6.0073517E1,4.0477654E1,5.0237656E1,0E0,7.527959E1,1.034819E1,5.852649E1,5.645362E0,0E0,3.7175026E1,4.7530777E1,0E0,6.96201E1,0E0,7.1238704E0,0E0,0E0,1.7800457E1,0E0,0E0,1.0336761E1,0E0,6.0124405E1,0E0,4.4196426E1,0E0,0E0,0E0,0E0,0E0,1.0851868E1,0E0,0E0,0E0,0E0,0E0,0E0,0E0],"parents":[2147483647,0,0,1,1,2,2,3,3,4,4,5,5,6,6,7,7,9,9,10,10,11,11,12,12,14,14,15,15,17,17,19,19,22,22,25,25,27,27,29,29,35,35],"right_children":[2,4,6,8,10,12,14,16,-1,18,20,22,24,-1,26,28,-1,30,-1,32,-1,-1,34,-1,-1,36,-1,38,-1,40,-1,-1,-1,-1,-1,42,-1,-1,-1,-1,-1,-1,-1],"split_conditions":[1E0,1E0,1E0,1E0,1E0,1E0,1E0,1E0,-7.015579E-2,1E0,1E0,1E0,1E0,-6.340372E-2,1E0,1E0,-6.7485616E-2,1E0,7.115468E-2,1E0,1.0824423E-1,-6.3714415E-2,1E0,-3.515908E-2,6.312466E-2,1E0,-7.138508E-2,1E0,1.12496845E-1,1E0,6.4284824E-2,-4.8296567E-2,5.3126253E-2,-6.47132E-2,5.0306268E-2,1E0,-4.8989885E-2,3.1749245E-2,5.6061E-5,-6.730154E-2,4.412966E-2,6.2348366E-2,-4.6034396E-2],"split_indices":[695,926,875,1866,1906,1727,80,715,0,921,355,394,1,0,294,1652,0,288,0,317,0,0,794,0,0,1004,0,694,0,311,0,0,0,0,0,389,0,0,0,0,0,0,0],"split_type":[0,0,0,0,0,0,0,0,0,0,0,0,0,0,0,0,0,0,0,0,0,0,0,0,0,0,0,0,0,0,0,0,0,0,0,0,0,0,0,0,0,0,0],"sum_hessian":[1.3607979E3,1.00879144E3,3.5200644E2,8.2667285E2,1.8211858E2,2.6831216E2,8.3694275E1,8.1291455E2,1.375827E1,1.5901323E2,2.3105352E1,2.5602927E2,1.2282872E1,8.645253E0,7.504902E1,7.990128E2,1.3901772E1,1.4569278E2,1.3320452E1,9.166565E0,1.3938787E1,2.3751671E2,1.8512579E1,1.0155516E0,1.1267321E1,6.96541E1,5.394921E0,7.8458636E2,1.4426445E1,1.3413191E2,1.1560856E1,1.3247509E0,7.8418145E0,3.3327188E0,1.5179861E1,6.808176E1,1.5723455E0,5.8343396E2,2.0115242E2,1.25228775E2,8.903146E0,6.6375565E1,1.7061903E0],"tree_param":{"num_deleted":"0","num_feature":"2048","num_nodes":"43","size_leaf_vector":"1"}},{"base_weights":[4.052295E-2,-1.8710177E-1,7.635565E-1,-3.3340147E-1,5.988524E-1,7.925584E-1,-6.4685315E-2,-1.9359535E-1,-6.13524E-2,6.597671E-1,-1.1586305E-1,8.112198E-1,-7.100587E-2,-4.8080173E-1,2.7590758E-1,7.1902615E-1,-9.926493E-2,8.272885E-1,-8.55189E-2,-7.609852E-1,4.8338315E-1,-1.6796719E-1,1.041924E0,7.7882016E-1,-8.41341E-2,8.419908E-1,-7.5656824E-2,-4.8720162E-2,6.3085906E-2,3.3559214E-2,-8.86576E-2,-2.9645858E-2,4.4827692E-2,7.267225E-2,-6.0615867E-2,4.17146E-2,-9.4640106E-2,4.2959478E-2,-6.074793E-2],"categories":[],"categories_nodes":[],"categories_segments":[],"categories_sizes":[],"default_left":[0,0,0,0,0,0,0,0,0,0,0,0,0,0,0,0,0,0,0,0,0,0,0,0,0,0,0,0,0,0,0,0,0,0,0,0,0,0,0],"id":29,"left_children":[1,3,5,7,9,11,-1,13,-1,15,-1,17,-1,19,21,23,-1,25,-1,27,29,31,33,35,-1,37,-1,-1,-1,-1,-1,-1,-1,-1,-1,-1,-1,-1,-1],"loss_changes":[2.1968578E2,1.1695046E2,2.0093964E1,1.0679108E2,2.9896828E1,1.4190964E1,0E0,1.001813E2,0E0,2.6069199E1,0E0,1.4128586E1,0E0,1.24829254E2,9.614183E1,2.3497734E1,0E0,1.202565E1,0E0,1.5549852E2,4.5410088E1,8.175744E1,9.794787E1,2.402095E1,0E0,1.2051392E1,0E0,0E0,0E0,0E0,0E0,0E0,0E0,0E0,0E0,0E0,0E0,0E0,0E0],"parents":[2147483647,0,0,1,1,2,2,3,3,4,4,5,5,7,7,9,9,11,11,13,13,14,14,15,15,17,17,19,19,20,20,21,21,22,22,23,23,25,25],"right_children":[2,4,6,8,10,12,-1,14,-1,16,-1,18,-1,20,22,24,-1,26,-1,28,30,32,34,36,-1,38,-1,-1,-1,-1,-1,-1,-1,-1,-1,-1,-1,-1,-1],"split_conditions":[1E0,1E0,1E0,1E0,1E0,1E0,-6.4685315E-2,1E0,-6.13524E-2,1E0,-1.1586305E-1,1E0,-7.100587E-2,1E0,1E0,1E0,-9.926493E-2,1E0,-8.55189E-2,1E0,1E0,1E0,1E0,1E0,-8.41341E-2,1E0,-7.5656824E-2,-4.8720162E-2,6.3085906E-2,3.3559214E-2,-8.86576E-2,-2.9645858E-2,4.4827692E-2,7.267225E-2,-6.0615867E-2,4.17146E-2,-9.4640106E-2,4.2959478E-2,-6.074793E-2],"split_indices":[116,229,1959,147,694,1168,0,1917,0,222,0,674,0,675,1911,1750,0,31,0,1168,1738,875,695,1325,0,1723,0,0,0,0,0,0,0,0,0,0,0,0,0],"split_type":[0,0,0,0,0,0,0,0,0,0,0,0,0,0,0,0,0,0,0,0,0,0,0,0,0,0,0,0,0,0,0,0,0,0,0,0,0,0,0],"sum_hessian":[1.3329562E3,1.0143581E3,3.1859802E2,8.556591E2,1.5869897E2,3.147753E2,3.8227332E0,7.409571E2,1.1470206E2,1.5620967E2,2.489311E0,3.1277078E2,2.0044982E0,4.5971448E2,2.812426E2,1.5349889E2,2.7107708E0,3.1145798E2,1.3128259E0,3.5636792E2,1.03346565E2,1.7855696E2,1.0268564E2,1.5042946E2,3.0694366E0,3.1014987E2,1.3080881E0,3.2282452E2,3.354337E1,9.605492E1,7.291654E0,1.27930824E2,5.062614E1,8.713418E1,1.5551463E1,1.480433E2,2.3861532E0,3.081556E2,1.9942738E0],"tree_param":{"num_deleted":"0","num_feature":"2048","num_nodes":"39","size_leaf_vector":"1"}},{"base_weights":[8.69742E-2,1.5197124E-1,-6.4101614E-2,3.318465E-1,-3.459859E-1,3.924711E-1,-9.3799996E-1,-4.6759024E-1,2.3454916E0,4.4867748E-1,-8.0975336E-1,-6.910437E-2,4.1662753E-2,-7.008061E-1,8.5581976E-1,-4.046704E-2,1.3764232E-1,4.7978228E-1,-6.787812E-2,-6.1934482E-2,5.192382E-2,-9.2553276E-1,1.2430428E0,1.1550099E0,-6.724088E-2,2.5679955E-2,-6.311294E-2,-5.6617852E-2,3.738688E-2,4.7392E-2,7.480029E-2,7.8608684E-2,1.2413211E-2],"categories":[],"categories_nodes":[],"categories_segments":[],"categories_sizes":[],"default_left":[0,0,0,0,0,0,0,0,0,0,0,0,0,0,0,0,0,0,0,0,0,0,0,0,0,0,0,0,0,0,0,0,0],"id":30,"left_children":[1,3,-1,5,7,9,11,13,15,17,19,-1,-1,21,23,-1,-1,25,-1,-1,-1,27,29,31,-1,-1,-1,-1,-1,-1,-1,-1,-1],"loss_changes":[1.2213942E2,1.1738263E2,0E0,7.445061E1,1.1496848E2,6.2473907E1,3.5874886E1,1.035965E2,2.1769852E1,5.002234E1,3.411515E1,0E0,0E0,1.2532689E2,3.476823E1,0E0,0E0,5.1583237E1,0E0,0E0,0E0,8.922658E1,8.1367874E-1,1.6611603E1,0E0,0E0,0E0,0E0,0E0,0E0,0E0,0E0,0E0],"parents":[2147483647,0,0,1,1,3,3,4,4,5,5,6,6,7,7,8,8,9,9,10,10,13,13,14,14,17,17,21,21,22,22,23,23],"right_children":[2,4,-1,6,8,10,12,14,16,18,20,-1,-1,22,24,-1,-1,26,-1,-1,-1,28,30,32,-1,-1,-1,-1,-1,-1,-1,-1,-1],"split_conditions":[1E0,1E0,-6.4101614E-2,1E0,1E0,1E0,1E0,1E0,1E0,1E0,1E0,-6.910437E-2,4.1662753E-2,1E0,1E0,-4.046704E-2,1.3764232E-1,1E0,-6.787812E-2,-6.1934482E-2,5.192382E-2,1E0,1E0,1E0,-6.724088E-2,2.5679955E-2,-6.311294E-2,-5.6617852E-2,3.738688E-2,4.7392E-2,7.480029E-2,7.8608684E-2,1.2413211E-2],"split_indices":[1274,695,0,1199,1331,1325,762,1607,718,715,1560,0,0,667,294,0,0,1257,0,0,0,394,117,650,0,0,0,0,0,0,0,0,0],"split_type":[0,0,0,0,0,0,0,0,0,0,0,0,0,0,0,0,0,0,0,0,0,0,0,0,0,0,0,0,0,0,0,0,0],"sum_hessian":[1.3694509E3,1.3082285E3,6.1222454E1,9.613111E2,3.469174E2,9.181672E2,4.31439E1,3.3271136E2,1.4206049E1,8.777571E2,4.041009E1,3.4670944E1,8.472957E0,2.8326404E2,4.9447308E1,1.5116888E0,1.269436E1,8.6361926E2,1.4137798E1,3.3065956E1,7.3441358E0,2.5437933E2,2.8884708E1,4.394752E1,5.4997864E0,8.4786554E2,1.5753748E1,2.2668344E2,2.76959E1,1.5520057E1,1.3364652E1,2.9597034E1,1.4350486E1],"tree_param":{"num_deleted":"0","num_feature":"2048","num_nodes":"33","size_leaf_vector":"1"}},{"base_weights":[1.1220892E-1,-8.304212E-2,7.69601E-1,1.13339186E-1,-5.563348E-1,7.88761E-1,-8.4967576E-2,3.1869146E-1,-6.505201E-1,-6.993397E-1,2.098541E0,8.0801016E-1,-6.849698E-2,4.0573078E-1,-6.5044604E-2,-8.08102E-1,5.9109505E-2,-1.0980927E0,5.646857E-1,-4.122003E-2,1.244316E-1,8.2737714E-1,-5.239706E-2,4.5332316E-1,-7.2290055E-2,-9.8294836E-1,6.1876673E-2,-6.120184E-2,1.02815E0,-6.115849E-2,8.053496E-1,8.441568E-1,-5.8170725E-2,2.0155061E-2,1.005188E-1,-6.5362476E-2,1.6561847E-2,-3.8943402E-2,6.220005E-2,4.7126915E-2,-6.1089218E-2,4.305809E-2,-5.51534E-2],"categories":[],"categories_nodes":[],"categories_segments":[],"categories_sizes":[],"default_left":[0,0,0,0,0,0,0,0,0,0,0,0,0,0,0,0,0,0,0,0,0,0,0,0,0,0,0,0,0,0,0,0,0,0,0,0,0,0,0,0,0,0,0],"id":31,"left_children":[1,3,5,7,9,11,-1,13,15,17,19,21,-1,23,-1,25,-1,27,29,-1,-1,31,-1,33,-1,35,-1,-1,37,-1,39,41,-1,-1,-1,-1,-1,-1,-1,-1,-1,-1,-1],"loss_changes":[1.7472617E2,9.766127E1,1.6085663E1,1.1674788E2,1.18439735E2,1.3987854E1,0E0,8.316496E1,4.6511963E1,1.483522E2,2.0292007E1,1.1933411E1,0E0,4.9744568E1,0E0,5.3382187E1,0E0,6.1015503E1,3.1512451E1,0E0,0E0,1.1179092E1,0E0,4.1720062E1,0E0,5.7935226E1,0E0,0E0,6.0481977E0,0E0,1.8709286E1,1.0992416E1,0E0,0E0,0E0,0E0,0E0,0E0,0E0,0E0,0E0,0E0,0E0],"parents":[2147483647,0,0,1,1,2,2,3,3,4,4,5,5,7,7,8,8,9,9,10,10,11,11,13,13,15,15,17,17,18,18,21,21,23,23,25,25,28,28,30,30,31,31],"right_children":[2,4,6,8,10,12,-1,14,16,18,20,22,-1,24,-1,26,-1,28,30,-1,-1,32,-1,34,-1,36,-1,-1,38,-1,40,42,-1,-1,-1,-1,-1,-1,-1,-1,-1,-1,-1],"split_conditions":[1E0,1E0,1E0,1E0,1E0,1E0,-8.4967576E-2,1E0,1E0,1E0,1E0,1E0,-6.849698E-2,1E0,-6.5044604E-2,1E0,5.9109505E-2,1E0,1E0,-4.122003E-2,1.244316E-1,1E0,-5.239706E-2,1E0,-7.2290055E-2,1E0,6.1876673E-2,-6.120184E-2,1E0,-6.115849E-2,1E0,1E0,-5.8170725E-2,2.0155061E-2,1.005188E-1,-6.5362476E-2,1.6561847E-2,-3.8943402E-2,6.220005E-2,4.7126915E-2,-6.1089218E-2,4.305809E-2,-5.51534E-2],"split_indices":[116,695,1199,926,1423,1604,0,1199,1724,875,718,1238,0,473,0,288,0,1727,80,0,0,423,0,406,0,950,0,0,1,0,1238,1959,0,0,0,0,0,0,0,0,0,0,0],"split_type":[0,0,0,0,0,0,0,0,0,0,0,0,0,0,0,0,0,0,0,0,0,0,0,0,0,0,0,0,0,0,0,0,0,0,0,0,0,0,0,0,0,0,0],"sum_hessian":[1.3597593E3,1.0490548E3,3.1070453E2,7.419579E2,3.070969E2,3.0898718E2,1.7173358E0,5.852144E2,1.5674347E2,2.9209955E2,1.4997358E1,3.0687646E2,2.1107194E0,5.560792E2,2.9135204E1,1.4484807E2,1.1895406E1,2.2215057E2,6.994897E1,1.6347628E0,1.33625965E1,3.0425574E2,2.6207309E0,5.4288E2,1.31992E1,1.3392094E2,1.092712E1,2.1012831E2,1.2022254E1,7.814411E0,6.2134552E1,3.0228387E2,1.9718672E0,5.271364E2,1.5743625E1,1.0741857E2,2.6502378E1,1.0045129E0,1.1017741E1,5.869719E1,3.4373627E0,3.0021982E2,2.0640464E0],"tree_param":{"num_deleted":"0","num_feature":"2048","num_nodes":"43","size_leaf_vector":"1"}},{"base_weights":[7.474333E-2,-1.2333545E-1,7.3957473E-1,-3.1725433E-1,7.4449015E-1,8.843605E-1,2.789174E-1,-5.066276E-1,5.923203E-1,7.8938365E-1,-9.133216E-2,9.032298E-1,-8.033538E-2,-5.939006E-1,8.302716E-1,-6.2868035E-1,9.8773015E-1,6.597608E-1,-7.387031E-2,8.301955E-1,-1.010641E-1,9.216581E-1,-7.473024E-2,-9.806946E-2,3.008787E-1,5.173078E-1,5.533421E-2,-7.2672033E-1,1.0459458E0,1.2122606E0,-6.3113414E-2,7.1034884E-1,-9.228129E-2,8.635862E-1,-6.460088E-2,9.425873E-1,-5.3067546E-2,5.3387487E-1,-6.085512E-2,8.282794E-1,-1.019265E-1,-4.154063E-2,5.301118E-2,7.0159465E-2,-6.525891E-2,4.119141E-2,9.986199E-2,3.839865E-2,-7.57247E-2,4.432293E-2,-7.72145E-2,5.1693518E-2,3.424051E-2,4.8706676E-3,5.0685972E-2,2.3152387E-2,5.7748646E-2],"categories":[],"categories_nodes":[],"categories_segments":[],"categories_sizes":[],"default_left":[0,0,0,0,0,0,0,0,0,0,0,0,0,0,0,0,0,0,0,0,0,0,0,0,0,0,0,0,0,0,0,0,0,0,0,0,0,0,0,0,0,0,0,0,0,0,0,0,0,0,0,0,0,0,0,0,0],"id":32,"left_children":[1,3,5,7,9,11,13,15,17,19,-1,21,-1,23,25,27,29,31,-1,33,-1,35,-1,-1,37,39,-1,41,43,45,-1,47,-1,49,-1,51,-1,53,-1,55,-1,-1,-1,-1,-1,-1,-1,-1,-1,-1,-1,-1,-1,-1,-1,-1,-1],"loss_changes":[1.7270628E2,1.7033301E2,1.9830963E1,1.4272354E2,2.2784859E1,1.2195511E1,3.583897E1,1.25540344E2,2.0927471E1,2.2604172E1,0E0,1.1430405E1,0E0,3.6096504E1,3.3575897E0,1.04816895E2,2.7853191E1,1.8944191E1,0E0,1.3908318E1,0E0,1.0396011E1,0E0,0E0,7.160275E0,2.0115257E1,0E0,1.1236102E2,3.161763E1,1.2955933E1,0E0,1.873919E1,0E0,1.1190247E1,0E0,4.575821E0,0E0,3.3890185E0,0E0,2.0162983E0,0E0,0E0,0E0,0E0,0E0,0E0,0E0,0E0,0E0,0E0,0E0,0E0,0E0,0E0,0E0,0E0,0E0],"parents":[2147483647,0,0,1,1,2,2,3,3,4,4,5,5,6,6,7,7,8,8,9,9,11,11,13,13,14,14,15,15,16,16,17,17,19,19,21,21,24,24,25,25,27,27,28,28,29,29,31,31,33,33,35,35,37,37,39,39],"right_children":[2,4,6,8,10,12,14,16,18,20,-1,22,-1,24,26,28,30,32,-1,34,-1,36,-1,-1,38,40,-1,42,44,46,-1,48,-1,50,-1,52,-1,54,-1,56,-1,-1,-1,-1,-1,-1,-1,-1,-1,-1,-1,-1,-1,-1,-1,-1,-1],"split_conditions":[1E0,1E0,1E0,1E0,1E0,1E0,1E0,1E0,1E0,1E0,-9.133216E-2,1E0,-8.033538E-2,1E0,1E0,1E0,1E0,1E0,-7.387031E-2,1E0,-1.010641E-1,1E0,-7.473024E-2,-9.806946E-2,1E0,1E0,5.533421E-2,1E0,1E0,1E0,-6.3113414E-2,1E0,-9.228129E-2,1E0,-6.460088E-2,1E0,-5.3067546E-2,1E0,-6.085512E-2,1E0,-1.019265E-1,-4.154063E-2,5.301118E-2,7.0159465E-2,-6.525891E-2,4.119141E-2,9.986199E-2,3.839865E-2,-7.57247E-2,4.432293E-2,-7.72145E-2,5.1693518E-2,3.424051E-2,4.8706676E-3,5.0685972E-2,2.3152387E-2,5.7748646E-2],"split_indices":[116,229,650,675,1722,674,1911,1844,789,694,0,1615,0,1942,1034,1168,1380,552,0,1290,0,378,0,0,694,1942,0,828,650,1328,0,1727,0,898,0,394,0,42,0,155,0,0,0,0,0,0,0,0,0,0,0,0,0,0,0,0,0],"split_type":[0,0,0,0,0,0,0,0,0,0,0,0,0,0,0,0,0,0,0,0,0,0,0,0,0,0,0,0,0,0,0,0,0,0,0,0,0,0,0,0,0,0,0,0,0,0,0,0,0,0,0,0,0,0,0,0,0],"sum_hessian":[1.3097783E3,1.00974963E3,3.000287E2,8.2584576E2,1.839039E2,2.2757994E2,7.244874E1,6.8390076E2,1.41945E2,1.8142902E2,2.474875E0,2.2650166E2,1.0782843E0,2.8017939E1,4.4430798E1,6.3279596E2,5.1104782E1,1.3812552E2,3.8194816E0,1.7952686E2,1.9021622E0,2.2538512E2,1.1165504E0,1.0610266E1,1.7407673E1,2.2184385E1,2.2246414E1,5.98333E2,3.446299E1,4.688707E1,4.2177105E0,1.3609402E2,2.0315032E0,1.7732983E2,2.1970212E0,2.2355037E2,1.8347384E0,1.5653331E1,1.7543429E0,2.0380583E1,1.8038015E0,5.659033E2,3.2429684E1,3.0267199E1,4.195792E0,3.273717E1,1.4149899E1,1.3329642E2,2.7976027E0,1.7628714E2,1.0426981E0,1.6286613E2,6.0684246E1,8.827208E0,6.8261228E0,1.07640915E1,9.616492E0],"tree_param":{"num_deleted":"0","num_feature":"2048","num_nodes":"57","size_leaf_vector":"1"}},{"base_weights":[1.17484085E-1,3.0808836E-1,-5.0124204E-1,3.723523E-1,-7.572735E-1,-6.4069915E-1,2.0065587E0,4.2633814E-1,-8.410946E-1,-6.316199E-2,5.8339026E-2,-9.075986E-1,6.283068E-1,-3.9283723E-2,1.177751E-1,4.67938E-1,-6.1260756E-2,-6.708782E-2,5.318147E-2,-1.1070778E0,5.095307E-2,1.1005774E-1,9.150948E-2,4.9818075E-1,-6.782868E-2,-6.1509293E-2,5.1659424E-2,-6.340783E-2,8.390296E-1,2.344322E-2,1.03031985E-1,4.8591223E-2,-5.1282823E-2],"categories":[],"categories_nodes":[],"categories_segments":[],"categories_sizes":[],"default_left":[0,0,0,0,0,0,0,0,0,0,0,0,0,0,0,0,0,0,0,0,0,0,0,0,0,0,0,0,0,0,0,0,0],"id":33,"left_children":[1,3,5,7,9,11,13,15,17,-1,-1,19,21,-1,-1,23,-1,-1,-1,25,-1,27,-1,29,-1,-1,-1,-1,31,-1,-1,-1,-1],"loss_changes":[1.5190953E2,6.767621E1,1.0740578E2,6.1218994E1,5.6311573E1,9.8185135E1,1.7661003E1,6.1729233E1,3.9484753E1,0E0,0E0,9.280339E1,3.1361895E1,0E0,0E0,4.8624863E1,0E0,0E0,0E0,5.835034E1,0E0,3.7705116E1,0E0,3.822267E1,0E0,0E0,0E0,0E0,7.0524426E0,0E0,0E0,0E0,0E0],"parents":[2147483647,0,0,1,1,2,2,3,3,4,4,5,5,6,6,7,7,8,8,11,11,12,12,15,15,19,19,21,21,23,23,28,28],"right_children":[2,4,6,8,10,12,14,16,18,-1,-1,20,22,-1,-1,24,-1,-1,-1,26,-1,28,-1,30,-1,-1,-1,-1,32,-1,-1,-1,-1],"split_conditions":[1E0,1E0,1E0,1E0,1E0,1E0,1E0,1E0,1E0,-6.316199E-2,5.8339026E-2,1E0,1E0,-3.9283723E-2,1.177751E-1,1E0,-6.1260756E-2,-6.708782E-2,5.318147E-2,1E0,5.095307E-2,1E0,9.150948E-2,1E0,-6.782868E-2,-6.1509293E-2,5.1659424E-2,-6.340783E-2,1E0,2.344322E-2,1.03031985E-1,4.8591223E-2,-5.1282823E-2],"split_indices":[695,1274,1331,1199,66,249,1734,1257,683,0,0,1706,1831,0,0,715,0,0,0,190,0,310,0,1857,0,0,0,0,1564,0,0,0,0],"split_type":[0,0,0,0,0,0,0,0,0,0,0,0,0,0,0,0,0,0,0,0,0,0,0,0,0,0,0,0,0,0,0,0,0],"sum_hessian":[1.2858036E3,9.8336957E2,3.0243396E2,9.2803955E2,5.533001E1,2.872071E2,1.522688E1,8.891311E2,3.8908474E1,4.4081413E1,1.1248594E1,2.3753346E2,4.9673637E1,1.5524714E0,1.3674408E1,8.679847E2,2.1146414E1,3.1044031E1,7.8644443E0,2.1563301E2,2.1900444E1,3.5470436E1,1.42032E1,8.545468E2,1.3437849E1,2.0430653E2,1.1326485E1,1.2014963E1,2.3455473E1,8.400844E2,1.446239E1,2.2343119E1,1.112354E0],"tree_param":{"num_deleted":"0","num_feature":"2048","num_nodes":"33","size_leaf_vector":"1"}},{"base_weights":[3.5305724E-2,-1.4703716E-1,6.955626E-1,-2.7561364E-1,5.5895954E-1,7.240507E-1,-8.578249E-2,-4.5015487E-1,5.709956E-1,6.2347233E-1,-8.4720515E-2,9.1237146E-1,3.751112E-1,-5.5935246E-1,8.8368255E-1,6.580762E-1,-8.882361E-2,6.721419E-1,-7.860942E-2,1.0113215E0,-3.2392002E-3,4.900591E-1,-1.5127805E-1,-6.2314314E-1,9.947995E-2,-5.4297265E-2,1.1478335E0,7.2050506E-1,-7.47211E-2,7.0069456E-1,-8.0993935E-2,1.0345742E0,7.405137E-1,-9.585487E-2,6.002173E-2,6.148563E-1,-8.276281E-2,-3.840855E-2,3.287096E-2,7.432776E-2,1.853587E-2,3.8323916E-2,-7.798239E-2,3.6992293E-2,-4.8150565E-2,5.3258814E-2,4.0731706E-2,2.2351872E-2,4.9910415E-2,3.4306716E-2,-1.05454974E-1],"categories":[],"categories_nodes":[],"categories_segments":[],"categories_sizes":[],"default_left":[0,0,0,0,0,0,0,0,0,0,0,0,0,0,0,0,0,0,0,0,0,0,0,0,0,0,0,0,0,0,0,0,0,0,0,0,0,0,0,0,0,0,0,0,0,0,0,0,0,0,0],"id":34,"left_children":[1,3,5,7,9,11,-1,13,15,17,-1,19,21,23,25,27,-1,29,-1,31,33,35,-1,37,-1,-1,39,41,-1,43,-1,45,47,-1,-1,49,-1,-1,-1,-1,-1,-1,-1,-1,-1,-1,-1,-1,-1,-1,-1],"loss_changes":[1.4709088E2,8.7072556E1,1.9402992E1,1.2004864E2,2.2549301E1,1.6874496E1,0E0,9.846936E1,2.9584488E1,1.649445E1,0E0,1.5356827E1,3.8045475E1,1.0243782E2,2.7931458E1,1.9185974E1,0E0,1.0430092E1,0E0,1.9696045E-1,4.267254E1,2.547137E1,0E0,1.1341048E2,0E0,0E0,1.1481167E1,1.499472E1,0E0,9.895554E0,0E0,6.3308716E-2,7.3445415E-1,0E0,0E0,1.8347645E1,0E0,0E0,0E0,0E0,0E0,0E0,0E0,0E0,0E0,0E0,0E0,0E0,0E0,0E0,0E0],"parents":[2147483647,0,0,1,1,2,2,3,3,4,4,5,5,7,7,8,8,9,9,11,11,12,12,13,13,14,14,15,15,17,17,19,19,20,20,21,21,23,23,26,26,27,27,29,29,31,31,32,32,35,35],"right_children":[2,4,6,8,10,12,-1,14,16,18,-1,20,22,24,26,28,-1,30,-1,32,34,36,-1,38,-1,-1,40,42,-1,44,-1,46,48,-1,-1,50,-1,-1,-1,-1,-1,-1,-1,-1,-1,-1,-1,-1,-1,-1,-1],"split_conditions":[1E0,1E0,1E0,1E0,1E0,1E0,-8.578249E-2,1E0,1E0,1E0,-8.4720515E-2,1E0,1E0,1E0,1E0,1E0,-8.882361E-2,1E0,-7.860942E-2,1E0,1E0,1E0,-1.5127805E-1,1E0,9.947995E-2,-5.4297265E-2,1E0,1E0,-7.47211E-2,1E0,-8.0993935E-2,1E0,1E0,-9.585487E-2,6.002173E-2,1E0,-8.276281E-2,-3.840855E-2,3.287096E-2,7.432776E-2,1.853587E-2,3.8323916E-2,-7.798239E-2,3.6992293E-2,-4.8150565E-2,5.3258814E-2,4.0731706E-2,2.2351872E-2,4.9910415E-2,3.4306716E-2,-1.05454974E-1],"split_indices":[116,229,1199,675,114,394,0,1171,1243,1750,0,650,1024,355,389,1274,0,1582,0,1722,516,283,0,1607,0,0,1427,106,0,1432,0,1943,802,0,0,844,0,0,0,0,0,0,0,0,0,0,0,0,0,0,0],"split_type":[0,0,0,0,0,0,0,0,0,0,0,0,0,0,0,0,0,0,0,0,0,0,0,0,0,0,0,0,0,0,0,0,0,0,0,0,0,0,0,0,0,0,0,0,0,0,0,0,0,0,0],"sum_hessian":[1.219905E3,9.5652045E2,2.6338458E2,8.096722E2,1.4684828E2,2.610006E2,2.3839617E0,6.716663E2,1.3800584E2,1.434643E2,3.3839927E0,1.6846582E2,9.253479E1,6.213766E2,5.0289734E1,1.3376347E2,4.2423654E0,1.4103203E2,2.4322739E0,1.5194102E2,1.6524797E1,9.033715E1,2.197641E0,6.069426E2,1.4433961E1,5.579016E0,4.471072E1,1.306398E2,3.1236703E0,1.3998248E2,1.0495309E0,1.3732904E2,1.4611974E1,6.151353E0,1.0373444E1,8.6045135E1,4.2920165E0,5.4555664E2,6.1385967E1,3.0502625E1,1.4208094E1,1.2870859E2,1.9312222E0,1.3730661E2,2.6758797E0,1.171816E2,2.0147444E1,8.110296E0,6.5016775E0,8.458003E1,1.4651024E0],"tree_param":{"num_deleted":"0","num_feature":"2048","num_nodes":"51","size_leaf_vector":"1"}},{"base_weights":[2.8965602E-2,1.267884E-1,-1.0590172E0,-2.12899E-2,6.404776E-1,-6.379051E-2,4.585048E-2,5.0708845E-2,-6.7134164E-2,7.3390216E-1,1.3719004E-2,1.2800102E-2,1.9503986E0,7.5468963E-1,-8.0433406E-2,-1.0313048E-1,6.09046E-1,-2.5470398E-2,1.8527055E0,-5.00013E-2,1.1954009E-1,7.743042E-1,-7.53042E-2,7.4719626E-1,-6.68471E-2,7.779024E-3,-2.576322E-2,-4.5351002E-2,1.1460958E-1,3.97295E-2,-6.600345E-2,2.4045302E-2,5.61257E-2],"categories":[],"categories_nodes":[],"categories_segments":[],"categories_sizes":[],"default_left":[0,0,0,0,0,0,0,0,0,0,0,0,0,0,0,0,0,0,0,0,0,0,0,0,0,0,0,0,0,0,0,0,0],"id":35,"left_children":[1,3,5,7,9,-1,-1,11,-1,13,15,17,19,21,-1,-1,23,25,27,-1,-1,29,-1,31,-1,-1,-1,-1,-1,-1,-1,-1,-1],"loss_changes":[1.3141345E2,8.616789E1,4.4806885E1,8.3804565E1,1.4831757E1,0E0,0E0,6.0153286E1,0E0,1.1954941E1,4.3159794E1,5.7807476E1,2.3625877E1,1.08912735E1,0E0,0E0,8.28934E0,7.1427185E1,2.2368073E1,0E0,0E0,1.0314423E1,0E0,2.054906E0,0E0,0E0,0E0,0E0,0E0,0E0,0E0,0E0,0E0],"parents":[2147483647,0,0,1,1,2,2,3,3,4,4,7,7,9,9,10,10,11,11,12,12,13,13,16,16,17,17,18,18,21,21,23,23],"right_children":[2,4,6,8,10,-1,-1,12,-1,14,16,18,20,22,-1,-1,24,26,28,-1,-1,30,-1,32,-1,-1,-1,-1,-1,-1,-1,-1,-1],"split_conditions":[1E0,1E0,1E0,1E0,1E0,-6.379051E-2,4.585048E-2,1E0,-6.7134164E-2,1E0,1E0,1E0,1E0,1E0,-8.0433406E-2,-1.0313048E-1,1E0,1E0,1E0,-5.00013E-2,1.1954009E-1,1E0,-7.53042E-2,1E0,-6.68471E-2,7.779024E-3,-2.576322E-2,-4.5351002E-2,1.1460958E-1,3.97295E-2,-6.600345E-2,2.4045302E-2,5.61257E-2],"split_indices":[401,116,196,1004,1380,0,0,463,0,1245,762,1331,745,31,0,0,953,695,591,0,0,353,0,898,0,0,0,0,0,0,0,0,0],"split_type":[0,0,0,0,0,0,0,0,0,0,0,0,0,0,0,0,0,0,0,0,0,0,0,0,0,0,0,0,0,0,0,0,0],"sum_hessian":[1.2324847E3,1.1316217E3,1.00863E2,8.7915204E2,2.5246967E2,9.121051E1,9.65249E0,8.3463684E2,4.451522E1,2.1956969E2,3.289997E1,8.192944E2,1.5342467E1,